
\data\
ngram 1=1109
ngram 2=4394
ngram 3=134

\1-grams:
-2.803834	-	-0.1612132
-7.052943	-ا
-7.052943	-ته	-0.1950874
-7.052943	-رح
-7.052943	-ک
-7.052943	-که	-0.1875648
-2.747718	:	-0.4175339
-1.041958	</s>
-99	<s>	-0.157456
-3.062112	|	-0.3868991
-3.062112	«	-0.2536044
-2.26191	»	-0.5551264
-1.79056	،	-0.06307375
-3.010959	؛	-0.1704293
-2.965202	؟	-0.1205015
-7.052943	؟</s>
-7.052943	آ
-2.584991	آب	-0.2618549
-3.311989	آباد	-0.2150002
-7.052943	آبدارباش
-7.052943	آت
-3.78911	آجر
-2.965202	آخر	-0.1881895
-7.052943	آد	-0.1731824
-3.537622	آرزو	-0.1935791
-3.363142	آستین	-0.2647637
-3.78911	آسوده	-0.4155228
-3.18705	آفتاب	-0.2372444
-7.052943	آفتابه	-0.1744671
-3.152288	آقا	-0.190523
-7.052943	آقایون	-0.1888555
-3.78911	آلود
-2.613019	آمد	-0.7004392
-3.311989	آمدند	-0.655053
-7.052943	آمده_اس
-7.052943	آمده_بود
-7.052943	آمده_بودند
-1.946085	آن	-0.3237588
-7.052943	آنطرف	-0.1947398
-3.567262	آنچه	-0.1490685
-3.035783	آهسته	-0.2772711
-7.052943	آهن
-2.987478	آورد	-0.4197797
-7.052943	آوردین
-7.052943	آویخ
-7.052943	آویز
-7.052943	أد
-7.052943	أقا	-0.1946402
-7.052943	أن	-0.1931067
-7.052943	إبتول	-0.1931067
-7.052943	إمامور
-7.052943	ا	-0.1537512
-7.052943	ابرو
-2.622779	اتاق	-0.2352797
-3.537622	اتفاق	-0.4268568
-7.052943	اتق	-0.1924445
-7.052943	اجازه
-7.052943	احترام
-7.052943	احمد
-3.096804	اختیار	-0.1591258
-3.096804	اداره	-0.1572818
-7.052943	اذ
-1.466202	از	-0.3769988
-7.052943	اس	-0.1468395
-7.052943	استخو
-7.052943	استعباد
-7.052943	استغفار
-3.120104	اسم	-0.2341841
-7.052943	اسمشو	-0.1731824
-3.537622	اشک	-0.1789584
-7.052943	اشکال
-3.266232	اطراف	-0.1213953
-7.052943	اطمین
-7.052943	اعتنا	-0.1949615
-7.052943	افتاب
-2.944012	افتاد	-0.7693763
-2.761082	افتاده	-0.7679265
-7.052943	افتاده_باشد
-7.052943	افتاده_بود
-7.052943	افتاده_بودند
-7.052943	افزود
-7.052943	افطار	-0.192184
-3.567262	اقامه	-0.1533629
-7.052943	الأهالا	-0.1941454
-7.052943	الحاد
-2.664172	الله	-0.2051856
-3.266232	الوار	-0.1573919
-2.664172	اما	-0.2151635
-7.052943	امتح
-3.567262	امشب	-0.1945695
-3.78911	انار	-0.18449
-3.567262	انتظار	-0.1799827
-7.052943	انداخ
-3.09014	انداخته	-0.8353372
-7.052943	انگ
-3.311989	انگار	-0.1610129
-3.567262	انگشت	-0.1907606
-2.010959	او	-0.3233262
-2.819074	اول	-0.137386
-7.052943	اومد	-0.1946873
-3.096804	اون	-0.2590436
-7.052943	اکبر
-2.533838	اگر	-0.2147319
-7.052943	ایر
-3.363142	ایستاد	-0.6475936
-7.052943	ایستاده_بود
-7.052943	ایستاده_بودند
-7.052943	ایستاده‌اند
-1.765172	این	-0.3740253
-2.734753	اینکه	-0.1801634
-7.052943	ایو
-7.052943	ایک	-0.193768
-7.052943	ب
-1.880625	با	-0.3458655
-3.096804	بابلسر	-0.1222586
-2.851258	باد	-0.2742226
-2.518044	بار	-0.1638989
-7.052943	باره
-3.421134	باریک	-0.285724
-2.336813	باز	-0.1583488
-7.052943	بازرس
-7.052943	بازیچه
-2.664172	باشد	-0.348298
-3.78911	باغچه	-0.144784
-7.052943	بافتن
-7.052943	باق
-2.78911	بالا	-0.4541172
-2.69803	باید	-0.1796022
-7.052943	بایس
-3.78911	ببر	-0.3104438
-7.052943	ببرد
-3.537622	ببین	-0.1640306
-7.052943	ببیند
-3.096804	بتول	-0.179389
-3.78911	بخار
-7.052943	بخوان
-7.052943	بخواند	-0.1389066
-3.537622	بخواهد	-0.1468395
-3.78911	بخورد	-0.1468395
-3.537622	بد
-7.052943	بداند
-7.052943	بدجنس
-7.052943	بدل
-3.78911	بدن
-3.421134	بدهد	-0.3982701
-2.440157	بر	-0.3214925
-7.052943	برا
-3.363142	برد	-0.1472678
-7.052943	بردا
-7.052943	بردارد
-3.096804	برداشته	-0.3696158
-7.052943	بردند
-7.052943	برده_بودند
-3.78911	برساند	-0.1690554
-3.567262	برسد	-0.2601962
-3.421134	برق
-7.052943	برم	-0.1927757
-3.311989	برنج	-0.2066499
-7.052943	برنگ
-7.052943	بره	-0.1940746
-3.311989	برهنه	-0.211827
-3.266232	برو	-0.2212579
-3.567262	برود	-0.1876421
-3.78911	بروند	-0.1671528
-7.052943	برگ
-7.052943	برگرداند	-0.1468395
-3.537622	برید	-0.2357076
-3.224839	بزرگ	-0.2187394
-3.567262	بس	-0.1942161
-3.567262	بساط	-0.1737016
-7.052943	بسته_بود
-7.052943	بشود
-7.052943	بشوند
-2.603474	بعد	-0.2714506
-7.052943	بغل
-7.052943	بفرمایین
-7.052943	بفهم
-7.052943	بلرزد	-0.1950874
-2.576035	بلند	-0.467949
-3.421134	بله	-0.1677545
-7.052943	بنار	-0.1947398
-3.266232	بند	-0.1864623
-3.537622	بنده	-0.3291925
-1.355074	به	-0.4743725
-3.78911	بو
-1.680771	بود	-0.7973891
-3.567262	بودن	-0.09873581
-2.747718	بودند	-0.4596712
-7.052943	بودندواز	-0.1946166
-7.052943	بوده_اس
-7.052943	بودویا
-7.052943	بودویه
-7.052943	بودیخ
-7.052943	بودین
-7.052943	بپرس
-2.761082	بچه	-0.1593148
-7.052943	بکن
-3.18705	بکند	-0.2741295
-3.537622	بگذارد	-0.1799827
-7.052943	بگذرد	-0.1468395
-7.052943	بگذرند
-3.537622	بگوید	-0.1876845
-7.052943	بگید	-0.1879955
-3.537622	بگیر	-0.3698469
-3.78911	بگیرند	-0.1323782
-7.052943	بیار
-3.096804	بیدار	-0.1439643
-2.904504	بیرون	-0.1964144
-7.052943	بیس
-3.120104	بیش	-0.5166886
-7.052943	بیفتد	-0.1754774
-3.266232	بین	-0.1899282
-7.052943	بینداز
-7.052943	بیچ	-0.1947398
-7.052943	بیچارگ
-2.275006	تا	-0.2544819
-7.052943	تاب	-0.1925155
-7.052943	تابتوانند	-0.1950168
-7.052943	تابس
-3.096804	تابستان	-0.4089414
-3.096804	تاریک	-0.3251155
-2.761082	تازه	-0.1899293
-7.052943	تبسته
-7.052943	تخ
-7.052943	تخته
-3.311989	ترس	-0.4058981
-7.052943	ترق	-0.1931067
-7.052943	ترکمن
-3.096804	تسبیح	-0.4833046
-7.052943	تشریف
-7.052943	تشنگ
-7.052943	تصدیق
-7.052943	تصم
-3.567262	تصمیم	-0.1937443
-7.052943	تعادل	-0.1911407
-3.311989	تعارف	-0.08836278
-3.266232	تعجب	-0.1836695
-3.567262	تعریف	-0.1468395
-3.09014	تفنگ	-0.2742817
-7.052943	تقریبا	-0.1942868
-7.052943	تقس
-7.052943	تل	-0.1933666
-7.052943	تلاو
-7.052943	تلقین
-7.052943	تما
-7.052943	تماز
-3.311989	تماشا	-0.1537512
-2.747718	تمام	-0.3121466
-7.052943	تن	-0.1938859
-3.152288	تند	-0.143546
-3.78911	تنگ	-0.1468395
-7.052943	تنگنا
-3.224839	ته	-0.1591852
-7.052943	تهر
-2.341952	تو	-0.2997689
-7.052943	توجه
-7.052943	توقیف
-7.052943	تونل
-3.363142	تک	-0.3696365
-3.120104	تکان	-0.2895764
-7.052943	تکرد
-3.421134	تکیه	-0.4448866
-3.096804	ثانیه	-0.1881629
-7.052943	ج
-2.834868	جا	-0.1593376
-3.363142	جاده	-0.1706512
-7.052943	جارو
-7.052943	جالب	-0.1949615
-7.052943	جانماز	-0.1939567
-3.537622	جد	-0.2601962
-7.052943	جر
-3.18705	جز	-0.2786622
-3.537622	جزو	-0.1947108
-7.052943	جف
-3.78911	جلد	-0.1950168
-3.062112	جلو	-0.120609
-3.120104	جمع	-0.2745005
-3.120104	جناب	-0.19365
-7.052943	جو
-2.944012	جواب	-0.1383171
-3.152288	جور	-0.342869
-7.052943	جوگندم
-3.266232	جیب	-0.1840558
-7.052943	ح
-3.224839	حاضر	-0.2348423
-2.965202	حال	-0.1995574
-2.69803	حالا	-0.2853667
-7.052943	حت
-3.363142	حتما	-0.2560967
-2.747718	حرف	-0.3295224
-7.052943	حریص	-0.1945224
-3.421134	حس	-0.1950874
-7.052943	حسن
-7.052943	حصیر
-3.537622	حفظ
-7.052943	حلقه
-7.052943	حمال
-7.052943	حمله	-0.1938859
-3.78911	حوصله	-0.1893564
-3.363142	حوض	-0.3549389
-7.052943	حکوم
-2.987478	حیاط	-0.2593537
-7.052943	خ
-7.052943	خاتمه	-0.1529483
-3.311989	خاطر	-0.2598176
-7.052943	خامو
-2.379741	خانه	-0.1958345
-3.035783	خاک	-0.2453186
-3.035783	خبر	-0.2052301
-7.052943	خجاب
-7.052943	خجال
-3.120104	خجالت	-0.1810749
-2.550228	خدا	-0.3488143
-3.096804	خدایا	-0.1709746
-7.052943	خرا
-7.052943	خره	-0.194805
-3.567262	خرید	-0.1003774
-7.052943	خریدن
-3.537622	خسته	-0.1468395
-7.052943	خستگ
-3.363142	خشک	-0.4121253
-3.537622	خصوص	-0.1775645
-3.537622	خط	-0.1947343
-7.052943	خلو
-7.052943	خند
-3.152288	خنده	-0.1211165
-7.052943	خندید	-0.3698469
-3.537622	خندیدند	-0.1888837
-7.052943	خو
-7.052943	خوا
-2.642982	خواب	-0.1962923
-7.052943	خواباند
-7.052943	خوابیده_باشد
-7.052943	خواس
-3.78911	خواستند	-0.2820908
-3.311989	خواند	-0.445231
-3.567262	خواندن	-0.1608093
-7.052943	خواهد_افتاد
-7.052943	خواهد_ایستاد
-7.052943	خواهد_شد
-7.052943	خواهد_لرزید
-7.052943	خواهد_کند
-7.052943	خواهد_گردید
-3.096804	خواهر	-0.1521959
-7.052943	خواهند_ایستاد
-7.052943	خواهند_نشس
-7.052943	خواهند_کرد
-2.69803	خوب	-0.2443458
-2.043515	خود	-0.3992928
-7.052943	خودشه	-0.1941454
-3.062112	خورد	-0.6576754
-3.062112	خورده	-0.3897471
-3.567262	خورشید	-0.1723155
-7.052943	خوشحال
-3.152288	خون	-0.1871098
-7.052943	خونسرد
-7.052943	خیاب
-2.819074	خیال	-0.2192341
-3.09014	خیس	-0.3684805
-7.052943	خیل
-7.052943	د
-7.052943	دا
-2.675167	داد	-0.724166
-2.77487	داده	-0.6521015
-7.052943	داده_بود
-3.311989	دار	-0.08120525
-3.035783	دارد	-0.3742726
-3.567262	دارند	-0.1420812
-3.78911	داره	-0.3698469
-2.533838	داشت	-0.3641252
-3.096804	داشتند	-0.1143412
-7.052943	داشته_بود
-7.052943	دال
-7.052943	دخ
-2.803834	دختر	-0.1650797
-3.224839	دختره	-0.184857
-3.78911	دخترک	-0.306926
-1.616897	در	-0.4226866
-7.052943	درآمد	-0.1923735
-3.062112	دراز	-0.3004803
-7.052943	درخ
-3.035783	درد	-0.09853017
-7.052943	درز	-0.1950874
-7.052943	درس
-7.052943	درم	-0.1936736
-7.052943	درون	-0.1901424
-3.78911	درک
-7.052943	دریده	-0.1912356
-7.052943	دس
-2.245042	دست	-0.1536079
-3.78911	دستمال
-3.18705	دسته	-0.3547187
-3.363142	دعا	-0.1221423
-7.052943	دعوا	-0.1865823
-3.18705	دفعه	-0.2565941
-3.152288	دقیقه	-0.2405138
-3.152288	دل	-0.1613104
-3.78911	دماغ
-3.152288	دنبال	-0.1760185
-7.052943	دنبالشون	-0.185934
-3.537622	دنباله	-0.1947109
-7.052943	دند
-3.224839	ده	-0.173421
-7.052943	دهات
-3.567262	دهاتی	-0.1862943
-3.567262	دهان	-0.1461027
-2.316842	دو	-0.4167969
-3.537622	دوازده	-0.1709746
-3.062112	دوباره	-0.3683708
-7.052943	دوخته_شده_بود
-2.686448	دور	-0.1281225
-3.266232	دوش	-0.09163597
-7.052943	دوم	-0.1865823
-2.944012	دید	-0.3068178
-7.052943	دیدمشون
-2.987478	دیده	-0.3553045
-7.052943	دیوا
-3.062112	دیوار	-0.2832344
-2.201774	دیگر	-0.1800748
-3.062112	دیگه	-0.2606861
-3.096804	ذکر	-0.1537512
-7.052943	ر
-1.333758	را	-0.54036
-3.537622	راحت	-0.1904041
-7.052943	راس
-3.120104	راست	-0.498426
-7.052943	راض
-2.518044	راه	-0.05133474
-7.052943	رح
-7.052943	رخ
-3.096804	رختخواب	-0.1731824
-3.567262	رد	-0.1906894
-3.78911	ردیف	-0.1944282
-3.78911	رساند	-0.1154731
-3.18705	رسید	-0.3235246
-7.052943	رسیده_بود
-7.052943	رف	-0.1865823
-2.576035	رفت	-0.4345964
-3.567262	رفتند	-0.2576166
-2.923809	رفته	-0.3907076
-7.052943	رفته_بود
-7.052943	رفته_بودند
-7.052943	رفقا	-0.1468395
-3.363142	رفیق	-0.4075872
-3.363142	رنگ	-0.1947623
-2.584991	رو	-0.4847275
-3.78911	روانه
-3.096804	روبه
-3.096804	رود	-0.3198122
-2.78911	روز	-0.07250725
-3.266232	روشن	-0.1787875
-2.965202	روضه	-0.2336419
-7.052943	روق	-0.1950874
-3.18705	ریش	-0.2405403
-7.052943	زا	-0.1533688
-7.052943	زار	-0.1468395
-3.537622	زانو	-0.1450744
-7.052943	زحم
-3.78911	زخم
-2.851258	زد	-0.5287635
-2.77487	زده	-0.4164581
-7.052943	زده_بود
-7.052943	زده_شد
-3.78911	زمستان	-0.1875648
-2.709929	زمین	-0.2845527
-2.747718	زن	-0.2814497
-7.052943	زنبیل	-0.1948286
-3.062112	زود	-0.1468565
-3.421134	زیاد	-0.2901672
-2.632763	زیر	-0.2793729
-7.052943	س
-7.052943	ساع
-2.944012	سال	-0.1918635
-3.363142	ساله	-0.2944207
-7.052943	ساک
-7.052943	سبز	-0.1389066
-7.052943	سخ
-3.421134	سخت	-0.1859821
-2.176327	سر	-0.2401507
-3.096804	سرازیر	-0.1826539
-7.052943	سرجا
-7.052943	سردا
-7.052943	سرع
-7.052943	سرنگون
-7.052943	سرپا
-7.052943	سرپیچ	-0.185934
-3.78911	سرگرد
-7.052943	سع
-3.09014	سفر	-0.5926595
-7.052943	سفرمون	-0.1537512
-3.537622	سفره	-0.1744671
-7.052943	سلا
-3.363142	سماور	-0.2819993
-3.421134	سنگین	-0.2376408
-2.834868	سه	-0.5564627
-3.096804	سوار	-0.1896424
-3.567262	سوال	-0.129925
-7.052943	سوخته
-3.537622	سوم	-0.1601214
-7.052943	سپرد	-0.1731824
-7.052943	سکندر
-7.052943	سکو	-0.1754774
-3.224839	سگ	-0.3197719
-3.096804	سیر	-0.1714028
-7.052943	سیزده
-3.363142	سینه	-0.1926101
-3.537622	سیگار	-0.1715959
-7.052943	ش	-0.172712
-3.421134	شاخه	-0.1844659
-3.567262	شام	-0.1555072
-3.567262	شانه
-3.567262	شاه	-0.370342
-3.363142	شاگرد	-0.3258294
-2.987478	شاید	-0.2180947
-2.47384	شب	-0.1252759
-2.132693	شد	-0.6520441
-3.421134	شدند	-0.373529
-2.228805	شده	-0.7425832
-7.052943	شده_اس
-7.052943	شده_باشد
-7.052943	شده_بود
-7.052943	شدیخ	-0.1744671
-7.052943	شراع
-3.224839	شروع	-0.4368764
-7.052943	شریف	-0.1947579
-7.052943	شس
-3.18705	شط	-0.163803
-7.052943	شلوار	-0.1932721
-2.734753	شما	-0.2828785
-7.052943	شمرده	-0.1468395
-7.052943	شنید	-0.1879955
-3.224839	شنیدن	-0.5046664
-3.421134	شهر	-0.1757481
-7.052943	شهربان
-7.052943	شهریات
-2.632763	شود	-0.3898504
-3.120104	شوفر	-0.06185865
-3.78911	شک	-0.1938152
-7.052943	شکس
-3.096804	شکم	-0.19019
-3.537622	شیر	-0.2437628
-3.096804	صاف	-0.129521
-3.78911	صبر	-0.1904992
-7.052943	صحب
-3.062112	صدا	-0.09748366
-7.052943	صراف
-3.567262	صرف	-0.1875648
-7.052943	صغر
-3.224839	صغرا	-0.2781621
-7.052943	صلو
-7.052943	صندل
-3.421134	صورت	-0.1749602
-3.537622	طاق	-0.144599
-3.78911	طاقت	-0.194546
-3.78911	طاقچه	-0.1870139
-2.533838	طرف	-0.1633238
-7.052943	ططنا
-7.052943	طفل
-7.052943	طناب	-0.193768
-2.576035	طور	-0.3640735
-3.567262	طول	-0.1944517
-3.78911	ظهر	-0.1468395
-7.052943	عاد
-7.052943	عاقب
-7.052943	عال
-3.096804	عباس	-0.1317798
-3.78911	عبور	-0.1764853
-3.537622	عجله	-0.1789829
-7.052943	عجیب	-0.1923498
-7.052943	عرب	-0.1731824
-3.537622	عرض	-0.1950168
-3.09014	عرق	-0.195338
-7.052943	عشر	-0.1927048
-7.052943	عصبان
-3.567262	عصر	-0.4060679
-3.09014	عقب	-0.1866542
-7.052943	عل
-7.052943	علاقه	-0.1942161
-7.052943	علف
-3.096804	عمل	-0.1936789
-7.052943	عهد	-0.1884018
-7.052943	غافلگیر	-0.1923735
-7.052943	غرق
-3.363142	غروب	-0.2159332
-3.567262	غصه	-0.1537512
-7.052943	غلغل	-0.1948992
-3.537622	غیر	-0.6543615
-7.052943	ف
-3.096804	فحش	-0.1745164
-7.052943	فر
-3.120104	فرار	-0.375425
-7.052943	فرق
-3.224839	فرو	-0.3291453
-7.052943	فشار	-0.1943575
-2.923809	فقط	-0.3600979
-7.052943	فهمید	-0.1222864
-7.052943	فور
-2.642982	فکر	-0.2360236
-7.052943	قاشق
-7.052943	قالی
-7.052943	قالیچه	-0.1948992
-3.421134	قایق	-0.1155078
-7.052943	قبر	-0.194546
-7.052943	قبل	-0.1799827
-7.052943	قد
-3.120104	قدر	-0.1015462
-2.88602	قدم	-0.1249032
-3.78911	قر	-0.3287676
-7.052943	قرآن	-0.1737263
-3.035783	قرار	-0.2409092
-7.052943	قرمز	-0.1939567
-3.567262	قضیه	-0.1721915
-2.987478	قطار	-0.1759804
-7.052943	قل
-7.052943	قو
-7.052943	قور
-3.363142	قیافه	-0.1408034
-7.052943	لا	-0.1468395
-7.052943	لاز
-7.052943	لاغر	-0.1468395
-7.052943	لاله
-2.734753	لب	-0.3396602
-3.78911	لبه	-0.1535183
-3.096804	لحاف	-0.5247872
-7.052943	لخ
-7.052943	لرز
-7.052943	لرزش
-3.096804	لرزه	-0.1820726
-3.224839	لرزید	-0.321195
-7.052943	لرزیدن	-0.1949227
-3.537622	لنگر	-0.6678872
-7.052943	لوساک
-7.052943	لگن	-0.1879955
-7.052943	م
-3.363142	مأمور	-0.1854773
-2.205534	ما	-0.2300778
-3.035783	مادر	-0.2712187
-3.537622	مارا	-0.1754774
-3.152288	ماشین	-0.1751605
-2.868292	مامور	-0.1942632
-3.78911	ماند	-0.124866
-3.010959	مانده	-0.4540825
-7.052943	مانده_اس
-7.052943	مانده_بود
-3.266232	ماه	-0.1874505
-7.052943	مبارک	-0.3974745
-3.78911	متوجه	-0.1947109
-2.311989	مثل	-0.7160426
-7.052943	مجبوره	-0.1947109
-7.052943	محک
-7.052943	مخالف	-0.1942397
-3.537622	مخصوص	-0.1897377
-7.052943	مدت
-2.642982	مرا	-0.1892514
-3.537622	مرتب	-0.145523
-2.567262	مرد	-0.2357929
-7.052943	مردد	-0.1946637
-3.266232	مرزون	-0.9540308
-7.052943	مرید
-7.052943	مزاح
-7.052943	مزاحم
-7.052943	مستعمعین	-0.1946166
-3.537622	مسجد	-0.1940275
-7.052943	مسخره
-3.120104	مشغول	-0.1913597
-3.567262	مطلب	-0.2527998
-3.537622	مطمئن	-0.271928
-7.052943	معذر
-7.052943	معذرت
-7.052943	معرف
-7.052943	معص
-3.567262	معطل	-0.1904041
-7.052943	معلو
-7.052943	معمول
-7.052943	معین
-3.78911	مغرب	-0.185934
-7.052943	مغز
-3.78911	مقدمه	-0.1926101
-3.421134	ممکن	-0.5144922
-1.882416	من	-0.1671599
-7.052943	منتظرند	-0.1731824
-7.052943	مه
-7.052943	مهتاب
-7.052943	مهر	-0.1944518
-7.052943	مهربان	-0.1835005
-7.052943	مهیا
-7.052943	موذن	-0.1949615
-7.052943	موقت
-3.537622	موقع	-0.1911407
-7.052943	مچ
-2.965202	مگر	-0.2563825
-3.567262	مگه	-0.1875648
-7.052943	میبردند	-0.1947815
-7.052943	میدا
-7.052943	میدویدند
-7.052943	میرفتند	-0.1468395
-7.052943	میزد	-0.1950874
-7.052943	میشد
-3.537622	میله
-7.052943	میهمانخانه
-7.052943	میکرد	-0.1947815
-7.052943	میگف
-7.052943	می‌آمد
-7.052943	می‌آمدند
-7.052943	می‌افتاد
-7.052943	می‌انباشتند
-7.052943	می‌انداخ
-7.052943	می‌انداخت
-7.052943	می‌انداختند
-7.052943	می‌باف
-7.052943	می‌بایس
-7.052943	می‌برد
-7.052943	می‌بین
-7.052943	می‌ترسید
-7.052943	می‌توانس
-7.052943	می‌تونید
-7.052943	می‌خنداند
-7.052943	می‌خندد
-7.052943	می‌خندید
-7.052943	می‌خندیدند
-7.052943	می‌خوابید
-7.052943	می‌خواد
-7.052943	می‌خواس
-7.052943	می‌خواستند
-7.052943	می‌خواند
-7.052943	می‌خورد
-7.052943	می‌خورند
-7.052943	می‌دا
-7.052943	می‌داشتند
-7.052943	می‌دانس
-7.052943	می‌دونید
-7.052943	می‌دوید
-7.052943	می‌دویدند
-7.052943	می‌دید
-7.052943	می‌رف
-7.052943	می‌رفتند
-7.052943	می‌ریخ
-7.052943	می‌زد
-7.052943	می‌زدند
-7.052943	می‌زند
-7.052943	می‌زنند
-7.052943	می‌شد
-7.052943	می‌شدند
-7.052943	می‌شنید
-7.052943	می‌شود
-7.052943	می‌لرزید
-7.052943	می‌نشس
-7.052943	می‌نشستند
-7.052943	می‌نشین
-7.052943	می‌پایند
-7.052943	می‌پایید
-7.052943	می‌پرید
-7.052943	می‌پلکید
-7.052943	می‌چسبید
-7.052943	می‌چکید
-7.052943	می‌چکیدیک
-7.052943	می‌چید
-7.052943	می‌چیدند
-7.052943	می‌کرد
-7.052943	می‌کردند
-7.052943	می‌کرده
-7.052943	می‌کشند
-7.052943	می‌کشید
-7.052943	می‌کشیدند
-7.052943	می‌کن
-7.052943	می‌کند
-7.052943	می‌کنند
-7.052943	می‌گ
-7.052943	می‌گذ
-7.052943	می‌گذاشتند
-7.052943	می‌گذشتند
-7.052943	می‌گرف
-7.052943	می‌گرفتند
-7.052943	می‌گشتند
-7.052943	می‌گف
-7.052943	می‌گه
-7.052943	می‌گید
-7.052943	ن	-0.1879955
-7.052943	ناراح
-3.363142	ناله	-0.3790154
-7.052943	نامحرم	-0.1940982
-7.052943	نامربوط	-0.1468395
-7.052943	ناچار
-7.052943	ناگه
-3.78911	نباید	-0.1949227
-2.709929	نبود	-0.5637302
-7.052943	نتراشیده
-7.052943	نخل
-7.052943	نخلستان
-7.052943	نخواهد_شد
-7.052943	نخواهد_کرد
-7.052943	ندا
-7.052943	نداد	-0.1731824
-7.052943	نداشته_بود
-7.052943	ندیدیمشون
-7.052943	نرسیده_بود
-2.987478	نزدیک	-0.3788775
-7.052943	نزدیکیا
-7.052943	نسشته	-0.185934
-3.311989	نشد	-0.3992468
-3.096804	نشده	-0.6603129
-7.052943	نشده_بود
-7.052943	نشس
-7.052943	نشسته_بود
-7.052943	نشسته_بودند
-7.052943	نشسته‌اند
-7.052943	نشنید
-3.78911	نشود	-0.3767586
-7.052943	نظام
-7.052943	نعلین
-2.868292	نفر	-0.2674637
-3.096804	نفس	-0.1942868
-7.052943	نفهم	-0.1468395
-7.052943	نفهمید	-0.1947398
-7.052943	نفهمیدین
-7.052943	نق
-7.052943	نقطه
-7.052943	نلرزد	-0.1468395
-7.052943	نم	-0.1946637
-3.09014	نماز	-0.1677294
-7.052943	نمانده_بود
-3.567262	نمود	-0.9802576
-7.052943	نمکد
-7.052943	نمیدانس
-7.052943	نمیزد
-7.052943	نمی‌انداخ
-7.052943	نمی‌باق
-7.052943	نمی‌تواند
-7.052943	نمی‌خندید
-7.052943	نمی‌خواس
-7.052943	نمی‌خورد
-7.052943	نمی‌داد
-7.052943	نمی‌دانس
-7.052943	نمی‌دید
-7.052943	نمی‌زد
-7.052943	نمی‌شد
-7.052943	نمی‌پوشاند
-7.052943	نمی‌پوشانید
-7.052943	نمی‌کرد
-7.052943	نمی‌کرداما
-7.052943	نمی‌کشه
-2.944012	نه	-0.2160723
-7.052943	نهاد	-0.1468395
-7.052943	نهاده‌اند
-3.096804	نو	-0.1749109
-3.363142	نور	-0.2936776
-7.052943	نوک	-0.1949698
-3.537622	نکرد	-0.3794104
-7.052943	نکرده_بودند
-2.834868	نگاه	-0.2285882
-3.78911	نگذارد	-0.1937679
-7.052943	نگرف
-7.052943	نگف
-7.052943	نگفته_بود
-3.266232	نگه	-0.1522738
-7.052943	نگون
-7.052943	نیا
-3.78911	نیامده	-0.1848274
-7.052943	نیاورده	-0.185934
-7.052943	نیرو
-3.152288	نیز	-0.1943526
-7.052943	نیس
-7.052943	نیفتد	-0.1879955
-7.052943	ه
-7.052943	هاو	-0.1940039
-2.341952	هر	-0.5832824
-7.052943	هروق
-7.052943	هف
-7.052943	هفتگ
-3.096804	هق	-0.4273809
-7.052943	هلال
-1.712349	هم	-0.07343701
-3.567262	همانطور	-0.4057548
-7.052943	همت
-3.421134	همراه	-0.286849
-2.488081	همه	-0.2836911
-3.421134	همون	-0.3298109
-3.78911	همچه	-0.1295968
-3.363142	همیشه	-0.2456311
-7.052943	همیشگ
-2.567262	همین	-0.4574302
-7.052943	هنز
-2.603474	هنوز	-0.3372147
-7.052943	هه
-3.363142	هوا	-0.2164863
-2.69803	هیچ	-0.3819711
-7.052943	هیکل	-0.1908319
-0.9782062	و	-0.2748811
-3.18705	وارد	-0.2210202
-7.052943	واشک	-0.1799827
-3.537622	واقعه	-0.1665754
-7.052943	وام
-7.052943	واگر
-7.052943	وبار
-7.052943	وبخار
-7.052943	وبیاعتنا
-7.052943	وجب
-7.052943	وح
-3.224839	وحشت	-0.2142077
-7.052943	وداع
-3.18705	ور	-0.2841369
-7.052943	ورداشته	-0.3698469
-7.052943	وزن
-3.421134	وزیر	-0.2818804
-7.052943	وسر	-0.1944518
-3.120104	وسط	-0.2375401
-7.052943	وشل	-0.1950874
-7.052943	وضو
-7.052943	وق
-2.709929	وقت	-0.2662983
-7.052943	وقد
-3.567262	ول	-0.3266844
-3.78911	ومن
-7.052943	وهر
-7.052943	وهمه	-0.1844659
-7.052943	ووا	-0.1945695
-7.052943	ویخ
-7.052943	ویرا
-7.052943	ویز	-0.1950874
-7.052943	پ
-2.834868	پا	-0.2327911
-7.052943	پارو	-0.1538805
-7.052943	پارچه
-7.052943	پاسب
-7.052943	پاشنه	-0.1901424
-3.78911	پاشو	-0.1946637
-7.052943	پاشیده	-0.1943104
-7.052943	پاشیر
-7.052943	پاچین	-0.1950874
-3.363142	پاک	-0.1426125
-7.052943	پاین
-2.653448	پایین	-0.2031702
-7.052943	پایینحیاط	-0.1923498
-2.904504	پدر	-0.1670513
-2.851258	پر	-0.3267297
-7.052943	پراند	-0.1879955
-7.052943	پرتاب	-0.1865823
-3.096804	پرسید	-0.4053831
-7.052943	پرم
-3.096804	پرید	-0.4264319
-3.537622	پریدند	-0.3698469
-3.266232	پریده	-0.2328639
-7.052943	پریده_باشد
-7.052943	پریده_بود
-2.834868	پس	-0.590309
-7.052943	پسته	-0.1950874
-3.096804	پسره	-0.1877324
-2.632763	پشت	-0.7120526
-7.052943	پق
-3.421134	پل	-0.2073574
-7.052943	پلاسیده
-3.363142	پله	-0.1944282
-7.052943	پلک
-3.224839	پنج	-0.1934664
-7.052943	پنجدر
-3.096804	پنجره	-0.173405
-3.78911	پنچر	-0.191876
-3.78911	پنیر	-0.3302293
-3.421134	پهلو	-0.3242573
-3.152288	پهن	-0.1757727
-7.052943	پوس
-3.010959	پول	-0.3884769
-7.052943	پوکر
-7.052943	پک
-3.035783	پیاده	-0.3080697
-2.69803	پیدا	-0.4170378
-3.537622	پیراهن	-0.178152
-7.052943	پیرمرد
-7.052943	پیشا
-7.052943	پیشان
-7.052943	پیمود
-3.78911	پیچ	-0.1947109
-3.567262	پیچید	-0.2191574
-3.537622	پیچیده	-0.2792945
-7.052943	پیچیده_بود
-7.052943	چ
-7.052943	چا
-3.096804	چادر	-0.2934702
-3.096804	چاره	-0.1711984
-7.052943	چاک	-0.4179066
-2.819074	چرا	-0.2022699
-3.035783	چراغ	-0.4950901
-2.734753	چشم	-0.3947653
-7.052943	چشمان
-3.567262	چشمک	-0.1943575
-7.052943	چغل
-3.096804	چقدر	-0.1929649
-2.49538	چند	-0.5654921
-2.17281	چه	-0.257318
-3.311989	چهار	-0.1896816
-3.537622	چهل	-0.1453383
-7.052943	چک
-7.052943	چید	-0.1468395
-7.052943	چیده
-2.904504	چیز	-0.2052133
-7.052943	چیس
-7.052943	چین	-0.1754774
-7.052943	ژاندار
-7.052943	ک
-7.052943	کا	-0.1911407
-2.502804	کار	-0.2370012
-3.062112	کاسه	-0.1918997
-3.78911	کاموا	-0.1616486
-7.052943	کبر
-7.052943	کبیره	-0.1703275
-3.120104	کجا	-0.187493
-7.052943	کدا
-2.110896	کرد	-1.024574
-3.18705	کردن	-0.242889
-3.035783	کردند	-0.6205781
-2.205534	کرده	-1.180546
-7.052943	کرده_بود
-7.052943	کرده_بودند
-7.052943	کرده‌اند
-7.052943	کردو	-0.1936971
-3.035783	کس	-0.09183811
-7.052943	کسان
-7.052943	کسل	-0.1468395
-3.78911	کشته
-3.035783	کشید	-0.6640952
-7.052943	کشیدند	-0.1463923
-3.010959	کشیده	-0.322162
-7.052943	کشیده_بود
-7.052943	کشیده_شده_بود
-3.363142	کف	-0.1923735
-7.052943	کل
-7.052943	کلا	-0.1879955
-3.363142	کلاه	-0.16798
-3.537622	کلبه
-3.062112	کلمه	-0.2418976
-3.537622	کلید	-0.2800949
-7.052943	کلیه
-2.49538	کم	-0.6560026
-3.78911	کمر	-0.146708
-3.421134	کمک	-0.1946873
-3.096804	کن	-0.2565303
-2.851258	کنار	-0.3406336
-3.537622	کناره	-0.1948992
-2.558661	کند	-0.4889542
-3.266232	کنند	-0.6741158
-3.224839	کنه	-0.2544999
-7.052943	کنین
-1.308146	که	-0.3573125
-7.052943	کو
-3.78911	کوتاه	-0.1237307
-7.052943	کودک	-0.1942868
-7.052943	کودکانه
-7.052943	کوش
-3.537622	کول	-0.274492
-7.052943	کوله	-0.1744671
-7.052943	کولواره
-3.152288	کوچه	-0.2499574
-3.363142	کوچک	-0.1350607
-7.052943	کیا
-3.035783	کیسه	-0.3437008
-7.052943	کیف
-7.052943	کیلو
-7.052943	گ
-3.537622	گاز
-7.052943	گانه	-0.1744671
-3.567262	گاه	-0.1940746
-7.052943	گذ
-7.052943	گذا
-7.052943	گذاردند	-0.1948286
-3.537622	گذاشتند	-0.279797
-2.88602	گذاشته	-0.9123561
-7.052943	گذاشته_بود
-7.052943	گذاشته_می‌شد
-7.052943	گذاشته_می‌شدند
-7.052943	گذرانی
-3.537622	گذشتند	-0.4971597
-7.052943	گر
-7.052943	گرف
-7.052943	گرفتن
-7.052943	گرفته_بود
-7.052943	گرفته_شد
-3.09014	گرم	-0.4246934
-7.052943	گرما	-0.1468395
-3.062112	گریه	-0.2047105
-7.052943	گزید
-7.052943	گشایش
-7.052943	گشتند	-0.1468395
-7.052943	گف
-3.78911	گفتن	-0.1744671
-3.224839	گفته	-0.1567681
-3.062112	گل	-0.1509829
-7.052943	گلدان
-7.052943	گلو	-0.1468395
-3.311989	گلوله	-0.1665754
-3.421134	گناه	-0.1997657
-7.052943	گو
-7.052943	گودال	-0.1939567
-3.062112	گوشه	-0.3553228
-7.052943	گون
-3.096804	گونی	-0.1538805
-3.224839	گویا	-0.09800091
-3.311989	گیر	-0.1305804
-2.709929	یا	-0.2310708
-3.09014	یاد	-0.234695
-3.78911	یادتون
-3.537622	یار	-0.1402433
-3.311989	یارو	-0.282653
-7.052943	یاف
-7.052943	یافته_باشد
-3.224839	یخ	-0.2328333
-3.311989	یه	-0.1932774
-7.052943	یوا
-1.908297	یک	-0.4185017
-7.052943	۹	-0.1731824

\2-grams:
-1.441453	- آقایون
-1.441453	- اتاق
-1.441453	- بتول
-1.441453	- برو
-1.441453	- خجالت
-1.441453	- سفره
-1.441453	- هم
-1.441453	- چراغ
-1.441453	- کجا
-1.441453	- که
-0.4414534	-ته أقا
-0.4414534	-که این
-0.8827614	: -
-1.821665	: -ته
-1.821665	: -که
-0.7239439	: </s>
-1.048683	: «
-1.288095	: بله
-1.821665	: بنده
-1.821665	: دیگه
-1.821665	: مگه
-1.821665	: همچه
-1.821665	: همین
-1.048683	: چرا
-2.055951	<s> -
-2.23859	<s> |
-3.400495	<s> «
-1.034762	<s> »	0.04810506
-2.23859	<s> ،
-2.866925	<s> ؟
-2.461591	<s> آب
-2.866925	<s> آخر
-2.627513	<s> آفتاب
-3.400495	<s> آمد
-1.845098	<s> آن	-0.2002418
-2.627513	<s> آهسته
-3.400495	<s> اتاق
-3.400495	<s> اجازه
-1.379258	<s> از	0.007112332
-3.400495	<s> اسم
-2.866925	<s> افتاد
-2.866925	<s> افتاده
-3.400495	<s> افطار
-3.400495	<s> الأهالا
-3.400495	<s> الله
-3.400495	<s> الوار
-1.78295	<s> اما
-3.400495	<s> انداخته
-2.627513	<s> انگار
-1.703769	<s> او	0.1087686
-2.004799	<s> اول
-2.866925	<s> اون
-1.754921	<s> اگر
-3.400495	<s> ایستاد
-1.597314	<s> این
-1.917649	<s> با
-2.866925	<s> باد
-2.866925	<s> بار
-2.461591	<s> باز
-3.400495	<s> بازرس
-3.400495	<s> بالا
-2.866925	<s> ببین
-2.627513	<s> بتول
-3.400495	<s> بر
-3.400495	<s> برق
-3.400495	<s> برنج
-3.400495	<s> برو
-2.866925	<s> بساط
-2.004799	<s> بعد
-3.400495	<s> بلند
-3.400495	<s> بله
-1.658011	<s> به
-2.866925	<s> بود
-3.400495	<s> بودند
-2.461591	<s> بچه
-3.400495	<s> بگذارد
-3.400495	<s> بیش
-2.24467	<s> تا
-3.400495	<s> تازه
-3.400495	<s> تبسته
-3.400495	<s> ترس
-2.866925	<s> تسبیح
-2.866925	<s> تفنگ
-3.400495	<s> تقریبا
-2.627513	<s> تمام
-3.400495	<s> تند
-2.627513	<s> تو
-3.400495	<s> تونل
-3.400495	<s> جا
-3.400495	<s> جاده
-3.400495	<s> جز
-3.400495	<s> جلو
-2.627513	<s> جناب
-2.866925	<s> جواب
-3.400495	<s> حاضر
-2.23859	<s> حالا
-2.866925	<s> حتما
-3.400495	<s> حرف
-2.866925	<s> حس
-3.400495	<s> حصیر
-3.400495	<s> حمال
-3.400495	<s> خانه
-3.400495	<s> خاک
-2.24467	<s> خدا
-3.400495	<s> خدایا
-3.400495	<s> خشک
-3.400495	<s> خواب
-2.24467	<s> خوب
-2.24467	<s> خود	0.1960532
-3.400495	<s> خورشید
-2.866925	<s> خون
-2.866925	<s> خیال
-3.400495	<s> خیس
-3.400495	<s> د
-3.400495	<s> داشت
-2.23859	<s> دختر
-3.400495	<s> دخترک
-1.544068	<s> در	-0.0566973
-2.461591	<s> دست
-3.400495	<s> دستمال
-3.400495	<s> دسته
-3.400495	<s> دنباله
-3.400495	<s> دهان
-2.055951	<s> دو	-0.1021332
-2.866925	<s> دور
-3.400495	<s> دید
-2.24467	<s> دیگر
-2.627513	<s> دیگه
-2.627513	<s> را
-3.400495	<s> راس
-3.400495	<s> راست
-3.400495	<s> راه
-3.400495	<s> رفت
-2.627513	<s> رفیق
-3.400495	<s> رنگ
-3.400495	<s> روبه
-3.400495	<s> روز
-3.400495	<s> ریش
-3.400495	<s> زد
-3.400495	<s> زده
-3.400495	<s> زمستان
-3.400495	<s> زمین
-3.400495	<s> زن
-3.400495	<s> زود
-2.866925	<s> زیاد
-3.400495	<s> زیر
-3.400495	<s> سال
-2.627513	<s> سر
-3.400495	<s> سرپا
-2.866925	<s> سفره
-2.866925	<s> سه
-2.866925	<s> سوال
-3.400495	<s> شاخه
-3.400495	<s> شانه
-2.866925	<s> شاگرد
-2.461591	<s> شاید
-2.302774	<s> شب
-2.866925	<s> شده
-3.400495	<s> شما
-3.400495	<s> شهر
-3.400495	<s> شوفر
-3.400495	<s> شکم
-3.400495	<s> صاف
-2.627513	<s> صغرا
-3.400495	<s> صورت
-3.400495	<s> طرف
-3.400495	<s> طول
-2.866925	<s> عباس
-3.400495	<s> عجله
-2.461591	<s> عرق
-3.400495	<s> غافلگیر
-2.004799	<s> فقط
-2.627513	<s> فکر
-3.400495	<s> قاشق
-3.400495	<s> قبر
-2.461591	<s> قدم
-2.461591	<s> قطار
-2.627513	<s> لب
-3.400495	<s> لرزید
-2.866925	<s> مأمور
-2.24467	<s> ما
-2.461591	<s> مادر
-3.400495	<s> ماشین
-2.24467	<s> مامور
-3.400495	<s> ماه
-1.845098	<s> مثل	0.2164418
-3.400495	<s> مرا
-3.400495	<s> مرتب
-3.400495	<s> مرد
-3.400495	<s> مستعمعین
-3.400495	<s> مطمئن
-3.400495	<s> ممکن
-1.286944	<s> من	-0.0008569658
-2.302774	<s> مگر
-3.400495	<s> مگه
-3.400495	<s> میله
-3.400495	<s> نباید
-2.23859	<s> نزدیک	0.01932999
-2.866925	<s> نه
-3.400495	<s> نو
-2.866925	<s> نوک
-3.400495	<s> نگاه
-1.845098	<s> هر
-2.866925	<s> هم
-2.004799	<s> همه
-3.400495	<s> همچه
-2.866925	<s> همیشه
-2.627513	<s> همین
-2.055951	<s> هنوز
-3.400495	<s> هوا
-2.627513	<s> هیچ
-1.260071	<s> و	-0.1939864
-3.400495	<s> وارد
-3.400495	<s> ورداشته
-2.866925	<s> وقت
-2.627513	<s> ومن
-3.400495	<s> وهمه
-2.866925	<s> پا
-3.400495	<s> پاشو
-3.400495	<s> پایین
-1.917649	<s> پدر
-3.400495	<s> پر
-3.400495	<s> پرید
-2.866925	<s> پس
-3.400495	<s> پسره
-2.866925	<s> پشت
-3.400495	<s> پل
-3.400495	<s> پلک
-3.400495	<s> پنیر
-2.866925	<s> پیراهن
-3.400495	<s> پیچ
-2.23859	<s> چرا
-2.866925	<s> چراغ
-3.400495	<s> چشم
-2.866925	<s> چقدر
-2.627513	<s> چند
-2.004799	<s> چه
-3.400495	<s> کا
-2.627513	<s> کار
-2.302774	<s> کاسه
-3.400495	<s> کجا
-2.627513	<s> کرد
-2.866925	<s> کرده
-3.400495	<s> کشید
-3.400495	<s> کشیده
-2.866925	<s> کلاه
-2.866925	<s> کلید
-2.627513	<s> کم	-0.03872487
-3.400495	<s> کناره
-2.866925	<s> که
-3.400495	<s> کوله
-3.400495	<s> کولواره
-3.400495	<s> کوچه
-2.866925	<s> گاز
-3.400495	<s> گاه
-3.400495	<s> گذرانی
-3.400495	<s> گرما
-3.400495	<s> گریه
-3.400495	<s> گلوله
-3.400495	<s> گناه
-3.400495	<s> گونی
-2.866925	<s> گویا
-2.866925	<s> یا
-3.400495	<s> یادتون
-3.400495	<s> یار
-3.400495	<s> یارو
-3.400495	<s> یه
-1.544068	<s> یک
-0.3437327	| </s>
-1.441453	| آن
-1.441453	| صغرا
-1.441453	| قطار
-1.441453	| هنوز
-1.441453	| هیچ
-1.482846	« اما
-0.9492764	« بله
-0.9492764	« خوب
-1.482846	« داد
-1.482846	« رفقا
-1.482846	« پس
-1.482846	« چرا
-1.482846	« گریه
-1.482846	« یک
-0.243038	» </s>
-1.091921	» |
-2.189641	» آفتاب
-1.656072	» اما
-2.189641	» او
-2.189641	» اگر
-2.189641	» این
-2.189641	» با
-1.656072	» بعد
-2.189641	» به
-2.189641	» در
-2.189641	» ما
-2.189641	» نفس
-1.656072	» و
-2.189641	» پس
-1.656072	» کاسه
-2.189641	» گذاشته
-2.694306	، </s>
-2.160737	، آب
-2.694306	، آخر
-2.694306	، آستین
-2.160737	، آمد
-2.694306	، آن
-1.921325	، آهسته
-1.538482	، از
-2.694306	، افتاده
-1.921325	، او
-1.596586	، این
-1.596586	، با
-2.694306	، باد
-2.694306	، باز
-2.694306	، بالا
-2.694306	، برا
-2.694306	، بساط
-1.022404	، به
-2.694306	، بچه
-2.694306	، بگید
-2.160737	، بیرون
-2.694306	، تا
-2.694306	، تعریف
-2.694306	، تند
-2.694306	، ته
-2.694306	، تو
-2.160737	، جز
-2.694306	، جواب
-2.694306	، حاضر
-2.694306	، خدا
-2.160737	، خشک
-2.694306	، خنده
-2.160737	، خواب
-2.160737	، خوب
-2.160737	، دختره
-1.755403	، در
-2.694306	، دست
-2.694306	، دسته
-2.694306	، دل
-2.694306	، دنبال
-2.160737	، دو
-2.694306	، دوباره
-2.694306	، رو
-2.694306	، روز
-2.694306	، زمین
-2.694306	، زن
-2.694306	، زیر
-2.694306	، سه
-2.160737	، شاید
-2.694306	، شب
-2.694306	، شوفر
-2.694306	، صاف
-2.694306	، غروب
-2.694306	، غصه
-2.694306	، فقط
-2.694306	، قیافه
-2.160737	، ما
-2.694306	، مثل
-2.160737	، مرا
-2.694306	، مطمئن
-1.755403	، من
-2.160737	، مگر
-2.160737	، مگه
-2.694306	، نزدیک
-2.694306	، نفهمید
-2.694306	، نماز
-2.160737	، نه
-2.694306	، نگاه
-2.694306	، هاو
-2.160737	، هر
-2.694306	، همه
-2.694306	، همون
-2.694306	، همیشه
-2.694306	، همین
-1.921325	، هنوز
-2.160737	، هوا
-2.694306	، هیکل
-1.298611	، و
-2.694306	، وارد
-2.694306	، ول
-2.694306	، پارچه
-2.694306	، پاشو
-2.694306	، پس
-2.694306	، پشت
-2.694306	، پیاده
-2.694306	، چرا
-2.694306	، چشم
-2.694306	، چند
-2.694306	، چه
-2.694306	، کار
-2.694306	، کاسه
-2.694306	، کسل
-2.694306	، کلبه
-2.694306	، کنار
-1.532401	، که
-2.694306	، کوچک
-2.694306	، گونی
-2.160737	، گویا
-2.694306	، گیر
-2.694306	، یا
-1.532401	، یک
-1.441453	؛ بازرس
-1.441453	؛ تسبیح
-1.441453	؛ خوا
-1.441453	؛ دست
-1.441453	؛ دیگر
-1.441453	؛ قرآن
-1.441453	؛ نماز
-0.9078838	؛ و
-1.441453	؛ یک
-1.617545	؟ </s>
-1.617545	؟ »
-1.617545	؟ آخر
-1.617545	؟ تا
-1.617545	؟ سر
-1.617545	؟ شوفر
-1.617545	؟ مثل
-1.617545	؟ نزدیک
-1.617545	؟ هر
-1.617545	؟ همه
-1.083975	؟ و
-1.083975	؟ چه
-1.617545	؟ یک
-1.720207	آب آن
-1.186637	آب از
-1.720207	آب بیرون
-1.720207	آب در
-1.720207	آب شط
-1.720207	آب میزد
-0.5643821	آب و
-1.720207	آب کرد
-1.186637	آب کشید
-1.720207	آب گرم
-1.720207	آب گل
-1.219605	آباد |
-0.686035	آباد به
-1.219605	آباد خبر
-1.219605	آباد را
-1.219605	آباد پیاده
-1.520635	آخر اگر
-1.520635	آخر به
-1.520635	آخر تصمیم
-1.520635	آخر تو
-1.520635	آخر دست
-1.520635	آخر ردیف
-1.520635	آخر سال
-1.520635	آخر سر
-1.520635	آخر ما
-1.520635	آخر چه
-0.987065	آخر کار
-0.4414534	آد که
-0.7424834	آرزو همین
-0.7424834	آرزو کجا
-0.6068538	آستین انداخته
-1.140423	آستین بیرون
-1.140423	آستین کوتاه
-1.140423	آستین یک
-0.2089138	آسوده شده
-1.395696	آفتاب از
-1.395696	آفتاب تا
-1.395696	آفتاب خورده
-1.395696	آفتاب داشت
-0.8621263	آفتاب غروب
-0.8621263	آفتاب لب
-1.395696	آفتاب که
-0.4414534	آفتابه را
-0.7424834	آقا خانه
-0.7424834	آقا دیگر
-0.7424834	آقایون ؟
-0.7424834	آقایون با
-2.021237	آمد :
-1.248256	آمد ،
-2.021237	آمد با
-2.021237	آمد بالا
-2.021237	آمد بگوید
-1.487667	آمد جلو
-2.021237	آمد لب
-0.2575643	آمد و
-0.9235163	آمد که
-1.487667	آمد یک
-1.286551	آمدند ؛
-0.1246462	آمدند و
-1.811487	آن </s>
-2.050899	آن ،
-2.050899	آن از
-2.584468	آن اطراف
-2.584468	آن این
-1.811487	آن بر
-2.584468	آن به
-1.811487	آن بود
-1.422563	آن جا
-2.584468	آن جلو
-2.584468	آن داده
-2.584468	آن دخترک
-1.811487	آن در
-2.050899	آن دراز
-2.584468	آن دست
-2.584468	آن دل
-2.584468	آن دو
-2.050899	آن دور
-2.584468	آن دیگر
-1.029071	آن را
-2.584468	آن راه
-1.422563	آن روز
-2.584468	آن زد
-2.584468	آن زمستان
-2.584468	آن زن
-2.050899	آن سر
-1.188772	آن شب
-1.239925	آن طرف
-2.584468	آن طور
-2.050899	آن فحش
-2.584468	آن قدر
-2.050899	آن مرد
-2.584468	آن موقع
-1.239925	آن هم
-1.486748	آن همه
-2.050899	آن و
-1.645565	آن ور
-0.9388948	آن وقت	-0.08913698
-2.584468	آن پول
-1.811487	آن چند
-2.584468	آن چه
-2.584468	آن کرد
-2.584468	آن کنار
-1.486748	آن که
-1.645565	آن گوشه
-1.811487	آن یک
-0.4414534	آنطرف رود
-1.140423	آنچه را
-1.140423	آنچه مرا
-1.140423	آنچه نگاه
-1.140423	آنچه پدر
-1.140423	آنچه که
-0.8109738	آهسته آهسته
-1.344543	آهسته باز
-0.8109738	آهسته به
-1.344543	آهسته ذکر
-0.8109738	آهسته و
-0.6786414	آورد ،
-1.617545	آورد ؛
-1.617545	آورد باید
-0.4617198	آورد و
-1.083975	آورد که
-0.4414534	أقا شاید
-0.4414534	أن هر
-0.4414534	إبتول تو
-0.4414534	ا </s>
-1.11563	اتاق ،
-1.888611	اتاق افتاده
-1.888611	اتاق بالا
-1.888611	اتاق بیرون
-1.888611	اتاق تاریک
-1.888611	اتاق تازه
-1.888611	اتاق خانه
-1.355042	اتاق خود
-1.888611	اتاق در
-1.888611	اتاق دیگر
-1.11563	اتاق را
-1.888611	اتاق شده
-1.888611	اتاق قطار
-1.888611	اتاق ما
-1.888611	اتاق مرا
-1.11563	اتاق من
-1.888611	اتاق همه
-1.11563	اتاق که
-1.888611	اتاق کوچک
-1.043513	اتفاق افتاد
-0.2705321	اتفاق افتاده
-0.7424834	اتق باز
-0.7424834	اتق جا
-0.9185747	اختیار از
-0.9185747	اختیار به
-0.9185747	اختیار جواب
-0.7424834	اداره از
-0.7424834	اداره که
-1.805887	از </s>
-2.194811	از آب
-2.967793	از آستین
-1.007825	از آن	-0.01688131
-2.967793	از آنچه
-2.967793	از اتاق
-2.967793	از اداره
-1.623249	از او
-0.9822713	از این
-2.194811	از بابلسر
-2.967793	از بالا
-2.967793	از بخار
-2.434223	از بر
-2.028889	از بس
-2.967793	از بچه
-2.194811	از ترس
-2.967793	از تعجب
-2.967793	از تفنگ
-2.967793	از تمام
-2.967793	از تن
-2.434223	از ته
-2.434223	از تو
-2.967793	از تک
-2.967793	از تکان
-2.028889	از جا
-2.434223	از جلو
-1.870072	از جیب
-2.194811	از حال
-2.967793	از حرف
-2.967793	از حلقه
-2.967793	از حیاط
-1.805887	از خانه	-0.3674969
-2.967793	از خجالت
-2.194811	از خدا
-1.572097	از خواب
-2.028889	از خود
-1.811968	از در
-1.484947	از دست
-2.967793	از دل
-2.967793	از ده
-2.434223	از دهات
-1.870072	از دو
-2.967793	از دوازده
-2.194811	از دور
-2.967793	از دوش
-2.967793	از دیوا
-2.967793	از ذکر
-2.434223	از راه
-2.194811	از ریش
-2.967793	از زانو
-2.967793	از زمین
-2.967793	از زن
-1.572097	از زیر
-2.028889	از سر
-2.967793	از سه
-2.967793	از سینه
-2.434223	از شب
-2.434223	از شما
-1.870072	از شنیدن	-0.07679939
-2.967793	از شکم
-2.967793	از صدا
-2.967793	از صرف
-2.967793	از طاقچه
-2.194811	از طرف
-2.434223	از ظهر
-2.967793	از عبور
-2.967793	از عرق
-2.434223	از عقب
-2.967793	از غروب
-2.967793	از غصه
-2.967793	از قرار
-2.967793	از قیافه
-1.811968	از لب
-2.967793	از لبه
-2.967793	از لرزش
-2.434223	از ما
-2.967793	از مرزون
-2.434223	از مسجد
-1.412396	از من
-2.967793	از مه
-2.967793	از ناله
-2.434223	از نو
-2.028889	از هر
-2.194811	از هم
-1.870072	از همه
-2.434223	از همین
-2.967793	از هیچ
-2.967793	از و
-2.967793	از وزیر
-2.434223	از وسط
-2.194811	از پا
-2.194811	از پایین
-1.805887	از پشت
-2.967793	از پله
-2.028889	از پنجره
-2.967793	از پهلو
-2.967793	از پیشا
-2.967793	از چاک
-2.967793	از چشم
-2.967793	از چند
-2.194811	از چه	-0.3764737
-2.967793	از چهار
-2.967793	از چیز
-2.434223	از کار
-2.028889	از کجا
-2.434223	از کنار
-2.434223	از کیسه
-2.967793	از کیف
-2.967793	از گریه
-2.434223	از گوشه
-2.967793	از گیر
-1.811968	از یک
-0.4414534	اس و
-1.344543	اسم با
-1.344543	اسم بدهد
-1.344543	اسم شریف
-0.8109738	اسم ما
-0.8109738	اسم و
-1.344543	اسم پنج
-0.4414534	اسمشو که
-0.7424834	اشک از
-0.7424834	اشک مرا
-1.219605	اطراف ،
-1.219605	اطراف آن
-1.219605	اطراف از
-1.219605	اطراف به
-1.219605	اطراف قطار
-1.219605	اطراف که
-0.4414534	اعتنا گذشتند
-1.617545	افتاد به
-1.617545	افتاد لب
-0.1346986	افتاد و
-1.083975	افتاد که
-1.742483	افتاده </s>
-1.742483	افتاده افتاده
-0.2596373	افتاده بود	0.03157578
-1.742483	افتاده بودند
-0.5805781	افتاده و
-0.4414534	افطار سر
-0.7424834	اقامه </s>
-0.7424834	اقامه نماز
-0.4414534	الأهالا الله
-1.645573	الله »
-1.645573	الله از
-1.645573	الله با
-0.8725921	الله به
-1.645573	الله بود
-1.645573	الله تو
-0.8725921	الله را
-1.645573	الله رو
-1.112004	الله هم
-1.645573	الله کلاه
-1.645573	الله که
-1.219605	الوار از
-1.219605	الوار به
-1.219605	الوار داشت
-1.219605	الوار لنگر
-1.219605	الوار گذاشتند
-1.219605	الوار گذاشته
-1.856427	اما آن
-1.856427	اما از
-1.322857	اما این
-1.856427	اما با
-1.856427	اما باز
-1.856427	اما بنده
-1.856427	اما تا
-1.856427	اما تابستان
-1.856427	اما تو
-1.322857	اما حالا
-1.322857	اما در
-1.856427	اما دیگه
-1.856427	اما زن
-1.856427	اما شوفر
-1.856427	اما مامور
-1.856427	اما من
-1.322857	اما نه
-1.856427	اما هیچ
-1.322857	اما چرا
-1.322857	اما چه
-0.4414534	امشب رفته
-0.9185747	انار بود
-0.9185747	انار لب
-0.9185747	انار کنار
-0.4414534	انتظار از
-1.482846	انداخته افتاده
-0.9492764	انداخته بود
-0.1383027	انداخته و	-0.1025604
-1.140423	انگار بزرگ
-1.140423	انگار در
-1.140423	انگار نه
-1.140423	انگار پل
-1.140423	انگار که
-0.7424834	انگشت بر
-0.7424834	انگشت دیگر
-2.494532	او ،
-1.555629	او از
-2.494532	او افتاد
-2.494532	او انداخته
-2.494532	او این
-1.555629	او با
-2.494532	او باز
-2.494532	او بر
-1.555629	او به
-2.494532	او بکند
-2.494532	او بگوید
-2.494532	او تازه
-2.494532	او تصمیم
-2.494532	او جلو
-2.494532	او حالا
-2.494532	او حرف
-2.494532	او خواب
-2.494532	او خود
-2.494532	او خون
-2.494532	او داد
-2.494532	او داده
-2.494532	او در
-0.4732949	او را	0.01613389
-2.494532	او راه
-1.960962	او رد
-2.494532	او رو
-1.960962	او زود
-2.494532	او سوار
-1.960962	او فقط
-1.960962	او مامور
-2.494532	او متوجه
-2.494532	او مثل
-2.494532	او نگاه
-1.555629	او نیز
-1.149988	او هم
-2.494532	او همیشه
-2.494532	او هنوز
-2.494532	او هیچ
-1.555629	او و
-2.494532	او پرسید
-2.494532	او پهن
-2.494532	او پول
-2.494532	او کمک
-1.555629	او که
-1.960962	او گفته
-2.494532	او یک
-1.587582	اول ،
-1.587582	اول آن
-1.054012	اول از
-1.587582	اول بار
-1.587582	اول به
-1.587582	اول خیال
-1.587582	اول شب
-1.587582	اول شهر
-1.587582	اول غروب
-1.587582	اول مثل
-1.587582	اول هر
-1.587582	اول پا
-1.587582	اول که
-0.4414534	اومد خبر
-1.043513	اون در
-0.5099438	اون ور
-1.043513	اون که
-1.888611	اگر </s>
-1.888611	اگر آن
-1.355042	اگر از
-1.355042	اگر این
-1.11563	اگر به
-1.888611	اگر بچه
-1.888611	اگر حالا
-1.888611	اگر در
-1.355042	اگر دست
-1.888611	اگر شده
-1.888611	اگر ما
-1.355042	اگر من
-1.11563	اگر هم
-1.888611	اگر وقت
-0.9497082	اگر چه
-1.888611	اگر کمک
-1.888611	اگر یک
-1.286551	ایستاد ،
-0.1246462	ایستاد و
-2.694306	این </s>
-1.921325	این آرزو
-2.694306	این این
-2.160737	این بار
-2.694306	این بساط
-0.9740995	این بود	-1.119669
-2.160737	این بین
-2.694306	این تعجب
-2.694306	این جا
-1.596586	این جور
-2.160737	این حال
-2.694306	این حرف
-2.160737	این خانه
-2.160737	این خبر
-2.694306	این خصوص
-2.694306	این خواهر
-1.596586	این خیال
-2.694306	این دختر
-1.755403	این در
-2.160737	این دست
-2.160737	این دفعه
-2.694306	این دهاتی
-2.160737	این دو
-1.21146	این را
-2.694306	این راه
-2.694306	این رو
-2.694306	این روز
-2.694306	این زن
-2.694306	این سال
-2.160737	این سر
-2.160737	این سفر
-2.160737	این شب
-2.694306	این شیر
-2.694306	این صدا
-2.694306	این صورت
-2.160737	این طرف
-1.21146	این طور
-2.694306	این عصر
-1.298611	این فکر
-2.694306	این قدر
-2.694306	این مثل
-2.160737	این مرا
-2.694306	این مطلب
-2.694306	این موقع
-2.694306	این میهمانخانه
-2.694306	این نبود
-1.532401	این هم
-1.921325	این همه
-1.921325	این و	-0.3851077
-2.160737	این واقعه
-1.921325	این ور	-0.2012569
-2.694306	این وقت
-2.694306	این پس
-2.694306	این پول
-2.694306	این پیرمرد
-1.755403	این چند
-2.694306	این چه
-2.160737	این چیز
-1.596586	این کار	-0.168325
-0.854913	این که	-0.008032527
-2.160737	این کیسه
-2.694306	این یک
-1.645573	اینکه از
-1.645573	اینکه او
-1.645573	اینکه اول
-1.112004	اینکه بخواهد
-1.645573	اینکه به
-1.645573	اینکه خیال
-1.645573	اینکه دیگر
-1.645573	اینکه سر
-1.645573	اینکه سفر
-1.645573	اینکه مرد
-1.645573	اینکه من
-1.645573	اینکه هر
-1.112004	اینکه همه
-1.645573	اینکه هیچ
-0.4414534	ایک بار
-1.689661	با </s>
-2.462643	با آب
-2.462643	با آستین
-1.689661	با آن
-2.462643	با احمد
-1.364922	با او
-1.364922	با این
-2.462643	با باد
-2.462643	با بچه
-2.462643	با تعجب
-1.689661	با تفنگ
-2.462643	با جناب
-2.462643	با حال
-2.462643	با خبر
-2.462643	با خط
-2.462643	با خواندن
-1.929073	با خواهر
-1.300738	با خود
-2.462643	با دست
-2.462643	با دماغ
-2.462643	با دهان
-1.689661	با دو
-2.462643	با روز
-2.462643	با ریش
-2.462643	با زنبیل
-1.929073	با سر
-2.462643	با سرگرد
-2.462643	با سماور
-2.462643	با سه
-2.462643	با شاه
-2.462643	با شما
-2.462643	با صورت
-2.462643	با عجله
-2.462643	با غلغل
-2.462643	با قاشق
-2.462643	با قالی
-2.462643	با قطار
-2.462643	با قیافه
-2.462643	با لب
-2.462643	با لگن
-1.523739	با ما
-2.462643	با مادر
-2.462643	با مامور
-1.364922	با من
-2.462643	با ناله
-2.462643	با هر
-0.9797966	با هم	-0.1423107
-2.462643	با همه
-1.689661	با همون
-2.462643	با همین
-2.462643	با وزیر
-2.462643	با پشت
-2.462643	با چشم
-2.462643	با چهار
-2.462643	با یه
-1.118099	با یک
-1.140423	بابلسر به
-1.140423	بابلسر تشریف
-1.140423	بابلسر دور
-1.140423	بابلسر راه
-1.140423	بابلسر و
-1.520635	باد از
-1.520635	باد به
-1.520635	باد در
-1.520635	باد دست
-1.520635	باد سر
-0.4229139	باد و
-1.520635	باد کرده
-1.520635	باد گلوله
-1.997756	بار </s>
-1.464186	بار بر
-1.997756	بار بند
-0.9000352	بار به	-0.5089018
-1.464186	بار بود
-1.997756	بار تا
-1.997756	بار خود
-1.058853	بار در
-1.997756	بار دو
-1.464186	بار دور
-1.997756	بار دیگر
-1.997756	بار ذکر
-1.058853	بار را
-1.224775	بار سنگین
-1.997756	بار سوم
-1.997756	بار قدم
-1.997756	بار مثل
-1.997756	بار مرا
-1.997756	بار و
-1.997756	بار که
-1.997756	بار گرفتن
-1.219605	باریک بگذرد
-1.219605	باریک داشت
-0.4466234	باریک و
-1.219605	باریک پیاده
-2.113551	باز </s>
-1.579982	باز از
-2.113551	باز با
-1.579982	باز به
-1.579982	باز بود
-2.113551	باز بودند
-2.113551	باز تا
-2.113551	باز خیال
-2.113551	باز خیس
-2.113551	باز در
-2.113551	باز دفعه
-2.113551	باز دور
-2.113551	باز سر
-1.015831	باز شد	-0.03031352
-2.113551	باز شده
-2.113551	باز شروع
-2.113551	باز مانده
-2.113551	باز مثل
-2.113551	باز من
-1.579982	باز نکرد
-2.113551	باز نگه
-0.951646	باز هم
-2.113551	باز و
-2.113551	باز چند
-1.015831	باز کرد	-0.612356
-1.579982	باز کرده
-1.579982	باز کند
-2.113551	باز یک
-1.339248	باشد ،
-1.872817	باشد اول
-1.872817	باشد باز
-1.872817	باشد به
-1.872817	باشد تازه
-1.872817	باشد جواب
-1.872817	باشد خود
-1.872817	باشد در
-1.872817	باشد دست
-1.872817	باشد ما
-1.872817	باشد من
-1.872817	باشد هر
-0.4313638	باشد و
-0.9339139	باشد که
-0.9185747	باغچه دختر
-0.9185747	باغچه رفت
-0.9185747	باغچه و
-1.671902	بالا </s>
-1.671902	بالا انداخته
-1.671902	بالا تو
-1.671902	بالا خانه
-1.671902	بالا خره
-1.671902	بالا را
-1.671902	بالا نگه
-0.2304489	بالا و	-0.2711877
-1.163156	باید بار
-1.696726	باید بالا
-1.696726	باید به
-1.696726	باید حالا
-1.696726	باید خوب
-1.163156	باید در
-1.696726	باید دست
-1.696726	باید دل
-1.696726	باید رفت
-1.696726	باید رو
-1.696726	باید سر
-1.696726	باید فکر
-1.696726	باید واقعه
-1.696726	باید چند
-1.696726	باید کرد
-1.696726	باید یک
-0.9185747	ببر اون
-0.385005	ببر به
-0.9185747	ببین من
-0.9185747	ببین چه
-0.9185747	ببین که
-1.219605	بتول آفتابه
-1.219605	بتول ابرو
-1.219605	بتول با
-1.219605	بتول رفت
-1.219605	بتول سفره
-1.219605	بتول هم
-0.7424834	بخواند ،
-0.7424834	بخواند و
-0.4414534	بخواهد و
-0.4414534	بخورد و
-1.219605	بدهد باید
-1.219605	بدهد بر
-0.2807014	بدهد و
-1.742483	بر دوش
-1.742483	بر دیگر
-1.208914	بر زده
-1.742483	بر زمین
-0.5866585	بر سر
-1.742483	بر شانه
-1.742483	بر صدا
-1.742483	بر فرق
-1.742483	بر هم
-1.742483	بر چشم
-1.208914	بر کرده
-1.742483	بر کنار
-0.7529818	برد ،
-1.286551	برد از
-1.286551	برد تازه
-1.286551	برد شروع
-1.286551	برد و
-1.286551	برد که
-1.043513	برداشته بود
-0.2705321	برداشته و
-0.9185747	برساند فکر
-0.9185747	برساند چه
-0.9185747	برساند که
-0.9185747	برسد به
-0.385005	برسد و
-0.4414534	برم تا
-1.219605	برنج این
-1.219605	برنج به
-0.686035	برنج را
-1.219605	برنج پیدا
-1.219605	برنج چقدر
-0.4414534	بره زیر
-1.344543	برهنه ،
-1.344543	برهنه به
-1.344543	برهنه بودند
-0.8109738	برهنه و
-1.344543	برهنه وارد
-0.8109738	برهنه پا
-1.140423	برو برو
-0.6068538	برو و
-1.140423	برو پایین
-1.140423	برو یخ
-0.7424834	برود ،
-0.7424834	برود پرسید
-0.7424834	بروند من
-0.7424834	بروند که
-0.4414534	برگرداند و
-0.9185747	برید </s>
-0.385005	برید و
-1.344543	بزرگ ،
-1.344543	بزرگ خود
-0.8109738	بزرگ شده
-1.344543	بزرگ شهر
-1.344543	بزرگ هم
-0.8109738	بزرگ و
-0.7424834	بس سگ
-0.7424834	بس پر
-1.043513	بساط را
-1.043513	بساط روضه
-1.043513	بساط سماور
-1.043513	بساط پنچر
-0.7627498	بعد از	-0.3394046
-1.385005	بعد بلند
-1.918575	بعد به
-1.918575	بعد ترق
-1.918575	بعد در
-1.385005	بعد رو
-1.918575	بعد زود
-1.918575	بعد فکر
-1.918575	بعد ما
-1.918575	بعد مثل
-1.918575	بعد من
-1.145593	بعد هم
-1.918575	بعد همانطور
-1.918575	بعد همه
-1.918575	بعد وضو
-1.918575	بعد چراغ
-0.9796714	بعد که
-0.4414534	بلرزد وبار
-1.355042	بلند </s>
-1.888611	بلند ،
-1.888611	بلند بخواند
-1.355042	بلند بلند
-0.447158	بلند شد	-0.6532125
-0.9497082	بلند شده
-1.355042	بلند شود
-1.888611	بلند و
-1.355042	بلند کرد
-1.888611	بلند کردند
-1.355042	بلند کند
-1.140423	بله از
-1.140423	بله خودشه
-1.140423	بله در
-1.140423	بله شما
-1.140423	بله نماز
-0.4414534	بنار اون
-1.043513	بند آمد
-1.043513	بند خود
-1.043513	بند نبود
-1.043513	بند کرده
-0.9185747	بنده حسن
-0.385005	بنده خدا
-1.654284	به </s>
-3.049979	به |
-3.049979	به آب
-3.049979	به آقا
-1.654284	به آن
-3.049979	به آنچه
-2.51641	به اتاق
-3.049979	به اداره
-2.51641	به اسم
-3.049979	به اقامه
-2.276998	به انتظار
-1.286307	به او
-3.049979	به اون
-1.266103	به این	-0.08741952
-2.276998	به باد
-3.049979	به بالا
-3.049979	به بدن
-2.51641	به بعد
-2.51641	به بچه
-3.049979	به تعجب
-3.049979	به تفنگ
-2.51641	به تمام
-3.049979	به تنگ
-2.276998	به تو
-2.51641	به جا
-2.276998	به جلو
-3.049979	به جیب
-2.111076	به حال
-1.888074	به حرف	-0.343093
-2.51641	به خاطر
-1.567133	به خانه
-2.51641	به خاک
-1.705436	به خدا
-3.049979	به خرید
-2.276998	به خصوص
-2.276998	به خنده
-2.276998	به خواب
-2.51641	به خواندن
-1.888074	به خود
-3.049979	به خورد
-3.049979	به خیال
-2.51641	به داده
-1.952259	به دختر
-3.049979	به دختره
-2.51641	به در
-1.952259	به درد
-3.049979	به درک
-1.404406	به دست
-2.51641	به دسته
-3.049979	به دل
-2.111076	به دنبال
-2.276998	به ده
-2.51641	به دو
-2.111076	به دور
-1.888074	به دوش
-1.894155	به دیوار	-0.01801145
-3.049979	به ذکر
-2.51641	به راه
-3.049979	به رخ
-3.049979	به رفیق
-3.049979	به روبه
-2.51641	به روز
-1.329772	به زمین
-2.51641	به زن
-2.276998	به زیر
-1.705436	به سر
-3.049979	به سردا
-3.049979	به سفر
-2.51641	به سه
-3.049979	به شاه
-2.51641	به شما
-2.111076	به شنیدن	0.05947781
-2.51641	به شهر
-3.049979	به شوفر
-3.049979	به شکم
-1.210586	به طرف	-0.1038596
-3.049979	به طور
-2.51641	به عجله
-3.049979	به عرض
-1.952259	به عمل
-3.049979	به غروب
-2.51641	به فکر
-3.049979	به قدر
-3.049979	به لب
-3.049979	به لبه
-2.111076	به لرزه
-3.049979	به لرزیدن
-1.888074	به ما
-3.049979	به مادر
-2.276998	به مامور
-3.049979	به مرتب
-3.049979	به مغرب
-1.307496	به من
-3.049979	به ناله
-3.049979	به هر
-3.049979	به هق
-1.654284	به هم
-3.049979	به همراه
-3.049979	به همین
-3.049979	به هوا
-3.049979	به هیچ
-3.049979	به وحشت
-3.049979	به وسط
-3.049979	به پا
-2.51641	به پایین
-3.049979	به پدر
-3.049979	به پسره
-2.51641	به پشت
-3.049979	به پله
-2.111076	به چشم
-3.049979	به چند
-1.888074	به چه
-2.276998	به کار
-3.049979	به کلاه
-3.049979	به کلبه
-3.049979	به کمک
-2.276998	به کنار	-0.2235807
-3.049979	به که
-2.51641	به کیسه
-2.111076	به گریه
-3.049979	به گوشه
-2.51641	به یاد
-3.049979	به یه
-1.952259	به یک
-1.775092	بود </s>
-1.018423	بود ،
-1.998094	بود ؛
-1.998094	بود ؟
-2.403428	بود آن
-2.936998	بود اتفاق
-1.495544	بود از
-2.936998	بود اما
-2.936998	بود امشب
-2.936998	بود اگر
-2.403428	بود این
-2.403428	بود با
-2.936998	بود باید
-2.936998	بود بر
-2.936998	بود بره
-2.936998	بود برود
-2.936998	بود بعد
-1.319453	بود به
-2.403428	بود تا
-2.936998	بود حاضر
-2.936998	بود خشک
-1.839277	بود در
-2.936998	بود رو
-2.936998	بود سر
-2.936998	بود سوار
-2.936998	بود سینه
-2.936998	بود شاید
-2.936998	بود صدا
-2.936998	بود عرب
-2.936998	بود فرو
-2.936998	بود مأمور
-2.936998	بود مرا
-2.936998	بود هیچ
-0.491223	بود و	-0.01420879
-2.936998	بود وبخار
-2.936998	بود وحشت
-2.936998	بود وشل
-2.936998	بود چاره
-2.936998	بود چیز
-2.936998	بود کم
-0.5132731	بود که	-0.01787067
-2.936998	بود گرفتن
-2.936998	بود گریه
-2.936998	بود یا
-2.164016	بود یک
-1.140423	بودن ،
-1.140423	بودن خود
-1.140423	بودن هم
-1.140423	بودن و
-1.140423	بودن که
-0.9906914	بودند ،
-1.763673	بودند ؛
-1.230103	بودند از
-1.763673	بودند انگار
-1.763673	بودند با
-0.4191293	بودند و
-1.763673	بودند چرا
-0.9906914	بودند که
-1.763673	بودند یا
-0.4414534	بودندواز حال
-1.395696	بچه </s>
-1.395696	بچه درد
-0.6227146	بچه را
-1.395696	بچه طور
-1.395696	بچه و
-1.395696	بچه کار
-1.395696	بچه گانه
-1.344543	بکند </s>
-1.344543	بکند جمع
-1.344543	بکند خوب
-1.344543	بکند دنباله
-0.4056401	بکند و
-0.4414534	بگذارد از
-0.4414534	بگذرد و
-0.7424834	بگوید ،
-0.7424834	بگوید خون
-0.4414534	بگید ،
-0.2089138	بگیر و
-0.9185747	بگیرند ،
-0.9185747	بگیرند من
-0.9185747	بگیرند و
-0.9185747	بیدار شده
-0.9185747	بیدار میشد
-0.9185747	بیدار و
-1.395696	بیرون آمدند
-1.395696	بیرون آورد
-1.395696	بیرون افتاده
-1.395696	بیرون در
-1.395696	بیرون رفت
-1.395696	بیرون کرده
-0.8621263	بیرون کشیده
-1.395696	بیرون که
-1.344543	بیش </s>
-0.1826382	بیش از
-1.344543	بیش به
-0.4414534	بیفتد به
-1.219605	بین الله
-1.219605	بین خوب
-1.219605	بین راه
-1.219605	بین کم
-1.219605	بین کیسه
-1.219605	بین گیر
-0.4414534	بیچ چاره
-2.122695	تا </s>
-2.122695	تا |
-2.122695	تا آمد
-0.9668698	تا آن
-1.183791	تا از
-2.122695	تا این
-2.122695	تا با
-0.9607894	تا به	-0.188751
-1.183791	تا حالا
-2.122695	تا دختر
-2.122695	تا دو
-2.122695	تا دیگر
-2.122695	تا شام
-2.122695	تا عصر
-2.122695	تا غروب
-1.589125	تا فحش
-1.589125	تا مرزون
-2.122695	تا مغز
-2.122695	تا من
-2.122695	تا وسط
-2.122695	تا پایین
-2.122695	تا پشت
-2.122695	تا چراغ
-2.122695	تا چه
-1.589125	تا کجا
-2.122695	تا کنار
-1.589125	تا یک
-0.4414534	تاب شده
-0.4414534	تابتوانند عبور
-0.2089138	تابستان بود
-0.385005	تاریک شده
-0.9185747	تاریک کرده
-1.671902	تازه آفتاب
-0.8989211	تازه از
-1.671902	تازه او
-1.138333	تازه این
-1.671902	تازه بار
-1.138333	تازه به
-1.671902	تازه خود
-1.671902	تازه در
-1.671902	تازه را
-1.671902	تازه سر
-1.671902	تازه وارد
-1.671902	تازه کار
-1.671902	تازه کند
-1.395696	ترس این
-0.239871	ترس و	-0.3816209
-1.395696	ترس چشم
-0.4414534	ترق تو
-1.140423	تسبیح به
-0.2015201	تسبیح را
-0.7424834	تصمیم داشت
-0.7424834	تصمیم ماند
-0.4414534	تعادل خود
-1.043513	تعارف به
-1.043513	تعارف هم
-1.043513	تعارف و
-1.043513	تعارف که
-0.9185747	تعجب تمام
-0.9185747	تعجب در
-0.9185747	تعجب دریده
-0.4414534	تعریف و
-1.441453	تفنگ از
-1.441453	تفنگ او
-1.441453	تفنگ بزرگ
-0.5025501	تفنگ به
-1.441453	تفنگ خود
-1.441453	تفنگ هم
-1.441453	تفنگ چشم
-0.4414534	تقریبا چشم
-0.7424834	تل بار
-0.7424834	تل خاک
-0.4414534	تماشا </s>
-1.587582	تمام او
-0.6486782	تمام این
-1.587582	تمام به
-1.587582	تمام شب
-1.054012	تمام شد
-1.587582	تمام شده
-1.587582	تمام صورت
-1.054012	تمام مشغول
-1.587582	تمام کردن
-0.4414534	تن کند
-1.441453	تند </s>
-1.441453	تند از
-1.441453	تند بالا
-1.441453	تند میرفتند
-1.441453	تند میله
-1.441453	تند هم
-0.9078838	تند و
-0.9078838	تند کار
-0.4414534	تنگ و
-1.344543	ته این
-0.8109738	ته جیب
-1.344543	ته را
-1.344543	ته قایق
-1.344543	ته و
-1.344543	ته چیز
-1.344543	ته کشید
-2.043513	تو ،
-2.043513	تو از
-2.043513	تو او
-1.509944	تو این
-2.043513	تو برو
-2.043513	تو جیب
-2.043513	تو خانه
-2.043513	تو دست
-0.9457927	تو را
-2.043513	تو راه
-2.043513	تو روق
-1.509944	تو سر
-2.043513	تو مسجد
-2.043513	تو نبود
-2.043513	تو نماز
-0.8816081	تو هم
-1.509944	تو همین
-2.043513	تو پاشو
-2.043513	تو پیدا
-1.509944	تو چه
-1.10461	تو که
-1.509944	تو کوچه
-2.043513	تو کیسه
-0.5099438	تک تک
-0.5099438	تک و
-1.286551	تکان خورد
-1.286551	تکان خورده
-0.5135702	تکان داد
-1.286551	تکان داده
-1.286551	تکان را
-1.219605	تکیه داد
-0.2807014	تکیه داده
-1.219605	تکیه کرده
-0.9185747	ثانیه با
-0.9185747	ثانیه بعد
-0.9185747	ثانیه صبر
-1.671902	جا باز
-1.671902	جا بلند
-0.8989211	جا به
-1.671902	جا تکان
-1.671902	جا خود
-1.671902	جا داده
-1.671902	جا را
-1.671902	جا رد
-1.671902	جا سنگین
-1.671902	جا صاف
-1.671902	جا نماز
-1.671902	جا پریده
-1.671902	جا کرد
-1.671902	جا کردو
-1.671902	جا که
-0.9185747	جاده بلند
-0.9185747	جاده دست
-0.9185747	جاده را
-0.4414534	جالب واقعه
-0.4414534	جانماز آب
-0.9185747	جد به
-0.385005	جد و
-1.286551	جز از
-1.286551	جز این
-0.7529818	جز اینکه
-1.286551	جز قیافه
-0.7529818	جز یک
-0.7424834	جزو «
-0.7424834	جزو قرآن
-0.4414534	جلد جلد
-0.8621263	جلو </s>
-1.395696	جلو آمد
-1.395696	جلو آن
-1.395696	جلو آورد
-1.395696	جلو رفت
-1.395696	جلو هم
-1.395696	جلو و
-1.395696	جلو پرتاب
-1.344543	جمع به
-1.344543	جمع شده
-1.344543	جمع و
-0.8109738	جمع کرد
-0.5715621	جمع کرده
-0.9185747	جناب آقا
-0.9185747	جناب اسم
-0.9185747	جناب شما
-1.344543	جواب </s>
-1.344543	جواب ،
-1.344543	جواب او
-1.344543	جواب خدا
-1.344543	جواب داد
-1.344543	جواب معذرت
-1.344543	جواب معطل
-1.344543	جواب گفته
-0.3476482	جور بود
-1.286551	جور حرف
-1.286551	جور و
-1.286551	جور پریده
-0.7424834	جیب در
-0.7424834	جیب کیسه
-0.6227146	حاضر بود
-1.395696	حاضر در
-1.395696	حاضر را
-1.395696	حاضر شد
-1.395696	حاضر شنیدن
-1.395696	حاضر نشده
-1.395696	حاضر کرده
-1.395696	حال ،
-0.8621263	حال به
-1.395696	حال حرف
-1.395696	حال ده
-0.8621263	حال رفته
-1.395696	حال و
-1.395696	حال پیاده
-0.9237446	حالا از
-1.696726	حالا باید
-1.696726	حالا تازه
-1.696726	حالا حتما
-1.696726	حالا خود
-1.696726	حالا زانو
-1.696726	حالا زن
-1.696726	حالا موقع
-1.696726	حالا نباید
-1.163156	حالا هم
-1.696726	حالا وسط
-0.7578226	حالا که
-1.286551	حتما </s>
-0.7529818	حتما تا
-0.7529818	حتما تو
-1.286551	حتما دارند
-1.286551	حتما یک
-0.4567926	حرف آمد	0.09215781
-1.395696	حرف در
-1.395696	حرف زد
-1.395696	حرف سر
-1.395696	حرف مثل
-1.395696	حرف نیامده
-0.4414534	حریص قدم
-0.4414534	حس کردو
-0.4414534	حمله کند
-0.4414534	حوصله من
-0.6068538	حوض ،
-0.6068538	حوض آب
-1.140423	حوض دار
-1.587582	حیاط </s>
-1.587582	حیاط ،
-0.4898607	حیاط را	-0.9190959
-1.587582	حیاط صدا
-1.587582	حیاط نور
-1.587582	حیاط نیفتد
-1.054012	حیاط و
-1.587582	حیاط پیچید
-1.587582	حیاط پیچیده
-0.7424834	خاتمه </s>
-0.7424834	خاتمه داده
-0.6068538	خاطر بچه
-1.140423	خاطر خود
-1.140423	خاطر شما
-1.140423	خاطر من
-2.009655	خانه </s>
-2.009655	خانه ،
-2.009655	خانه از
-1.476086	خانه او
-2.009655	خانه بروند
-2.009655	خانه بلند
-2.009655	خانه به
-2.009655	خانه بود
-1.236674	خانه بیرون
-2.009655	خانه تکیه
-1.476086	خانه در
-2.009655	خانه دنبال
-0.6651117	خانه را
-2.009655	خانه روانه
-2.009655	خانه زده
-2.009655	خانه سر
-1.236674	خانه ما
-2.009655	خانه نزدیک
-2.009655	خانه هر
-1.070752	خانه و
-2.009655	خانه کم
-1.520635	خاک </s>
-1.520635	خاک آفتاب
-0.987065	خاک بر
-0.987065	خاک تو
-1.520635	خاک خیس
-1.520635	خاک روبه
-0.987065	خاک فرو
-1.520635	خاک نم
-1.520635	خاک کشیده
-1.286551	خبر از
-1.286551	خبر تازه
-1.286551	خبر داد
-1.286551	خبر داده
-1.286551	خبر را
-0.7529818	خبر کرد
-1.286551	خجالت </s>
-1.286551	خجالت آب
-1.286551	خجالت بار
-1.286551	خجالت به
-1.286551	خجالت زده
-0.7529818	خجالت وحشت
-1.763673	خدا بد
-1.763673	خدا بدهد
-0.9906914	خدا به
-1.763673	خدا بود
-1.763673	خدا تو
-1.763673	خدا در
-0.6017675	خدا را
-1.230103	خدا رو
-1.763673	خدا هیچ
-0.8247694	خدا و
-0.9185747	خدایا به
-0.9185747	خدایا تا
-0.9185747	خدایا تو
-0.4414534	خره رسید
-0.7424834	خرید </s>
-0.7424834	خرید و
-0.4414534	خسته و
-0.5099438	خشک شده
-0.5099438	خشک کرد
-0.9185747	خصوص از
-0.9185747	خصوص خوب
-0.9185747	خصوص شب
-0.7424834	خط آهن
-0.7424834	خط انداخته
-1.140423	خنده بلند
-1.140423	خنده دار
-1.140423	خنده را
-1.140423	خنده و
-1.140423	خنده یا
-0.2089138	خندید و
-1.043513	خندیدند </s>
-1.043513	خندیدند ،
-0.5099438	خندیدند و
-1.587582	خواب </s>
-1.587582	خواب آلود
-1.587582	خواب از
-1.054012	خواب او
-1.587582	خواب به
-1.054012	خواب بیدار
-1.054012	خواب را
-1.587582	خواب فرو
-1.587582	خواب پراند
-1.054012	خواب پریده
-0.385005	خواستند بروند
-0.9185747	خواستند و
-1.395696	خواند ،
-1.395696	خواند تا
-0.2337907	خواند و
-1.395696	خواند که
-0.9185747	خواندن این
-0.9185747	خواندن را
-0.9185747	خواندن یک
-0.7424834	خواهر </s>
-0.7424834	خواهر همه
-1.441453	خوب از
-1.441453	خوب باشد
-1.441453	خوب تا
-1.441453	خوب حالا
-0.9078838	خوب دیگر
-1.441453	خوب و
-0.6684721	خوب یاد
-2.482846	خود </s>
-1.385125	خود ،
-2.482846	خود از
-2.482846	خود افتاده
-1.543943	خود او
-1.949276	خود به
-1.949276	خود بود
-2.482846	خود تعریف
-2.482846	خود تلقین
-2.482846	خود تو
-2.482846	خود خاتمه
-2.482846	خود خنده
-2.482846	خود خیال
-2.482846	خود دختره
-2.482846	خود در
-2.482846	خود دیگر
-0.2284793	خود را	-0.2629819
-2.482846	خود رفته
-2.482846	خود سرپیچ
-2.482846	خود شما
-2.482846	خود صورت
-2.482846	خود عهد
-2.482846	خود فرو
-2.482846	خود فکر
-2.482846	خود قرار
-2.482846	خود ما
-2.482846	خود مثل
-2.482846	خود مشغول
-2.482846	خود نگاه
-2.482846	خود نیاورده
-2.482846	خود هم
-2.482846	خود همراه
-2.482846	خود و
-2.482846	خود پرید
-2.482846	خود کرد
-2.482846	خود کشیده
-2.482846	خود یک
-0.4414534	خودشه اما
-1.587582	خورد ،
-1.587582	خورد ما
-1.054012	خورد مرد
-0.1918855	خورد و
-1.587582	خورد واشک
-1.219605	خورده بود
-1.219605	خورده دور
-0.2807014	خورده و
-0.9185747	خورشید بخار
-0.9185747	خورشید تازه
-0.9185747	خورشید که
-1.043513	خون او
-1.043513	خون دل
-1.043513	خون شده
-1.043513	خون لب
-1.645573	خیال آن
-1.645573	خیال این
-1.645573	خیال اینکه
-0.8725921	خیال به
-1.645573	خیال را
-1.645573	خیال رختخواب
-1.645573	خیال صرف
-1.645573	خیال هم
-1.112004	خیال کرد
-1.645573	خیال کردن
-1.112004	خیال کرده
-1.645573	خیال کند
-0.9492764	خیس </s>
-1.482846	خیس خیس
-0.5439428	خیس شده
-0.7098648	خیس عرق
-1.482846	خیس و
-1.888611	داد :
-1.888611	داد ،
-1.888611	داد بلند
-1.888611	داد خود
-1.888611	داد زد
-0.2167091	داد و	-0.05902412
-1.888611	داد پر
-0.7908907	داد که
-1.696726	داده باشد
-0.5348207	داده بود	-0.02291848
-1.696726	داده بودندواز
-1.696726	داده ن
-0.3521825	داده و
-1.696726	داده که
-1.140423	دار آن
-1.140423	دار به
-1.140423	دار بود
-1.140423	دار و
-1.140423	دار که
-1.520635	دارد آب
-0.987065	دارد از
-0.987065	دارد به
-0.5817314	دارد و
-0.7476534	دارد که
-0.7424834	دارند او
-0.7424834	دارند و
-0.2089138	داره و
-1.301941	داشت ،
-2.074922	داشت آن
-1.136019	داشت از
-2.074922	داشت استغفار
-2.074922	داشت با
-2.074922	داشت باز
-2.074922	داشت تا
-2.074922	داشت تمام
-2.074922	داشت در
-2.074922	داشت دور
-2.074922	داشت زار
-2.074922	داشت سر
-2.074922	داشت شروع
-2.074922	داشت فقط
-1.541352	داشت لنگر
-2.074922	داشت همین
-0.6792259	داشت و
-2.074922	داشت وزیر
-2.074922	داشت کم
-0.7303784	داشت که
-2.074922	داشت گرم
-2.074922	داشت یه
-1.043513	داشتند ،
-1.043513	داشتند به
-1.043513	داشتند خانه
-1.043513	داشتند و
-1.482846	دختر ،
-1.482846	دختر بزرگ
-1.482846	دختر به
-1.482846	دختر دهاتی
-1.482846	دختر دوازده
-1.482846	دختر را
-1.482846	دختر سر
-1.482846	دختر مرزون
-0.9492764	دختر هم
-1.482846	دختر کوچک
-1.043513	دختره با
-1.043513	دختره داشتند
-1.043513	دختره رو
-1.043513	دختره چه
-0.9185747	دخترک دیگر
-0.385005	دخترک را
-1.810046	در </s>
-2.74895	در آب
-2.74895	در آخر
-2.21538	در آستین
-2.74895	در آمد
-1.077047	در آن
-2.74895	در آنچه
-1.587044	در آورد
-1.593125	در اتاق
-2.74895	در اتق
-2.74895	در اداره
-2.21538	در اطراف
-0.860338	در این	-0.0533973
-1.810046	در باز	-0.3494061
-2.21538	در بر
-2.74895	در بزرگ
-2.21538	در بلند
-2.21538	در بین
-2.74895	در تعریف
-1.810046	در تمام
-2.74895	در تو
-1.810046	در جواب
-2.74895	در جیب
-2.74895	در حال
-2.21538	در حیاط
-1.404406	در خانه
-2.74895	در خواب
-2.74895	در خود
-1.587044	در دست
-2.74895	در دل
-2.74895	در دو
-1.353253	در را	-0.2956221
-1.593125	در راه
-2.74895	در رختخواب
-2.74895	در رفته
-1.651229	در زیر
-2.74895	در سال
-2.74895	در شاخه
-2.74895	در شب
-2.74895	در صدا
-2.74895	در عقب
-1.810046	در فکر
-2.74895	در ماشین
-2.74895	در مثل
-1.810046	در من
-2.21538	در نور
-2.74895	در نیامده
-1.651229	در هر
-1.975968	در هم
-2.74895	در همه
-1.404406	در همین
-2.74895	در هیچ
-1.810046	در و
-2.74895	در وارد
-2.74895	در وقت
-2.74895	در پایین
-1.810046	در پشت
-2.74895	در چه
-2.74895	در کوچه
-2.74895	در گرم
-2.74895	در گفته
-2.21538	در گودال
-1.593125	در گوشه
-1.651229	در یک	-0.1836504
-0.4414534	درآمد ما
-0.9078838	دراز بود
-1.441453	دراز دارد
-1.441453	دراز پایین
-1.441453	دراز چهار
-1.441453	دراز کرد
-1.441453	دراز کرده
-0.6684721	دراز کشیده
-1.043513	درد </s>
-1.043513	درد دل
-1.043513	درد مرد
-1.043513	درد و
-0.4414534	درز شلوار
-0.4414534	درم همه
-0.4414534	درون آن
-0.7424834	دریده شد
-0.7424834	دریده نگاه
-1.606854	دست </s>
-1.606854	دست ،
-2.140424	دست آن
-2.140424	دست آورد
-1.20152	دست از
-1.367442	دست او
-2.140424	دست بر
-1.606854	دست بلند
-1.606854	دست به
-1.367442	دست خود
-2.140424	دست داده
-2.140424	دست دارد
-2.140424	دست دختره
-2.140424	دست در
-1.606854	دست دراز
-1.606854	دست دیگر
-2.140424	دست را
-2.140424	دست رفت
-2.140424	دست صدا
-2.140424	دست مثل
-2.140424	دست مرا
-1.367442	دست من
-2.140424	دست نگه
-0.9845985	دست و
-1.20152	دست کرد
-2.140424	دست یارو
-1.140423	دسته از
-1.140423	دسته برنج
-0.3674421	دسته گل
-1.344543	دعا از
-1.344543	دعا به
-1.344543	دعا بیرون
-1.344543	دعا را
-0.8109738	دعا و
-1.344543	دعا کرد
-1.344543	دعا کردن
-0.4414534	دعوا هم
-1.140423	دفعه دیگر
-1.140423	دفعه سر
-0.6068538	دفعه هم
-1.140423	دفعه وحشت
-1.043513	دقیقه </s>
-1.043513	دقیقه بعد
-0.5099438	دقیقه هم
-1.344543	دل با
-1.344543	دل به
-1.344543	دل تازه
-1.344543	دل زده
-1.344543	دل مأمور
-0.8109738	دل و
-1.344543	دل پر
-1.219605	دنبال آن
-1.219605	دنبال این
-1.219605	دنبال صغرا
-1.219605	دنبال قرار
-1.219605	دنبال یخ
-1.219605	دنبال یک
-0.4414534	دنبالشون بود
-0.4414534	دنباله دراز
-1.043513	ده بار
-1.043513	ده به
-1.043513	ده دوازده
-1.043513	ده رفته
-0.7424834	دهاتی رسید
-0.7424834	دهاتی هم
-0.9185747	دهان صغرا
-0.9185747	دهان قرار
-0.9185747	دهان و
-2.113551	دو -
-2.113551	دو </s>
-1.34057	دو اتاق
-2.113551	دو انگشت
-1.34057	دو بار
-2.113551	دو باره
-2.113551	دو بعد
-1.579982	دو تا
-2.113551	دو خندیدند
-1.34057	دو دست
-2.113551	دو را
-1.579982	دو روز
-2.113551	دو زانو
-2.113551	دو سال
-0.6307052	دو سه	-0.02590761
-1.579982	دو طرف
-2.113551	دو قدم
-2.113551	دو لب
-1.579982	دو من
-0.951646	دو نفر
-2.113551	دو پا
-2.113551	دو کلمه
-1.043513	دوازده از
-1.043513	دوازده ساله
-1.043513	دوازده سیزده
-1.043513	دوازده هم
-1.555397	دوباره از
-1.555397	دوباره بالا
-0.457676	دوباره به
-1.555397	دوباره تصمیم
-1.021827	دوباره سر
-1.555397	دوباره سوار
-1.555397	دوباره پایین
-1.555397	دوباره کیسه
-1.872817	دور ،
-1.872817	دور آن
-1.872817	دور افتاده
-1.872817	دور این
-1.872817	دور با
-1.872817	دور بخار
-1.872817	دور به
-1.872817	دور جناب
-1.872817	دور حوض
-1.099836	دور حیاط
-1.872817	دور شده
-1.872817	دور ما
-1.872817	دور مارا
-1.872817	دور مثل
-1.872817	دور من
-1.872817	دور نشده
-1.872817	دور هم
-1.099836	دور و
-1.872817	دور چراغ
-1.872817	دور کار
-1.872817	دور کرد
-1.339248	دور کمر
-1.344543	دوش </s>
-1.344543	دوش آن
-1.344543	دوش برداشته
-1.344543	دوش جا
-1.344543	دوش نگه
-1.344543	دوش و
-1.344543	دوش کشید
-1.344543	دوش کشیده
-0.4414534	دوم هم
-1.112004	دید ،
-1.112004	دید از
-1.645573	دید اگر
-1.645573	دید خبر
-1.645573	دید در
-1.645573	دید من
-1.645573	دید هوا
-1.112004	دید و
-0.5478526	دید که
-0.2705321	دیده و
-1.043513	دیده که
-1.344543	دیوار آن
-1.344543	دیوار با
-0.5715621	دیوار تکیه
-1.344543	دیوار داد
-1.344543	دیوار پشت
-1.344543	دیوار چیده
-1.474652	دیگر </s>
-1.714064	دیگر ،
-2.247633	دیگر اختیار
-1.149913	دیگر از
-2.247633	دیگر اگر
-1.474652	دیگر این
-1.714064	دیگر باید
-2.247633	دیگر برود
-2.247633	دیگر بلند
-2.247633	دیگر به
-2.247633	دیگر جواب
-2.247633	دیگر حوصله
-2.247633	دیگر خواب
-2.247633	دیگر داشت
-1.474652	دیگر در
-2.247633	دیگر دنبال
-1.30873	دیگر را
-2.247633	دیگر زن
-2.247633	دیگر شما
-2.247633	دیگر صبر
-2.247633	دیگر صدا
-2.247633	دیگر طاقت
-2.247633	دیگر طرف
-2.247633	دیگر ما
-1.474652	دیگر مثل
-1.714064	دیگر نگاه
-0.90309	دیگر هم
-1.714064	دیگر هیچ
-2.247633	دیگر پایین
-2.247633	دیگر پر
-2.247633	دیگر پریدند
-2.247633	دیگر پشت
-2.247633	دیگر پیدا
-2.247633	دیگر چه
-2.247633	دیگر کشید
-2.247633	دیگر که
-2.247633	دیگر گون
-2.247633	دیگر یک
-1.140423	دیگه این
-1.140423	دیگه باید
-1.140423	دیگه حالا
-0.6068538	دیگه رو
-0.4414534	ذکر </s>
-2.178329	را </s>
-1.955327	را آب
-2.583662	را آن
-3.117232	را آورد
-0.9354156	را از	-0.06742926
-2.34425	را این
-1.314051	را با
-3.117232	را بار
-1.721536	را باز
-2.34425	را بالا
-2.583662	را باید
-3.117232	را ببر
-2.34425	را بخورد
-2.34425	را بر
-3.117232	را برا
-3.117232	را برداشته
-2.34425	را برید
-1.772688	را بلند
-0.7619645	را به	-0.04656586
-2.583662	را بو
-3.117232	را بکند
-3.117232	را بگوید
-2.583662	را بگیر
-3.117232	را بیرون
-3.117232	را بیش
-2.019511	را تا
-3.117232	را تاریک
-3.117232	را تصدیق
-1.955327	را تماشا
-2.34425	را تند
-3.117232	را تنگ
-2.583662	را تو
-3.117232	را توقیف
-3.117232	را تکان
-1.955327	را جمع
-3.117232	را حتما
-3.117232	را حس
-3.117232	را حصیر
-3.117232	را حفظ
-3.117232	را خبر
-3.117232	را خسته
-2.583662	را خشک
-3.117232	را خوب
-3.117232	را خورده
-3.117232	را داد
-3.117232	را داده
-3.117232	را دارد
-2.019511	را داشت
-1.170628	را در
-2.583662	را درد
-3.117232	را درک
-3.117232	را دست
-3.117232	را دعوا
-3.117232	را دو
-3.117232	را دوباره
-2.34425	را دید
-2.583662	را دیده
-3.117232	را دیگر
-3.117232	را راست
-2.34425	را روشن
-3.117232	را زد
-3.117232	را زده
-3.117232	را زمین
-2.583662	را زود
-2.583662	را زیر
-2.178329	را سر
-3.117232	را سوار
-3.117232	را شانه
-3.117232	را شروع
-3.117232	را شما
-3.117232	را شنید
-3.117232	را صاف
-3.117232	را صدا
-3.117232	را طاق
-3.117232	را طرف
-2.34425	را عقب
-3.117232	را فشار
-3.117232	را قر
-2.34425	را لب
-2.583662	را مثل
-3.117232	را مرتب
-3.117232	را مسخره
-2.583662	را نگاه
-2.583662	را نگه
-2.019511	را نیز
-2.34425	را هر
-1.22862	را هم	-0.06274867
-2.583662	را همین
-3.117232	را وزن
-3.117232	را وسط
-2.583662	را ول
-2.178329	را پاک
-2.019511	را پایین
-1.955327	را پر
-3.117232	را پس
-3.117232	را پشت
-2.178329	را پهن
-2.178329	را پیدا
-2.34425	را چرا
-2.583662	را چه
-3.117232	را کردند
-3.117232	را کرده
-2.583662	را کف
-3.117232	را کم
-2.178329	را کنار
-1.170628	را که	-0.02355478
-3.117232	را گاز
-3.117232	را گذاشتند
-1.961407	را گذاشته	0.04353803
-3.117232	را یاد
-2.583662	را یک
-0.7424834	راحت دو
-0.7424834	راحت شده
-0.686035	راست به
-0.2807014	راست و
-1.288095	راه </s>
-1.821665	راه از
-1.288095	راه افتاد
-1.288095	راه انداخته
-1.821665	راه با
-1.821665	راه بابلسر
-1.821665	راه برود
-1.821665	راه به
-1.821665	راه بودند
-1.821665	راه تو
-1.821665	راه جز
-1.821665	راه خدا
-1.821665	راه در
-1.288095	راه را
-1.821665	راه راست
-1.821665	راه قطار
-1.821665	راه مشغول
-1.821665	راه و
-1.821665	راه پر
-1.821665	راه چند
-0.4414534	رختخواب که
-0.9185747	رد شد
-0.9185747	رد شدند
-0.9185747	رد شود
-0.4414534	ردیف اول
-0.9185747	رساند با
-0.9185747	رساند و
-0.9185747	رساند که
-1.286551	رسید دست
-1.286551	رسید دیگر
-0.3476482	رسید و
-1.286551	رسید که
-0.4414534	رف هم
-1.541352	رفت :
-1.541352	رفت </s>
-1.301941	رفت ،
-2.074922	رفت از
-2.074922	رفت باز
-0.919097	رفت به
-1.541352	رفت تا
-2.074922	رفت دعا
-2.074922	رفت سر
-2.074922	رفت ما
-2.074922	رفت مرزون
-2.074922	رفت نزدیک
-0.3781959	رفت و
-2.074922	رفت پشت
-2.074922	رفت چند
-0.9185747	رفتند و
-0.385005	رفتند که
-1.555397	رفته باید
-0.7824154	رفته بود	-0.2242312
-1.555397	رفته بودند
-1.555397	رفته راه
-1.555397	رفته رفته
-0.457676	رفته و
-1.555397	رفته یک
-0.4414534	رفقا و
-1.219605	رفیق ما
-0.686035	رفیق من
-0.4466234	رفیق هم
-1.140423	رنگ آن
-0.6068538	رنگ به
-1.140423	رنگ دسته
-1.140423	رنگ و
-2.009655	رو ،
-2.009655	رو ؟
-2.009655	رو آهسته
-2.009655	رو باز
-2.009655	رو ببر
-2.009655	رو بنار
-0.2894481	رو به
-2.009655	رو توقیف
-2.009655	رو را
-2.009655	رو شده
-2.009655	رو قر
-2.009655	رو همین
-2.009655	رو ورداشته
-1.476086	رو کرد
-2.009655	رو کند
-1.236674	رو که
-0.3674421	رود خانه
-1.140423	رود خنده
-1.140423	رود و
-1.186637	روز </s>
-1.720207	روز از
-1.720207	روز اول
-1.186637	روز به
-1.720207	روز بود
-1.720207	روز تا
-1.720207	روز تفنگ
-1.720207	روز تو
-1.720207	روز در
-1.720207	روز راه
-1.720207	روز روشن
-1.720207	روز سخت
-1.720207	روز عصر
-1.720207	روز همین
-1.186637	روز و
-1.720207	روز کار
-0.9185747	روشن او
-0.9185747	روشن بود
-0.9185747	روشن کرده
-1.441453	روضه ،
-1.441453	روضه بالا
-1.441453	روضه بخواند
-1.441453	روضه تمام
-0.6684721	روضه را
-1.441453	روضه سه
-1.441453	روضه لب
-1.441453	روضه هم
-0.4414534	روق پاشنه
-1.043513	ریش بیرون
-1.043513	ریش ما
-0.5099438	ریش و
-0.7424834	زا </s>
-0.7424834	زا نو
-0.4414534	زار و
-0.7424834	زانو بر
-0.7424834	زانو و
-1.742483	زد </s>
-1.208914	زد ،
-1.208914	زد به
-1.742483	زد راه
-0.2218488	زد و
-1.742483	زد پایین
-1.742483	زد که
-1.821665	زده از
-1.821665	زده باز
-1.821665	زده باشد
-0.8827614	زده بود	-0.08796838
-1.821665	زده را
-1.821665	زده شد
-1.821665	زده شده
-1.821665	زده مثل
-0.3388186	زده و
-1.821665	زده که
-1.821665	زده یا
-0.4414534	زمستان این
-1.696726	زمین افتاد
-1.696726	زمین بلند
-1.696726	زمین به
-1.696726	زمین بگذارد
-1.696726	زمین دراز
-1.163156	زمین را
-1.696726	زمین رسید
-1.696726	زمین شد
-0.5348207	زمین و
-1.696726	زمین پهن
-1.163156	زمین گذاشته
-1.587582	زن با
-1.054012	زن به
-1.587582	زن خود
-1.587582	زن داشت
-1.587582	زن درد
-1.587582	زن را
-0.4256762	زن و	-0.921218
-1.587582	زن که
-0.4414534	زنبیل یخ
-1.140423	زود </s>
-1.140423	زود دنباله
-1.140423	زود رد
-1.140423	زود کنار
-1.140423	زود یک
-1.043513	زیاد حرف
-0.5099438	زیاد طول
-1.043513	زیاد کار
-1.742483	زیر آن
-1.742483	زیر او
-1.742483	زیر بار
-1.208914	زیر دست
-1.742483	زیر قطار
-0.6447627	زیر لب
-1.742483	زیر لحاف
-1.742483	زیر نور
-1.742483	زیر و
-1.742483	زیر پا
-1.208914	زیر چادر
-1.742483	زیر کاسه
-1.742483	زیر کمر
-1.742483	زیر گلو
-1.441453	سال از
-1.441453	سال اول
-1.441453	سال با
-1.441453	سال به
-1.441453	سال تمام
-1.441453	سال دیگر
-0.9078838	سال را
-0.9078838	سال هم
-1.140423	ساله خود
-1.140423	ساله را
-0.3674421	ساله و
-0.7424834	سبز ،
-0.7424834	سبز و
-0.9185747	سخت تکان
-0.9185747	سخت هم
-0.9185747	سخت وحشت
-1.740393	سر از
-1.740393	سر او
-2.273962	سر این
-1.740393	سر برهنه
-1.500981	سر به
-2.273962	سر تا
-2.273962	سر تو
-2.273962	سر جزو
-2.273962	سر حوض
-1.500981	سر خود
-2.273962	سر در
-2.273962	سر دماغ
-2.273962	سر را
-2.273962	سر راحت
-2.273962	سر راه
-1.500981	سر رفت
-2.273962	سر زانو
-2.273962	سر شب
-1.500981	سر ماه
-2.273962	سر مثل
-2.273962	سر مرا
-1.740393	سر من
-2.273962	سر نهاد
-2.273962	سر نگون
-1.118137	سر هم
-2.273962	سر همه
-0.60206	سر و
-2.273962	سر پا
-2.273962	سر چادر
-2.273962	سر کا
-2.273962	سر کار
-2.273962	سر که
-1.740393	سر کوچه
-0.7424834	سرازیر بود
-0.7424834	سرازیر شد
-0.4414534	سرپیچ بود
-1.286551	سفر ،
-1.286551	سفر دور
-0.1888307	سفر ما
-0.4414534	سفرمون </s>
-0.4414534	سفره را
-1.286551	سماور آن
-0.7529818	سماور به
-1.286551	سماور جور
-0.7529818	سماور رو
-1.286551	سماور غلغل
-1.043513	سنگین او
-1.043513	سنگین بر
-0.5099438	سنگین و
-0.6786414	سه بار
-1.617545	سه تا
-1.617545	سه دست
-0.5198239	سه قدم
-1.617545	سه ماه
-0.8445634	سه نفر
-0.9185747	سوار شد
-0.9185747	سوار شود
-0.9185747	سوار کند
-0.7424834	سوال از
-0.7424834	سوال و
-0.9185747	سوم به
-0.9185747	سوم بود
-0.9185747	سوم یک
-0.4414534	سپرد که
-0.4414534	سکو به
-0.385005	سگ دو
-0.9185747	سگ هم
-0.9185747	سیر را
-0.9185747	سیر شده
-0.9185747	سیر نشده
-0.9185747	سینه بر
-0.9185747	سینه جمع
-0.9185747	سینه گذاشته
-0.7424834	سیگار دیگر
-0.7424834	سیگار را
-0.7424834	ش دیده
-0.7424834	ش که
-0.4414534	شاخه در
-1.043513	شام با
-1.043513	شام در
-1.043513	شام که
-1.043513	شام یخ
-1.043513	شاه هم
-0.2705321	شاه و
-0.9185747	شاگرد او
-0.385005	شاگرد شوفر
-0.7824154	شاید از
-1.555397	شاید به
-1.555397	شاید تا
-1.555397	شاید تابستان
-1.021827	شاید در
-1.555397	شاید دو
-1.555397	شاید هم
-1.555397	شاید پارو
-1.555397	شاید چهل
-1.555397	شاید یک
-1.186986	شب ،
-1.959967	شب اتاق
-1.959967	شب او
-1.959967	شب اول
-1.959967	شب اگر
-1.959967	شب این
-1.426398	شب با
-1.959967	شب باز
-1.959967	شب به
-1.959967	شب بود
-1.186986	شب را
-1.959967	شب روشن
-1.426398	شب روضه
-1.959967	شب سر
-1.959967	شب مرا
-1.959967	شب مزاحم
-1.426398	شب هم
-1.959967	شب همه
-1.426398	شب و
-1.959967	شب چه
-1.021064	شب که
-1.959967	شب یک
-1.146128	شد ،
-2.490671	شد ؛
-2.490671	شد ؟
-1.71769	شد آن
-1.71769	شد از
-2.490671	شد الوار
-2.490671	شد او
-2.490671	شد این
-2.490671	شد با
-2.490671	شد به
-1.957102	شد تا
-2.490671	شد ترس
-2.490671	شد در
-2.490671	شد ده
-1.957102	شد دو
-2.490671	شد مثل
-2.490671	شد مرد
-2.490671	شد من
-2.490671	شد مگر
-0.30103	شد و	-0.04196709
-2.490671	شد چشم
-0.8187691	شد که
-2.490671	شد گرم
-2.490671	شد یار
-2.490671	شد یارو
-1.71769	شد یک
-1.219605	شدند دست
-0.2807014	شدند و
-1.219605	شدند که
-2.254367	شده </s>
-1.720797	شده ،
-2.254367	شده ؟
-1.156646	شده باشد
-1.481385	شده به
-0.2814344	شده بود	0.2254603
-2.254367	شده بودویه
-2.254367	شده دارد
-2.254367	شده را
-2.254367	شده طاق
-0.7337321	شده و
-2.254367	شده پول
-2.254367	شده پیدا
-2.254367	شده کار
-0.4414534	شدیخ را
-1.441453	شروع و
-0.2856285	شروع کرد	-0.2039307
-0.9078838	شروع کرده
-0.4414534	شریف جناب
-1.286551	شط ،
-1.286551	شط برسد
-1.286551	شط به
-1.286551	شط سر
-1.286551	شط سرنگون
-1.286551	شط غرق
-1.286551	شط پایین
-0.4414534	شلوار خانه
-1.617545	شما با
-1.617545	شما باشد
-1.617545	شما بود
-1.617545	شما دنبال
-1.617545	شما دیگر
-0.5198239	شما را
-1.617545	شما شده
-1.617545	شما مرا
-1.617545	شما مگه
-1.617545	شما هم
-1.617545	شما چه
-0.4414534	شمرده و
-0.4414534	شنید ،
-0.1887185	شنیدن این
-1.344543	شنیدن کلمه
-0.7424834	شهر در
-0.7424834	شهر هم
-1.355042	شود ،
-1.888611	شود آقا
-1.888611	شود این
-1.888611	شود با
-1.888611	شود باز
-1.355042	شود به
-1.888611	شود تابتوانند
-1.888611	شود حالا
-1.888611	شود در
-1.888611	شود عرب
-1.888611	شود هم
-0.3332147	شود و
-1.355042	شود که
-1.344543	شوفر </s>
-1.344543	شوفر جواب
-1.344543	شوفر را
-1.344543	شوفر سپرد
-1.344543	شوفر نگه
-1.344543	شوفر هم
-1.344543	شوفر و
-1.344543	شوفر پرید
-0.4414534	شک اگر
-1.140423	شکم بزرگ
-1.140423	شکم خود
-1.140423	شکم رفیق
-1.140423	شکم سگ
-1.140423	شکم نگه
-1.043513	شیر ایستاد
-0.5099438	شیر و
-1.043513	شیر پاک
-0.9185747	صاف از
-0.9185747	صاف روبه
-0.9185747	صاف و
-0.7424834	صبر کرد
-0.7424834	صبر کند
-1.520635	صدا </s>
-1.520635	صدا از
-1.520635	صدا اشک
-1.520635	صدا افتاد
-1.520635	صدا بود
-0.987065	صدا را
-1.520635	صدا زد
-1.520635	صدا و
-1.520635	صدا پیچید
-0.987065	صدا کرد
-0.4414534	صرف این
-1.286551	صغرا ،
-1.286551	صغرا آن
-1.286551	صغرا افتاد
-0.5135702	صغرا را
-1.286551	صغرا سه
-0.9185747	صورت از
-0.9185747	صورت او
-0.9185747	صورت مامور
-0.7424834	طاق باز
-0.7424834	طاق و
-0.4414534	طاقت پدر
-0.7424834	طاقچه ،
-0.7424834	طاقچه پایین
-1.803181	طرف </s>
-1.269612	طرف ،
-1.803181	طرف آقا
-1.803181	طرف الوار
-1.803181	طرف باغچه
-1.269612	طرف به
-1.803181	طرف حیاط
-0.864278	طرف خانه
-1.803181	طرف را
-1.269612	طرف رختخواب
-1.803181	طرف ما
-1.803181	طرف مغرب
-1.803181	طرف من
-1.803181	طرف پایینحیاط
-1.803181	طرف پنجره
-1.803181	طرف پیاده
-1.803181	طرف که
-0.4414534	طناب بار
-1.413034	طور </s>
-1.946603	طور از
-1.946603	طور به
-1.946603	طور بود
-1.946603	طور تند
-1.946603	طور دخترک
-1.946603	طور دست
-1.946603	طور دیده
-1.173622	طور شد
-1.946603	طور شده
-1.946603	طور شروع
-1.946603	طور عرق
-1.946603	طور عمل
-1.946603	طور نبود
-1.946603	طور هم
-0.3590219	طور که
-0.7424834	طول الوار
-0.7424834	طول کشید
-0.4414534	ظهر و
-0.9185747	عباس </s>
-0.9185747	عباس آقا
-0.9185747	عباس به
-0.7424834	عبور از
-0.7424834	عبور کرد
-0.9185747	عجله از
-0.9185747	عجله تکان
-0.9185747	عجله پس
-0.4414534	عجیب دیگر
-0.4414534	عرب که
-0.4414534	عرض خواستند
-1.286551	عرق </s>
-1.286551	عرق از
-1.286551	عرق خیس
-0.5135702	عرق شده
-1.286551	عرق و
-0.4414534	عشر »
-1.043513	عصر چهل
-0.2705321	عصر که
-1.344543	عقب بچه
-1.344543	عقب تا
-1.344543	عقب دو
-1.344543	عقب رفت
-1.344543	عقب زد
-1.344543	عقب زده
-1.344543	عقب ماشین
-1.344543	عقب کشید
-0.4414534	علاقه پیدا
-0.7424834	عمل آمد
-0.7424834	عمل کن
-0.7424834	عهد خود
-0.7424834	عهد کرده
-0.4414534	غافلگیر کرده
-1.219605	غروب ،
-1.219605	غروب به
-1.219605	غروب تا
-1.219605	غروب هم
-0.686035	غروب کرده
-0.4414534	غصه </s>
-0.4414534	غلغل سماور
-0.1046101	غیر از
-0.7424834	فحش به
-0.7424834	فحش داد
-1.482846	فرار را
-1.482846	فرار کردن
-0.3270212	فرار کرده
-1.482846	فرار کند
-1.482846	فرار کنند
-0.385005	فرو رفت
-0.9185747	فرو رفتند
-0.4414534	فشار داده
-1.441453	فقط تابستان
-1.441453	فقط خانه
-1.441453	فقط خیال
-0.9078838	فقط در
-1.441453	فقط چراغ
-0.5025501	فقط یک
-0.7424834	فهمید و
-0.7424834	فهمید که
-1.010895	فکر </s>
-1.783876	فکر آن
-1.783876	فکر افتاد
-1.010895	فکر این
-1.250306	فکر بود
-1.783876	فکر بودند
-1.783876	فکر تازه
-1.783876	فکر خود
-1.783876	فکر راحت
-1.250306	فکر فرو
-1.010895	فکر و
-1.250306	فکر کرد
-1.783876	فکر کند
-0.4414534	قالیچه کوچک
-1.219605	قایق ،
-1.219605	قایق بزرگ
-1.219605	قایق بند
-1.219605	قایق به
-1.219605	قایق و
-1.219605	قایق گونی
-0.4414534	قبر پدر
-0.4414534	قبل از
-1.395696	قدر </s>
-1.395696	قدر اسم
-1.395696	قدر این
-1.395696	قدر باد
-1.395696	قدر خنده
-1.395696	قدر خوب
-1.395696	قدر هم
-1.395696	قدر که
-1.395696	قدر یک
-1.555397	قدم آهسته
-1.555397	قدم او
-1.555397	قدم بر
-1.021827	قدم به
-1.555397	قدم بود
-1.555397	قدم بیش
-1.555397	قدم تند
-1.555397	قدم جلو
-1.555397	قدم در
-1.555397	قدم را
-1.555397	قدم که
-1.555397	قدم کوچک
-0.9185747	قر داد
-0.385005	قر زده
-0.7424834	قرآن را
-0.7424834	قرآن روز
-1.219605	قرار بود
-1.219605	قرار داده
-1.219605	قرار دیگر
-0.686035	قرار شد
-1.219605	قرار گذاشته
-0.4414534	قرمز رو
-0.7424834	قضیه از
-0.7424834	قضیه این
-1.021827	قطار ،
-1.555397	قطار بر
-1.555397	قطار به
-1.555397	قطار بود
-1.555397	قطار خدا
-1.555397	قطار دور
-1.555397	قطار ما
-1.555397	قطار معطل
-1.555397	قطار هنوز
-1.555397	قطار پیدا
-1.555397	قطار پیچ
-1.555397	قطار گذاشته
-0.9185747	قیافه ش
-0.9185747	قیافه و
-0.9185747	قیافه یک
-0.4414534	لا و
-0.4414534	لاغر و
-1.482846	لب به
-0.7098648	لب حوض
-1.482846	لب رف
-0.5439428	لب و
-1.482846	لب پایین
-1.482846	لب پنجره
-0.7424834	لبه </s>
-0.7424834	لبه دار
-0.1455934	لحاف را
-0.9185747	لرزه افتاده
-0.9185747	لرزه بر
-0.9185747	لرزه در
-0.686035	لرزید </s>
-1.219605	لرزید ،
-0.4466234	لرزید و
-0.4414534	لرزیدن سخت
-0.1046101	لنگر بر
-0.4414534	لگن ،
-0.9185747	مأمور بود
-0.9185747	مأمور جمع
-0.9185747	مأمور عصر
-2.286551	ما </s>
-1.752982	ما ،
-2.286551	ما آن
-2.286551	ما از
-2.286551	ما اسمشو
-1.752982	ما به
-2.286551	ما بود
-2.286551	ما خسته
-2.286551	ما خواند
-2.286551	ما در
-2.286551	ما دست
-2.286551	ما دو
-2.286551	ما دوباره
-2.286551	ما دیگه
-0.5026754	ما را
-2.286551	ما سوار
-2.286551	ما غیر
-2.286551	ما فرار
-2.286551	ما مثل
-2.286551	ما نزدیک
-2.286551	ما نگاه
-2.286551	ما هر
-0.8037053	ما هم
-2.286551	ما همه
-2.286551	ما هیچ
-2.286551	ما و
-2.286551	ما وداع
-2.286551	ما پنچر
-2.286551	ما چند
-1.752982	ما چه
-2.286551	ما کجا
-2.286551	ما کشید
-1.347648	ما که
-0.8109738	مادر ،
-1.344543	مادر خود
-0.8109738	مادر دختره
-1.344543	مادر دیگر
-1.344543	مادر کم
-1.344543	مادر یک
-0.4414534	مارا به
-1.395696	ماشین </s>
-1.395696	ماشین ،
-1.395696	ماشین دیگر
-0.8621263	ماشین را
-1.395696	ماشین رد
-1.395696	ماشین ما
-0.8621263	ماشین که
-0.7424834	مامور تازه
-0.7424834	مامور نباید
-0.7424834	ماند به
-0.7424834	ماند و
-0.1887185	مانده بود	-0.6758896
-1.344543	مانده و
-1.286551	ماه از
-1.286551	ماه به
-0.7529818	ماه را
-1.286551	ماه مبارک
-1.286551	ماه مثل
-1.286551	ماه پنج
-0.2089138	مبارک را
-0.4414534	متوجه کاسه
-1.671312	مثل </s>
-2.204881	مثل آب
-1.4319	مثل آن
-2.204881	مثل از
-0.462398	مثل این	-1.500387
-0.4846744	مثل اینکه
-2.204881	مثل با
-2.204881	مثل برق
-1.4319	مثل تو
-2.204881	مثل خورده
-2.204881	مثل زن
-2.204881	مثل سگ
-2.204881	مثل طفل
-1.671312	مثل همه
-2.204881	مثل یک
-0.4414534	مجبوره زود
-0.4414534	مخالف نبود
-0.7424834	مخصوص آن
-0.7424834	مخصوص خاک
-1.250306	مرا </s>
-1.783876	مرا آب
-0.8449728	مرا از
-1.250306	مرا با
-1.783876	مرا به
-1.783876	مرا بیش
-1.783876	مرا خون
-1.783876	مرا در
-1.783876	مرا دست
-1.783876	مرا دید
-1.783876	مرا دیده
-1.783876	مرا سخت
-1.783876	مرا صدا
-1.783876	مرا متوجه
-1.783876	مرا نگاه
-1.250306	مرا هم
-0.9185747	مرتب دور
-0.9185747	مرتب و
-0.9185747	مرتب کردن
-1.720207	مرد آهسته
-0.9472257	مرد باریک
-1.720207	مرد باز
-1.720207	مرد باید
-1.720207	مرد تصمیم
-1.720207	مرد تکان
-0.9472257	مرد در
-0.9472257	مرد را
-1.720207	مرد راه
-1.720207	مرد طاقت
-1.720207	مرد فرار
-1.720207	مرد فقط
-1.720207	مرد و
-0.4414534	مردد مانده
-0.05115252	مرزون آباد
-0.4414534	مستعمعین روضه
-0.4414534	مسجد آمد
-1.219605	مشغول بودند
-1.219605	مشغول تماشا
-1.219605	مشغول ذکر
-1.219605	مشغول زد
-1.219605	مشغول پیاده
-1.219605	مشغول کار
-1.043513	مطلب از
-0.5099438	مطلب را
-1.043513	مطلب سر
-0.385005	مطمئن بود
-0.9185747	مطمئن و
-0.7424834	معطل او
-0.7424834	معطل مانده
-0.4414534	مغرب بود
-0.4414534	مقدمه دست
-0.2015201	ممکن بود
-1.140423	ممکن نبود
-1.657886	من </s>
-1.823808	من ،
-2.596789	من آخر
-2.596789	من آورد
-1.499069	من از
-2.596789	من افتاد
-2.596789	من اگر
-1.823808	من این
-2.596789	من با
-2.06322	من باز
-2.596789	من بدهد
-2.06322	من بر
-2.596789	من برگرداند
-2.596789	من بلند
-1.252246	من به	-0.1679321
-1.657886	من بود
-1.823808	من تا
-2.596789	من تازه
-2.596789	من تعجب
-2.596789	من ته
-2.06322	من تو
-2.596789	من جواب
-2.06322	من حالا
-2.596789	من حرف
-2.06322	من خواب
-2.06322	من خورده
-2.596789	من خیال
-2.06322	من داد
-2.596789	من دارد
-1.252246	من در
-2.596789	من دراز
-2.06322	من دست
-2.596789	من دو
-1.657886	من دیگر
-2.596789	من رساند
-2.596789	من رو
-2.596789	من زن
-2.596789	من زود
-2.596789	من زیر
-2.06322	من سر
-2.596789	من شاید
-2.596789	من صاف
-2.596789	من فقط
-2.596789	من مادر
-2.596789	من مانده
-2.596789	من مشغول
-2.596789	من ناچار
-2.596789	من نبود
-2.596789	من نزدیک
-2.596789	من نماز
-2.596789	من هر
-1.041393	من هم
-2.06322	من همه
-2.596789	من هنوز
-1.155336	من و
-2.596789	من پایین
-2.596789	من پس
-2.596789	من پول
-2.596789	من چشم
-2.596789	من چند
-2.06322	من چه
-2.596789	من کرد
-2.596789	من کرده
-1.113943	من که	-0.1874727
-2.596789	من گفتن
-1.823808	من یک
-0.4414534	منتظرند که
-0.4414534	مهر جا
-0.7424834	مهربان باشد
-0.7424834	مهربان در
-0.4414534	موذن مسجد
-0.4414534	موقع خود
-1.344543	مگر از
-1.344543	مگر به
-1.344543	مگر حرف
-1.344543	مگر ممکن
-0.5715621	مگر چه
-1.344543	مگر کلبه
-0.4414534	مگه این
-0.4414534	میبردند تند
-0.4414534	میرفتند و
-0.4414534	میزد واگر
-0.4414534	میکرد تند
-0.4414534	ن ،
-1.043513	ناله افتاده
-0.2705321	ناله و
-0.4414534	نامحرم مرا
-0.4414534	نامربوط و
-0.4414534	نباید زیاد
-1.856427	نبود </s>
-1.856427	نبود از
-1.856427	نبود این
-1.856427	نبود بلند
-1.322857	نبود به
-1.856427	نبود سر
-0.5118834	نبود و
-1.856427	نبود چند
-0.4149733	نبود که
-0.4414534	نداد که
-0.3270212	نزدیک بود
-1.482846	نزدیک شده
-1.482846	نزدیک شود
-1.482846	نزدیک مرزون
-1.482846	نزدیک هم
-0.4414534	نسشته بود
-1.286551	نشد مثل
-0.5135702	نشد و
-0.5135702	نشد که
-0.1046101	نشده بود
-0.2089138	نشود </s>
-1.054012	نفر از
-1.587582	نفر باید
-1.587582	نفر بودند
-1.587582	نفر حالا
-1.587582	نفر خبر
-0.8146002	نفر دیگر
-1.587582	نفر را
-1.054012	نفر هم
-1.054012	نفر که
-0.4414534	نفس شما
-0.4414534	نفهم و
-0.4414534	نفهمید چقدر
-0.4414534	نلرزد و
-0.4414534	نم کشیده
-1.219605	نماز ،
-1.219605	نماز به
-1.219605	نماز خریدن
-1.219605	نماز خواندن
-1.219605	نماز ظهر
-1.219605	نماز پیچید
-0.04270268	نمود و
-1.441453	نه </s>
-0.6684721	نه ،
-1.441453	نه انگار
-1.441453	نه بچه
-1.441453	نه خندید
-1.441453	نه هیچ
-1.441453	نه چیز
-1.441453	نه یک
-0.4414534	نهاد و
-0.7424834	نو به
-0.7424834	نو بیرون
-1.219605	نور </s>
-1.219605	نور سبز
-0.4466234	نور چراغ
-1.219605	نور گرم
-0.4414534	نوک انگشت
-0.2705321	نکرد و
-1.043513	نکرد پیاده
-1.219605	نگاه به
-0.686035	نگاه تند
-1.219605	نگاه خود
-1.219605	نگاه کرد
-1.219605	نگاه کند
-0.7424834	نگذارد بار
-0.7424834	نگذارد زا
-0.9185747	نگه </s>
-0.9185747	نگه داره
-0.9185747	نگه داشت
-0.7424834	نیامده بود
-0.7424834	نیامده هنوز
-0.4414534	نیاورده بود
-0.7529818	نیز با
-1.286551	نیز به
-1.286551	نیز همین
-1.286551	نیز چاره
-1.286551	نیز کرده
-1.286551	نیز که
-0.4414534	نیفتد ،
-0.4414534	هاو بعد
-1.640278	هر </s>
-2.173847	هر اتاق
-1.400866	هر جور	-0.1345053
-2.173847	هر خاک
-1.018022	هر دو
-2.173847	هر را
-1.640278	هر روز
-2.173847	هر سه
-0.7781513	هر شب
-2.173847	هر طرف
-2.173847	هر طور
-2.173847	هر قدر
-1.076126	هر وقت
-0.6910011	هر چه
-2.173847	هر چیز
-1.076126	هر کس
-2.173847	هر کلمه
-2.173847	هر یک
-0.2705321	هق هق
-1.043513	هق گریه
-1.783584	هم </s>
-2.722487	هم ،
-2.722487	هم آمد
-1.783584	هم آن
-2.188917	هم اتاق
-1.377943	هم از
-2.722487	هم اگر
-2.188917	هم این
-1.566662	هم با
-1.624766	هم باز
-2.722487	هم باشد
-2.722487	هم بالا
-2.188917	هم باید
-2.722487	هم بر
-2.722487	هم بلند
-1.050584	هم به
-2.722487	هم بود
-2.722487	هم بودند
-2.722487	هم بکند
-2.188917	هم تکان
-2.722487	هم تکرد
-2.722487	هم جز
-2.188917	هم جزو
-2.722487	هم حالا
-1.949505	هم حرف
-2.722487	هم خواهر
-2.722487	هم خوب
-2.722487	هم خیس
-2.722487	هم داده
-2.722487	هم دارد
-1.949505	هم داشت
-1.566662	هم در
-2.722487	هم درد
-2.722487	هم دنبالشون
-2.722487	هم دوباره
-2.722487	هم دور
-1.949505	هم دیگر
-2.722487	هم را
-2.722487	هم راه
-2.188917	هم رسید
-2.722487	هم رفتند
-2.188917	هم رفته
-2.722487	هم زد
-2.722487	هم زن
-2.188917	هم زیر
-1.949505	هم سر
-1.566662	هم سفر	0.1213679
-2.722487	هم سفرمون
-2.722487	هم سگ
-1.783584	هم شده
-2.722487	هم شک
-2.722487	هم طرف
-2.722487	هم طول
-2.722487	هم عرض
-1.624766	هم فرار	-0.2532101
-2.722487	هم فشار
-2.722487	هم قدم
-2.722487	هم قرمز
-2.722487	هم قطار
-2.722487	هم مأمور
-1.560582	هم مثل
-2.722487	هم مرد
-2.722487	هم مطمئن
-2.722487	هم موذن
-2.722487	هم میشد
-2.722487	هم نبود
-2.722487	هم نشد
-2.722487	هم نماز
-2.722487	هم نگاه
-2.722487	هم هر
-2.722487	هم همراه
-2.188917	هم و
-2.188917	هم پایین
-2.722487	هم پرید
-2.722487	هم پهن
-2.722487	هم پول
-2.188917	هم پیاده
-2.722487	هم پیدا
-2.188917	هم چشمک
-2.188917	هم کار
-2.722487	هم کاسه
-2.722487	هم کرد
-2.722487	هم کرده
-2.722487	هم کم
-2.722487	هم کمک
-1.134905	هم که
-2.722487	هم گرم
-1.566662	هم یک
-1.043513	همانطور مانده
-0.2705321	همانطور که
-1.043513	همراه برداشته
-0.5099438	همراه خود
-1.043513	همراه داشت
-1.645573	همه ،
-1.112004	همه این
-1.645573	همه با
-1.645573	همه برهنه
-1.112004	همه جا
-1.645573	همه خون
-1.645573	همه دور
-1.645573	همه را
-1.645573	همه شوفر
-0.7066701	همه چیز
-1.645573	همه کس
-0.385005	همون دختره
-0.9185747	همون پسره
-0.7424834	همچه </s>
-0.7424834	همچه که
-0.6068538	همیشه از
-1.140423	همیشه اول
-1.140423	همیشه هم
-1.140423	همیشه یا
-1.413034	همین بود
-1.413034	همین بین
-1.946603	همین تفنگ
-1.946603	همین تو
-1.946603	همین جا
-1.946603	همین خودشه
-1.946603	همین دو
-1.946603	همین را
-1.946603	همین سوال
-0.7846981	همین طور
-1.173622	همین قدر
-1.413034	همین مرزون
-1.946603	همین چند
-0.60206	همین که
-1.946603	همین کوچه
-0.7416727	هنوز از
-1.839393	هنوز اقامه
-1.066412	هنوز به
-1.839393	هنوز تند
-0.9004901	هنوز در
-1.839393	هنوز رنگ
-1.839393	هنوز سیر
-1.839393	هنوز شکم
-1.839393	هنوز قدم
-1.839393	هنوز قیافه
-1.839393	هنوز لب
-1.305824	هنوز هم
-1.839393	هنوز همانطور
-1.839393	هنوز چشم
-1.839393	هنوز چند
-0.7529818	هوا تاریک
-1.286551	هوا را
-1.286551	هوا رفته
-1.286551	هوا هم
-1.286551	هوا پس
-1.286551	هوا گرم
-1.803181	هیچ ،
-1.803181	هیچ انتظار
-1.803181	هیچ تعجب
-1.803181	هیچ حرف
-1.803181	هیچ دیده
-1.803181	هیچ سر
-1.803181	هیچ مقدمه
-1.803181	هیچ و
-0.7054605	هیچ وقت
-1.0302	هیچ چیز
-0.6473564	هیچ کس
-0.4414534	هیکل او
-1.811369	و </s>
-3.366765	و »
-3.366765	و آب
-3.366765	و آباد
-3.366765	و آفتاب
-3.366765	و آمد
-1.721192	و آن	-0.06707999
-2.593784	و آهسته
-3.366765	و أن
-1.209309	و از
-2.833196	و اسم
-2.593784	و اطراف
-3.366765	و الله
-2.833196	و انگار
-3.366765	و انگشت
-1.67004	و او	0.04072484
-3.366765	و اون
-2.593784	و اگر
-1.97107	و این
-1.244071	و با	-0.01766736
-2.427862	و بار
-2.210941	و باز
-3.366765	و باغچه
-3.366765	و بالا
-3.366765	و ببر
-2.833196	و ببین
-3.366765	و بتول
-2.593784	و بر
-3.366765	و برق
-2.833196	و برو
-2.833196	و بزرگ
-3.366765	و بس
-3.366765	و بساط
-1.67004	و بعد
-2.833196	و بلند
-1.099237	و به	-0.06232753
-2.20486	و بچه
-3.366765	و بگیرند
-3.366765	و بیش
-2.833196	و بین
-2.20486	و تا
-3.366765	و تاب
-3.366765	و تاریک
-2.833196	و تازه
-3.366765	و تخته
-3.366765	و ترس
-3.366765	و تسبیح
-3.366765	و تعادل
-2.427862	و تعارف
-3.366765	و تعریف
-3.366765	و تماشا
-3.366765	و تنگ
-2.833196	و ته
-3.366765	و تو
-2.833196	و تک
-2.833196	و جارو
-3.366765	و جانماز
-3.366765	و جد
-2.833196	و جلو
-3.366765	و جناب
-3.366765	و جو
-2.833196	و جواب
-2.833196	و جور
-2.427862	و حالا
-3.366765	و حتما
-3.366765	و حس
-3.366765	و حوصله
-3.366765	و حیاط
-3.366765	و خانه
-3.366765	و خاک
-2.210941	و خجالت
-2.833196	و خدا
-3.366765	و خدایا
-3.366765	و خنده
-2.20486	و خود	0.1310033
-3.366765	و خورشید
-2.427862	و خیال
-3.366765	و خیس
-3.366765	و داد
-3.366765	و دار
-3.366765	و داره
-3.366765	و داشت
-3.366765	و داشتند
-2.593784	و دختر
-1.086463	و در	0.01436631
-2.593784	و دراز
-3.366765	و درد
-2.269045	و دست
-3.366765	و دسته
-2.833196	و دعا
-3.366765	و دقیقه
-2.833196	و دل
-2.833196	و دنبال
-3.366765	و ده
-3.366765	و دهان
-1.846131	و دو	-0.03781603
-2.210941	و دوباره	0.03253902
-2.593784	و دور
-3.366765	و دیده
-2.593784	و دیوار
-1.925312	و دیگر
-2.427862	و راست
-2.427862	و راه
-2.427862	و رفت
-2.833196	و رفتند
-3.366765	و رفته
-2.269045	و رو	0.1208023
-3.366765	و روز
-3.366765	و روضه
-2.833196	و ریش
-3.366765	و زا
-3.366765	و زخم
-3.366765	و زمین
-3.366765	و زن
-2.833196	و زود
-2.20486	و زیر
-2.269045	و سر
-3.366765	و سنگین
-3.366765	و سگ
-3.366765	و سیر
-3.366765	و شام
-3.366765	و شاگرد
-2.427862	و شاید
-2.593784	و شب
-2.593784	و شروع	-0.07644191
-2.833196	و شمرده
-2.833196	و صدا
-3.366765	و صرف
-3.366765	و صورت
-3.366765	و طرف
-2.833196	و عجیب
-3.366765	و عصر
-3.366765	و علف
-2.833196	و غصه
-3.366765	و غیر
-2.427862	و فقط
-3.366765	و قدم
-3.366765	و قرار
-3.366765	و قطار
-3.366765	و قیافه
-3.366765	و لا
-2.593784	و لحاف	0.1519679
-2.833196	و لرز
-2.20486	و ما
-3.366765	و مادر
-3.366765	و مارا
-3.366765	و مامور
-3.366765	و ماه
-3.366765	و متوجه
-1.779184	و مثل	0.1742368
-3.366765	و مجبوره
-2.427862	و مرا
-3.366765	و مردد
-2.269045	و مشغول
-2.833196	و مطلب
-3.366765	و معطل
-1.448191	و من	-0.01476552
-3.366765	و مهربان
-2.833196	و میله
-2.833196	و ناله
-3.366765	و نزدیک
-3.366765	و نفس
-3.366765	و نماز
-2.269045	و نه
-3.366765	و نو
-2.593784	و نور
-3.366765	و نگذارد
-1.883919	و هر
-2.833196	و هق
-2.022222	و هم
-2.833196	و همه
-3.366765	و همیشه
-2.593784	و همین
-2.593784	و هنوز
-2.833196	و هوا
-2.833196	و هیچ
-3.366765	و و
-2.833196	و وحشت
-2.833196	و ور
-3.366765	و وزیر
-3.366765	و وقت
-2.593784	و پا
-3.366765	و پاین
-2.210941	و پایین
-2.427862	و پدر
-2.593784	و پر
-3.366765	و پرسید
-3.366765	و پرید
-2.210941	و پس	0.06581444
-1.97107	و پشت	0.03078905
-3.366765	و پل
-3.366765	و پله
-2.593784	و پنج
-3.366765	و پهن
-2.833196	و پیاده
-3.366765	و چاره
-3.366765	و چاک
-3.366765	و چراغ
-2.427862	و چشم
-2.833196	و چشمک
-2.210941	و چند
-2.593784	و چه
-3.366765	و چهار
-2.593784	و کار
-3.366765	و کاسه
-3.366765	و کلیه
-2.427862	و کم	-0.5692214
-3.366765	و کمک
-2.593784	و کنار
-3.366765	و کند
-2.833196	و کول
-2.593784	و کیسه
-3.366765	و گاه
-3.366765	و گریه
-3.366765	و گفته
-2.593784	و گل
-3.366765	و گلدان
-3.366765	و گلوله
-2.593784	و گویا
-2.210941	و یا
-3.366765	و یار
-2.833196	و یخ
-1.603093	و یک
-0.6068538	وارد اتاق
-1.140423	وارد شدیخ
-1.140423	وارد و
-1.140423	وارد پس
-0.4414534	واشک از
-0.7424834	واقعه این
-0.7424834	واقعه را
-1.140423	وحشت </s>
-1.140423	وحشت در
-1.140423	وحشت زده
-0.6068538	وحشت کرده
-1.219605	ور دار
-1.219605	ور ما
-0.4466234	ور و	-0.3851077
-1.219605	ور پل
-0.2089138	ورداشته و
-0.9185747	وزیر حاضر
-0.385005	وزیر و
-0.4414534	وسر پا
-0.8109738	وسط </s>
-1.344543	وسط آن
-1.344543	وسط تاریک
-1.344543	وسط جاده
-0.8109738	وسط راه
-1.344543	وسط یک
-0.4414534	وشل ووا
-1.720207	وقت </s>
-1.720207	وقت اسم
-0.9472257	وقت به
-1.720207	وقت بود
-1.186637	وقت بیدار
-0.7813037	وقت دیگر
-1.720207	وقت رفیق
-1.186637	وقت شب
-1.720207	وقت من
-1.720207	وقت پیدا
-1.720207	وقت چه
-1.720207	وقت چک
-0.9185747	ول شود
-0.385005	ول کرده
-0.4414534	وهمه در
-0.4414534	ووا رفته
-0.4414534	ویز کو
-1.163156	پا ،
-1.696726	پا افتاده
-1.696726	پا ایستاد
-1.163156	پا برهنه
-1.696726	پا بند
-1.696726	پا به
-0.9237446	پا تو
-1.163156	پا در
-1.696726	پا شیر
-1.163156	پا و
-1.696726	پا پهن
-1.696726	پا کرده
-0.7424834	پارو به
-0.7424834	پارو را
-0.4414534	پاشنه آن
-0.7424834	پاشو برو
-0.7424834	پاشو سماور
-0.4414534	پاشیده بودند
-0.4414534	پاچین قرمز
-0.9185747	پاک و
-0.9185747	پاک کرد
-0.9185747	پاک کردند
-1.482846	پایین </s>
-1.482846	پایین افتاد
-1.482846	پایین بودند
-1.482846	پایین در
-1.482846	پایین رفت
-1.482846	پایین رفته
-0.5439428	پایین و
-1.482846	پایین پریده
-0.4414534	پایینحیاط دیگر
-1.671902	پدر ،
-1.671902	پدر از
-1.671902	پدر اقامه
-1.671902	پدر بالا
-1.671902	پدر تمام
-1.671902	پدر دو
-1.671902	پدر دیگر
-1.138333	پدر سوخته
-1.138333	پدر مثل
-1.671902	پدر نماز
-1.671902	پدر هر
-1.671902	پدر هنوز
-1.671902	پدر و
-1.138333	پدر یک
-0.6486782	پر از
-1.587582	پر زیاد
-0.6486782	پر سر	-0.7989975
-1.587582	پر شده
-1.587582	پر فرار
-1.587582	پر و
-1.587582	پر کرده
-1.587582	پر گل
-0.4414534	پراند ،
-0.4414534	پرتاب هم
-0.2705321	پرسید :
-1.043513	پرسید که
-1.043513	پرید بالا
-0.2705321	پرید پایین
-0.2089138	پریدند و
-1.043513	پریده باشد
-0.5099438	پریده بود
-1.043513	پریده و
-0.2218488	پس از
-1.742483	پس این
-1.742483	پس به
-1.742483	پس بچه
-1.742483	پس دست
-1.742483	پس پس
-1.742483	پس کشید
-1.208914	پس کوچه
-0.4414534	پسته علف
-0.7424834	پسره ،
-0.7424834	پسره گفته
-1.903851	پشت او
-1.903851	پشت به
-1.903851	پشت جلد
-0.559308	پشت در
-0.31627	پشت سر	-0.3635256
-1.903851	پشت من
-1.903851	پشت و
-1.903851	پشت کار
-1.903851	پشت گلدان
-1.219605	پل </s>
-1.219605	پل ،
-0.686035	پل باریک
-1.219605	پل معطل
-1.219605	پل کنار
-0.4414534	پله اول
-1.219605	پنج تن
-1.219605	پنج ساله
-1.219605	پنج سیر
-1.219605	پنج ماه
-1.219605	پنج نفر
-1.219605	پنج پنج
-0.7424834	پنجره به
-0.7424834	پنجره تو
-0.4414534	پنچر شد
-0.385005	پنیر کلا
-0.9185747	پنیر کلاه
-0.385005	پهلو افتاده
-0.9185747	پهلو یک
-1.140423	پهن شد
-1.140423	پهن هم
-1.140423	پهن کرد
-1.140423	پهن کرده
-1.140423	پهن کند
-1.395696	پول در
-0.2979752	پول را
-1.395696	پول سه
-1.395696	پول و
-1.395696	پول چشم
-1.395696	پیاده به
-0.8621263	پیاده رو
-0.6227146	پیاده شد	-0.09240973
-1.395696	پیاده شود
-1.395696	پیاده کردن
-1.395696	پیاده کردند
-1.763673	پیدا </s>
-1.230103	پیدا بود
-1.763673	پیدا شدند
-1.763673	پیدا شود
-1.230103	پیدا نبود
-1.763673	پیدا نشد
-1.763673	پیدا و
-1.230103	پیدا کرد
-0.3679768	پیدا کرده	0.004167706
-1.763673	پیدا کند
-0.9185747	پیراهن از
-0.9185747	پیراهن بچه
-0.9185747	پیراهن زیر
-0.4414534	پیچ خورد
-1.043513	پیچید قرار
-0.5099438	پیچید و
-1.043513	پیچید که
-0.9185747	پیچیده شده
-0.385005	پیچیده و
-1.219605	چادر بالا
-1.219605	چادر به
-1.219605	چادر را
-0.4466234	چادر نماز
-0.9185747	چاره را
-0.9185747	چاره رو
-0.9185747	چاره هر
-0.2089138	چاک سینه
-1.482846	چرا ،
-1.482846	چرا آن
-1.482846	چرا از
-1.482846	چرا این
-0.7098648	چرا به
-1.482846	چرا تو
-1.482846	چرا داد
-1.482846	چرا ما
-1.482846	چرا پیاده
-1.482846	چراغ آن
-0.7098648	چراغ اتاق
-1.482846	چراغ برق
-0.3851254	چراغ را
-1.482846	چراغ هم
-1.617545	چشم او
-1.083975	چشم باز
-1.617545	چشم به
-1.617545	چشم خود
-1.617545	چشم را
-0.6786414	چشم من
-0.5198239	چشم و
-0.4414534	چشمک زده
-1.043513	چقدر آب
-1.043513	چقدر خوب
-1.043513	چقدر طول
-1.043513	چقدر وزن
-2.032518	چند </s>
-1.498948	چند بار
-1.259537	چند تا
-0.8706128	چند ثانیه
-2.032518	چند دفعه
-0.6368221	چند دقیقه
-1.498948	چند روز
-2.032518	چند سال
-1.498948	چند ساله
-2.032518	چند قدم
-2.032518	چند من
-0.8706128	چند نفر
-1.259537	چند کلمه
-2.032518	چند کودک
-1.656072	چه </s>
-2.189641	چه اتفاق
-2.189641	چه از
-1.656072	چه باشد
-2.189641	چه باید
-2.189641	چه برسد
-1.656072	چه به
-1.656072	چه بود
-2.189641	چه جور
-1.656072	چه حال
-2.189641	چه خبر
-1.656072	چه خوب
-2.189641	چه زود
-2.189641	چه شده
-1.033817	چه طور
-2.189641	چه عرض
-1.656072	چه فکر
-1.027736	چه قدر
-1.41666	چه قرار
-2.189641	چه قضیه
-2.189641	چه قیافه
-2.189641	چه مأمور
-1.656072	چه ما
-2.189641	چه مادر
-2.189641	چه وحشت
-2.189641	چه چیز
-1.656072	چه کار
-1.656072	چه کم
-1.41666	چه کند
-1.656072	چه که
-1.140423	چهار سال
-1.140423	چهار سر
-1.140423	چهار طاق
-1.140423	چهار طرف
-1.140423	چهار نفر
-1.043513	چهل ساله
-1.043513	چهل قدم
-1.043513	چهل نفر
-1.043513	چهل و
-0.4414534	چید و
-1.219605	چیز </s>
-1.219605	چیز آن
-1.219605	چیز او
-1.219605	چیز دل
-0.686035	چیز دیگه
-0.4414534	چین به
-0.4414534	کا خود
-1.11563	کار از
-1.888611	کار او
-1.888611	کار این
-1.888611	کار برو
-1.888611	کار به
-1.888611	کار خانه
-1.11563	کار خود
-0.7327865	کار را
-1.888611	کار روز
-1.888611	کار هر
-0.9497082	کار و
-1.888611	کار کرده
-1.888611	کار گذاشته
-1.888611	کار گیر
-1.888611	کار یک
-0.7424834	کاسه چه
-0.7424834	کاسه یخ
-0.9185747	کاموا در
-0.9185747	کاموا وسط
-0.9185747	کاموا که
-0.7424834	کبیره کرده
-0.7424834	کبیره که
-1.043513	کجا آب
-1.043513	کجا با
-1.043513	کجا رفته
-1.043513	کجا همراه
-2.538363	کرد :
-1.59946	کرد </s>
-2.538363	کرد |
-1.376458	کرد ،
-2.538363	کرد از
-2.538363	کرد او
-2.538363	کرد این
-0.950782	کرد به
-2.538363	کرد جز
-2.538363	کرد حالا
-2.538363	کرد ما
-0.29073	کرد و	-0.08188148
-2.538363	کرد ویز
-0.649752	کرد که
-0.6068538	کردن </s>
-1.140423	کردن را
-0.6068538	کردن و
-1.555397	کردند ،
-1.555397	کردند تا
-1.555397	کردند هر
-0.1597008	کردند و
-1.555397	کردند که
-2.260997	کرده آن
-1.099092	کرده باشد
-0.4393327	کرده بود	0.06146398
-1.322094	کرده بودند
-0.3571459	کرده و
-2.260997	کرده که
-2.260997	کرده یا
-0.7424834	کردو زود
-0.7424834	کردو زیر
-1.286551	کس او
-1.286551	کس به
-1.286551	کس دسته
-1.286551	کس هیچ
-1.286551	کس و
-1.286551	کس پهن
-1.286551	کس که
-0.4414534	کسل و
-1.587582	کشید ،
-1.587582	کشید ؛
-1.587582	کشید از
-0.146128	کشید و
-1.587582	کشید پایین
-0.7424834	کشیدند و
-0.7424834	کشیدند کس
-1.555397	کشیده </s>
-1.555397	کشیده ،
-1.021827	کشیده بود
-1.555397	کشیده در
-1.021827	کشیده شده
-1.555397	کشیده شود
-0.457676	کشیده و
-0.4414534	کف کرده
-0.4414534	کلا ،
-0.9185747	کلاه ،
-0.9185747	کلاه به
-0.9185747	کلاه لبه
-1.140423	کلمه از
-1.140423	کلمه او
-0.6068538	کلمه حرف
-1.140423	کلمه هم
-1.043513	کلید داشت
-1.043513	کلید در
-0.5099438	کلید چراغ
-1.541352	کم از
-1.541352	کم باد
-2.074922	کم باز
-0.9772011	کم به
-1.541352	کم بود
-2.074922	کم حوصله
-2.074922	کم داشت
-2.074922	کم را
-2.074922	کم رنگ
-2.074922	کم سگ
-2.074922	کم هوا
-0.2532572	کم کم	-0.04347627
-2.074922	کم یک
-0.7424834	کمر و
-0.7424834	کمر پیچید
-0.4414534	کمک کردند
-1.219605	کن ،
-1.219605	کن از
-0.686035	کن خاک
-0.686035	کن و
-1.587582	کنار او
-1.587582	کنار جاده
-1.587582	کنار جمع
-1.587582	کنار حوض
-1.587582	کنار حیاط
-1.587582	کنار رختخواب
-1.587582	کنار رود
-0.4898607	کنار شط
-1.587582	کنار پیاده
-1.587582	کنار یک
-0.4414534	کناره جاده
-1.236674	کند </s>
-2.009655	کند ؛
-2.009655	کند این
-2.009655	کند باید
-2.009655	کند به
-2.009655	کند در
-2.009655	کند من
-0.2894481	کند و
-2.009655	کند کم
-0.8538303	کند که
-2.009655	کند یا
-1.219605	کنند در
-0.1218839	کنند و	-0.2211665
-1.286551	کنه ،
-1.286551	کنه ؟
-1.286551	کنه اما
-1.286551	کنه دیگه
-0.5135702	کنه و
-3.12809	که :
-1.732394	که </s>
-3.12809	که آب
-3.12809	که آسوده
-2.59452	که آفتاب
-2.355108	که آقا
-3.12809	که آمد
-2.030369	که آن
-0.9157842	که از	-0.03819032
-3.12809	که اسم
-2.59452	که امشب
-3.12809	که انگار
-1.966184	که او
-3.12809	که اول
-3.12809	که اومد
-2.355108	که اگر
-1.607455	که این
-1.431364	که با
-2.59452	که بار
-2.189186	که باز
-3.12809	که بازیچه
-3.12809	که بالا
-3.12809	که بخواهد
-2.189186	که بر
-3.12809	که بعد
-3.12809	که بلند
-1.043184	که به	-0.05669787
-3.12809	که بچه
-3.12809	که بیرون
-3.12809	که بیش
-1.966184	که تا
-3.12809	که تابستان
-3.12809	که تازه
-3.12809	که تفنگ
-2.59452	که تمام
-3.12809	که ته
-2.030369	که تو
-2.59452	که تک
-3.12809	که حاضر
-2.355108	که حالا
-3.12809	که حتما
-3.12809	که خاک
-3.12809	که خبر
-3.12809	که خجالت
-1.966184	که خدا
-2.59452	که خوب
-2.59452	که خود
-3.12809	که خورده
-3.12809	که خورشید
-2.59452	که خیال
-2.59452	که خیس
-3.12809	که دارد
-2.59452	که داشت
-2.355108	که دختر
-1.168122	که در
-3.12809	که درآمد
-3.12809	که درد
-2.030369	که دست
-3.12809	که دل
-3.12809	که دنبال
-2.355108	که دو
-3.12809	که دور
-2.355108	که دید
-3.12809	که دیوار
