
\data\
ngram 1=604
ngram 2=1372
ngram 3=63

\1-grams:
-2.617629	:	-0.4740215
-1.121392	</s>
-99	<s>	-0.2454017
-1.315515	،	-0.855966
-2.839478	؟	-0.1652025
-3.073561	آب	-0.2864447
-4.32063	آت
-2.877267	آخر	-0.272665
-4.32063	آدمیزاد
-4.32063	آر
-4.32063	آس
-4.32063	آشنا	-0.1823617
-3.307815	آغاز	-0.2921516
-4.32063	آغو
-4.32063	آقا
-2.68821	آمد	-0.5152931
-2.964417	آمده	-0.1630104
-4.32063	آموخته
-4.32063	آموخته_اس
-1.510419	آن	-0.398526
-3.015569	آنجا	-0.2521571
-2.68821	آنکه	-0.3853546
-4.32063	آهن	-0.2704081
-2.964417	آورد	-0.5704694
-4.32063	آورده‌اند
-3.307815	آیا	-0.2784463
-4.32063	ا
-4.32063	ابراز
-3.441538	اتاق	-0.2825444
-4.32063	اتفاقا
-3.219689	اثر	-0.2694135
-4.32063	اجرا
-4.32063	احر
-4.32063	اخبار	-0.2004337
-3.219689	اختیار	-0.2650213
-3.307815	ادامه	-0.2908372
-4.32063	ادویه
-4.32063	ارث	-0.2004337
-4.32063	ارکستن
-1.37833	از	-0.3589897
-4.32063	ازا
-4.32063	ازدواج
-4.32063	اس
-4.32063	استخو
-4.32063	استفاده	-0.2907319
-4.32063	اشاره
-4.32063	اشک	-0.2745824
-4.32063	اصرار
-3.307815	اظهار	-0.2833487
-4.32063	اعتراض
-4.32063	اعتنا
-2.964417	افتاد	-0.1753268
-4.32063	افسون
-4.32063	افکند
-4.32063	اقوال
-4.32063	الآن
-2.964417	البته	-0.2718385
-3.307815	التماس	-0.2910227
-4.32063	العمل
-2.255902	اما	-0.2375012
-3.307815	امروز	-0.2593971
-4.32063	املاک
-3.307815	امیر
-4.32063	انتظار
-4.32063	انتقا
-4.32063	انجا
-4.32063	انداخ
-3.316599	اندک	-0.2004337
-1.814856	او	-0.392122
-3.073561	اول	-0.2709596
-4.32063	اولا	-0.2676398
-3.441538	اولین	-0.2554164
-2.202656	اگر	-0.3015991
-4.32063	ایستاده_بود
-1.651488	این	-0.3050668
-3.441538	اینجا	-0.2889375
-2.804716	اینکه	-0.2106911
-4.32063	ب
-1.954871	با	-0.3884099
-2.877267	بار	-0.2916263
-2.147807	باز	-0.1074977
-4.32063	بازرگ
-4.32063	باطل	-0.2716206
-4.32063	باق
-3.219689	بالاخره	-0.2803384
-4.32063	بامداد
-4.32063	باور
-2.59644	باید	-0.3347263
-4.32063	ببرد
-4.32063	ببرید
-4.32063	ببین
-4.32063	بتوان
-4.32063	بد
-4.32063	بدانید	-0.2601324
-4.32063	بدقلب
-4.32063	بدن
-1.742568	بر	-0.6911356
-4.32063	برا
-3.219689	برابر	-0.2908898
-4.32063	براساس
-4.32063	برخاس
-3.441538	برد	-0.1734187
-4.32063	بردار
-4.32063	برده_اس
-4.32063	برنخاسته
-4.32063	برود	-0.2676398
-4.32063	برگ
-4.32063	برگرد
-4.32063	برگردان
-4.32063	برگردد
-4.32063	برید
-4.32063	بریدن	-0.2890432
-4.32063	بریده
-2.400145	بزرگ	-0.1227333
-4.32063	بس
-4.32063	بسته_بود
-2.68821	بسیار	-0.1482019
-2.639906	بعد	-0.8878972
-4.32063	بقیه
-4.32063	بلاتکلیف
-4.32063	بلافاصله
-3.073561	بلکه	-0.8664103
-4.32063	بنا	-0.2926762
-4.32063	بنشین	-0.2004337
-1.482497	به	-0.3730925
-2.015569	بود	-0.8123996
-4.32063	بک
-4.32063	بگذار
-4.32063	بگیرد
-4.32063	بیابد
-4.32063	بیاور
-4.32063	بیاورد
-2.877267	بیرون	-0.2922565
-3.219689	بیشتر	-0.1960021
-4.32063	بیمار
-4.32063	بیکر
-4.32063	بیگانه
-1.936388	تا	-0.2157208
-4.32063	تبدیل
-4.32063	تجار
-4.32063	تحک
-3.441538	ترس	-0.2004337
-4.32063	تسلط
-3.441538	تصور	-0.2905738
-4.32063	تعجب
-4.32063	تعجیل
-3.073561	تعریف	-0.290363
-4.32063	تغیر
-4.32063	تما
-2.877267	تن	-0.2445805
-2.08615	تو	-0.42909
-4.32063	توانا
-4.32063	توجه
-4.32063	تولد
-4.32063	ثان
-4.32063	ثرو
-4.32063	ج
-3.307815	جا	-0.1633637
-4.32063	جادو	-0.297938
-4.32063	جادوگر
-4.32063	جادو‌گر
-4.32063	جانگداز
-4.32063	جداکن
-2.964417	جز	-0.247402
-4.32063	جلو
-4.32063	جنوب
-3.307815	جواب	-0.6004333
-4.32063	جوان	-0.2676398
-4.32063	جوانبخ
-4.32063	جویانه
-4.32063	حادثه
-3.307815	حاضر	-0.2922565
-2.556931	حال	-0.304875
-4.32063	حت
-4.32063	حتما
-2.877267	حرف	-0.2590007
-4.32063	حس	-0.2912582
-4.32063	حساد
-4.32063	حسد	-0.2745824
-4.32063	حسود
-4.32063	حقیق
-4.32063	حلق
-4.32063	حمله
-4.32063	حک
-4.32063	حیاط
-4.32063	حیو
-3.441538	خارج
-2.877267	خاطر	-0.1883
-4.32063	خامو
-2.639906	خانه	-0.1425528
-3.316599	خاک	-0.2739807
-4.32063	خاکس
-2.877267	خبر	-0.2682503
-4.32063	خرج
-4.32063	خردسال
-4.32063	خرما
-3.316599	خرید	-0.5093459
-4.32063	خصوص
-4.32063	خلاف
-4.32063	خنده
-4.32063	خو
-2.772531	خواب	-0.2828663
-4.32063	خواجه	-0.2860722
-4.32063	خواس
-3.441538	خواند	-0.178413
-4.32063	خواه
-1.927433	خود	-0.389437
-4.32063	خوددار
-4.32063	خوشحال
-4.32063	خیل
-4.32063	د
-4.32063	دا
-2.427298	داد	-0.4364268
-3.219689	دار	-0.1591838
-2.918659	دارد	-0.4455307
-4.32063	داس
-2.804716	داستان	-0.262073
-4.32063	دخ
-2.772531	دختر	-0.1313786
-1.316599	در	-0.3532025
-4.32063	درآمد	-0.2004337
-4.32063	درآور
-4.32063	درآورده‌اند
-4.32063	دردناک
-4.32063	دس
-4.32063	دشت	-0.2004337
-4.32063	دقایق
-4.32063	دقیقه	-0.2676398
-2.68821	دل	-0.1845808
-4.32063	دنباله
-2.663387	دنیا	-0.2212187
-3.316599	ده	-0.2714004
-2.147807	دو	-0.4464293
-4.32063	دوا
-3.073561	دوباره	-0.8800184
-2.839478	دور	-0.1762834
-4.32063	دوید
-2.714539	دیار	-0.5253046
-2.68821	دید	-0.7062128
-4.32063	دیدن
-3.073561	دیده	-0.1982887
-4.32063	دیده_بود
-4.32063	دیرباز
-4.32063	دیروز
-4.32063	دیشب	-0.2717857
-2.456261	دیگر	-0.2276485
-4.32063	ذبح
-4.32063	ذر
-4.32063	ذره
-4.32063	ذهن
-1.318776	را	-0.531033
-3.316599	راز	-0.1674403
-2.503686	راه	-0.1313377
-4.32063	راو
-4.32063	رساند
-4.32063	رسته
-2.804716	رسید	-0.3051041
-3.441538	رسیده	-0.2686938
-4.32063	رشید
-4.32063	رف
-3.441538	رفتن	-0.2780593
-4.32063	رمز
-4.32063	رمه
-2.285191	روز	-0.2772201
-3.307815	روشن	-0.2711801
-4.32063	ریخ
-4.32063	ز
-4.32063	زال	-0.2716756
-4.32063	زبانه
-4.32063	زد	-0.2880905
-4.32063	زدن	-0.291416
-2.400145	زمان	-0.2728276
-4.32063	زمس
-2.714539	زمین	-0.1451197
-2.639906	زن	-0.153363
-4.32063	زناشو
-4.32063	زنانه
-3.307815	زنده	-0.2358437
-4.32063	زندگ
-4.32063	زود
-4.32063	زیاد
-3.219689	زیر	-0.2793123
-4.32063	س
-4.32063	ساحر
-2.663387	سال	-0.2393224
-3.441538	سحر	-0.28973
-2.427298	سر	-0.1907783
-4.32063	سرا
-3.441538	سراغ	-0.2840489
-4.32063	سرد
-3.073561	سرزمین	-0.2864447
-4.32063	سرشار
-4.32063	سرع
-3.015569	سرمایه	-0.2888317
-4.32063	سرنو
-4.32063	سریر
-4.32063	سع
-2.639906	سفر	-0.1155444
-4.32063	سلاخ
-4.32063	سلام	-0.2004337
-4.32063	سن
-4.32063	سنت
-4.32063	سنگ
-2.918659	سه	-0.2940523
-4.32063	سو
-4.32063	سود
-4.32063	سوزنده
-4.32063	سپر
-4.32063	سپرد
-3.316599	سپس	-0.27915
-2.772531	سکه	-0.2912355
-4.32063	سگ
-4.32063	سید
-4.32063	سینه
-4.32063	ش
-4.32063	شاد
-4.32063	شادمانه
-4.32063	شانزده
-3.219689	شاید	-0.2714853
-2.617629	شب	-0.1141074
-4.32063	شخصا
-2.400145	شد	-0.7658662
-2.520719	شده	-0.3007687
-4.32063	شده_اس
-4.32063	شده_بود
-4.32063	شدید	-0.2004337
-4.32063	شعله
-2.877267	شما	-0.2699521
-4.32063	شمال
-3.316599	شنیدن	-0.2820611
-2.099115	شهر	-0.8478147
-4.32063	شوق
-4.32063	شکاف
-4.32063	شکس
-4.32063	شکسته_شد
-4.32063	شکل
-3.219689	صاحب	-0.2522629
-4.32063	صاف
-2.877267	صبح	-0.3173413
-4.32063	صحب
-4.32063	صرف
-3.219689	صندوق	-0.2710057
-2.964417	صورت	-0.2919415
-4.32063	طاق	-0.291416
-4.32063	طاقت
-4.32063	طلا
-4.32063	طلس
-4.32063	طناب	-0.2786087
-3.073561	طول	-0.4814948
-4.32063	عاز
-4.32063	عاقب
-4.32063	عد
-4.32063	عرایض
-4.32063	عروس
-2.804716	عز	-0.801325
-4.32063	عفر
-2.918659	عفریت	-0.2492022
-2.877267	عقد	-0.4358346
-4.32063	عمو
-4.32063	عکس	-0.2931271
-4.32063	عید
-4.32063	غافل
-4.32063	غزال
-4.32063	غصه
-4.32063	غلتیدن
-4.32063	غیاب
-4.32063	فاصله
-4.32063	فر
-4.32063	فراموش
-4.32063	فراوان	-0.2925713
-4.32063	فربه
-2.839478	فردا	-0.16727
-4.32063	فرزانه
-4.32063	فرزند	-0.290363
-4.32063	فرستاد	-0.2716206
-4.32063	فریاد
-4.32063	فشاندند
-4.32063	فصل
-4.32063	فو
-3.219689	قبل	-0.8715841
-4.32063	قدر	-0.2817886
-4.32063	قرب
-4.32063	قربان
-4.32063	قصاب
-3.073561	قصد	-0.2779584
-2.918659	قصه	-0.2568116
-4.32063	قلاده
-4.32063	قهقهه
-4.32063	لحظه
-4.32063	لذا	-0.2860512
-4.32063	لیاق
-4.32063	م
-2.503686	ما	-0.2666584
-4.32063	ماجرا
-4.32063	مادر	-0.2922565
-2.877267	مال	-0.1689771
-4.32063	مالید
-4.32063	مانده_بود
-4.32063	ماه
-4.32063	مبادا	-0.2919415
-4.32063	متمکن
-4.32063	مثب
-4.32063	محال
-4.32063	محک
-4.32063	مد
-2.400145	مرا	-0.7285389
-4.32063	مراس
-2.877267	مرد	-0.2448339
-3.316599	مرگ	-0.2795285
-4.32063	مستأصل
-4.32063	مشت
-4.32063	مشتاق	-0.2786087
-4.32063	مصرانه
-4.32063	معروض
-4.32063	مقابل	-0.2741996
-4.32063	ملتمس
-4.32063	ملتمسانه
-2.162784	ملک	-0.1006849
-1.791554	من	-0.1479553
-4.32063	منتظر
-4.32063	مهر	-0.2864447
-3.441538	مورد	-0.2911004
-4.32063	موقع
-4.32063	میکن
-4.32063	می‌بخ
-4.32063	می‌برد
-4.32063	می‌توان
-4.32063	می‌خواس
-4.32063	می‌خواه
-4.32063	می‌خواهد
-4.32063	می‌داد
-4.32063	می‌دار
-4.32063	می‌دانس
-4.32063	می‌رف
-4.32063	می‌شناخ
-4.32063	می‌شود
-4.32063	می‌فروخ
-4.32063	می‌مان
-4.32063	می‌کرد
-4.32063	می‌کشید
-4.32063	می‌گذرد
-4.32063	می‌گوید
-4.32063	ناراح
-4.32063	ناقل
-4.32063	ناله
-4.32063	نالید
-4.32063	ناپدید
-4.32063	نبریده
-3.307815	ندارد	-0.143298
-4.32063	ندید
-4.32063	نذر
-4.32063	نسب	-0.2662068
-4.32063	نشده_بود
-4.32063	نشس
-4.32063	نظر
-3.307815	نفر	-0.2416897
-4.32063	نفهمیده_بود
-4.32063	نمانده_اس
-2.918659	نمود	-0.1696024
-4.32063	نمیشد
-4.32063	نمی‌بین
-4.32063	نمی‌خواه
-4.32063	نمی‌نمود
-3.316599	نهاد	-0.7706879
-4.32063	نوجوان
-3.316599	نکرد	-0.178413
-4.32063	نگذا
-4.32063	نگذشته_بود
-4.32063	نگر
-4.32063	نیس
-4.32063	ه	-0.291416
-4.32063	هدر
-4.32063	هدیه
-2.105746	هر	-0.6709628
-3.316599	هراس	-0.2515135
-4.32063	هسته
-3.316599	هفته
-2.918659	همراه	-0.3255132
-4.32063	همسایه
-3.441538	همسر	-0.258377
-2.639906	همه	-0.2498923
-4.32063	همچن
-2.964417	همیشه	-0.196722
-3.073561	همین	-0.2881435
-2.742568	هند	-0.8802963
-4.32063	هندوس
-2.918659	هنوز	-0.2490863
-4.32063	هنگا
-4.32063	هیز
-4.32063	هیه
-2.68821	هیچ
-0.716171	و	-0.52117
-2.877267	واجب	-0.893213
-4.32063	وار
-3.015569	وارد
-4.32063	واکن
-4.32063	ور
-4.32063	ورد
-4.32063	ورود
-4.32063	وق
-3.219689	وقت	-0.2792092
-4.32063	ول
-4.32063	پ
-4.32063	پا
-4.32063	پاره	-0.2076398
-2.918659	پارچه	-0.2786087
-3.219689	پاسخ
-4.32063	پاشید
-3.441538	پانزده	-0.2980959
-2.839478	پانصد	-0.3201864
-2.663387	پدر	-0.3994686
-4.32063	پدرانه
-2.918659	پر	-0.2787715
-3.441538	پرسید	-0.2423095
-2.639906	پس	-0.6796182
-2.639906	پسر	-0.8192485
-3.441538	پنجاه	-0.2004337
-4.32063	پوس
-4.32063	پوشاند
-2.964417	پیدا
-3.441538	پیر	-0.3003332
-4.32063	پیشین
-4.32063	پیغا
-4.32063	چ
-4.32063	چاقو
-4.32063	چرا	-0.2883024
-4.32063	چرخاند
-4.32063	چرخید
-4.32063	چندین	-0.2928859
-2.714539	چنین	-0.2745824
-2.29541	چه	-0.259114
-3.307815	چهار	-0.2908898
-4.32063	چهره
-4.32063	چهل
-2.219689	چون	-0.1953359
-4.32063	چوپ
-4.32063	چوپان
-2.327595	کار	-0.2757037
-4.32063	کارد
-4.32063	کاسه
-4.32063	کاف
-4.32063	کالا
-3.219689	کجا	-0.2676398
-4.32063	کجاس
-4.32063	کدا
-4.32063	کر
-2.362357	کرد	-1.253641
-4.32063	کردن	-0.2004337
-2.255902	کرده	-0.5503955
-4.32063	کرده_باشند
-4.32063	کرده‌اند
-4.32063	کشاند
-4.32063	کشانده_اس
-3.441538	کشید	-0.1490055
-3.316599	کم	-0.1998497
-3.316599	کن	-0.2076398
-2.772531	کنار	-0.2715656
-2.964417	کند	-0.1702309
-4.32063	کنده
-4.32063	کنون
-4.32063	کنیز
-4.32063	کنیزک
-1.243798	که	-0.4524985
-4.32063	کوبیدند
-4.32063	کوتاه
-4.32063	کودک
-4.32063	کوز
-4.32063	کوزه
-4.32063	کوساله
-4.32063	کوه
-4.32063	کوچه
-4.32063	کیفر
-4.32063	کینه
-2.918659	گاو	-0.1181176
-4.32063	گذ
-4.32063	گذا
-4.32063	گذاشته_شود
-3.219689	گذشته	-0.6649683
-4.32063	گذشته_بود
-4.32063	گر	-0.2860722
-3.316599	گرد	-0.2795285
-3.316599	گردن	-0.2442481
-4.32063	گرف
-3.307815	گرفت	-0.472771
-4.32063	گرفتند
-4.32063	گرفته_بود
-4.32063	گرگ
-4.32063	گریستن
-3.316599	گریه	-0.1736912
-4.32063	گف
-3.219689	گفتند	-0.2966755
-4.32063	گلین
-4.32063	گنج	-0.2926762
-4.32063	گو	-0.2717857
-4.32063	گوساله
-4.32063	گوسفند
-3.073561	گونه	-0.2707742
-2.576237	یا	-0.2659293
-3.316599	یاد	-0.2907319
-4.32063	یاف
-4.32063	یعن
-4.32063	یغ
-2.194383	یک	-0.2314105
-3.219689	یکدیگر

\2-grams:
-0.3679768	: </s>
-1.154156	: در
-0.8457751	: من
-1.154156	: یاد
-2.783274	<s> ،
-2.783274	<s> ؟
-2.474893	<s> آخر
-2.783274	<s> آغاز
-2.474893	<s> آن
-1.997095	<s> آیا
-2.783274	<s> اختیار
-1.571126	<s> از
-1.395035	<s> اما
-2.474893	<s> امیر
-2.474893	<s> او
-2.783274	<s> اول
-2.474893	<s> اگر
-1.844244	<s> این
-2.11624	<s> با
-2.783274	<s> بار
-2.474893	<s> باز
-2.11624	<s> بالاخره
-2.783274	<s> باید
-2.783274	<s> بسیار
-2.783274	<s> بعد
-1.775246	<s> به
-2.783274	<s> بود
-1.775246	<s> تا
-2.783274	<s> ترس
-2.783274	<s> تصور
-2.783274	<s> تو
-2.783274	<s> جواب
-1.997095	<s> حال
-2.783274	<s> خانه
-1.395035	<s> در
-2.11624	<s> دو
-2.783274	<s> دیگر
-1.775246	<s> را
-2.783274	<s> رسید
-2.783274	<s> روز
-2.783274	<s> زمان
-2.11624	<s> زن
-2.783274	<s> سه
-2.783274	<s> شاید
-2.783274	<s> شب
-2.783274	<s> شد
-1.243767	<s> شهر	-0.5576409
-2.474893	<s> صبح
-2.783274	<s> قصاب
-2.783274	<s> لذا
-2.474893	<s> ما
-2.783274	<s> مرد
-1.997095	<s> ملک
-1.474216	<s> من
-2.474893	<s> هر
-2.783274	<s> همه
-2.783274	<s> همیشه
-0.4060304	<s> و	-0.1002971
-2.783274	<s> پانزده
-2.474893	<s> پس
-2.783274	<s> پسر
-2.474893	<s> چه
-2.783274	<s> چهار
-1.823166	<s> چون
-2.783274	<s> کار
-2.474893	<s> کرده
-1.823166	<s> که
-2.783274	<s> گذشته
-2.783274	<s> گفتند
-2.474893	<s> یا
-2.474893	<s> یک
-1.852902	، </s>
-2.791931	، آخر
-2.791931	، اثر
-2.791931	، از
-2.124897	، البته
-1.783904	، اما
-2.005752	، اگر
-2.791931	، این
-2.005752	، با
-2.791931	، باز
-2.791931	، باید
-2.483551	، بر
-1.852902	، تا
-2.791931	، تو
-1.852902	، در
-2.791931	، دو
-2.791931	، دیگر
-2.791931	، عز
-2.791931	، ملک
-2.791931	، من
-0.1365206	، و	-0.2264441
-2.791931	، پس
-1.852902	، چه
-1.783904	، چون
-1.20412	، که	-0.1734133
-2.483551	، یا
-2.483551	، یک
-0.8457751	؟ </s>
-0.4871213	؟ و
-1.154156	؟ که
-0.3090579	آب او
-0.7861791	آخر به
-0.7861791	آخر تا
-0.7861791	آخر داستان
-0.6100879	آشنا به
-0.6100879	آشنا و
-0.3090579	آغاز سفر
-0.8181146	آمد ،
-1.485149	آمد آن
-1.485149	آمد تا
-1.485149	آمد هر
-0.2730013	آمد و
-0.7861791	آمده بود
-0.7861791	آمده و
-0.7861791	آمده که
-1.413407	آن </s>
-2.373516	آن ،
-2.373516	آن اثر
-2.373516	آن اختیار
-2.373516	آن از
-2.373516	آن افکند
-2.373516	آن او
-2.373516	آن این
-1.434486	آن بر
-2.065135	آن به
-1.587337	آن بود
-2.373516	آن بیرون
-2.373516	آن حادثه
-2.373516	آن حال
-2.373516	آن خاک
-2.373516	آن داستان
-1.587337	آن دختر
-1.587337	آن در
-2.373516	آن دل
-0.91833	آن دو
-2.373516	آن دیار
-0.52039	آن را	-0.184893
-2.373516	آن راه
-2.065135	آن روز
-1.413407	آن زن
-2.373516	آن سر
-2.373516	آن شده
-2.065135	آن شهر
-2.373516	آن صورت
-2.373516	آن مادر
-2.065135	آن همه
-2.373516	آن وقت
-2.373516	آن پدر
-2.373516	آن پسر
-2.373516	آن چه
-2.373516	آن چون
-2.065135	آن کرده
-2.373516	آن گنج
-2.373516	آن گونه
-2.065135	آن یک
-0.6027371	آنجا را
-0.6027371	آنجا که
-1.000677	آنکه از
-1.309058	آنکه با
-1.309058	آنکه به
-0.5228788	آنکه در
-1.309058	آنکه مبادا
-1.309058	آنکه همه
-1.309058	آنکه هیچ
-0.6100879	آهن بر
-0.6100879	آهن به
-0.903767	آورد ،
-0.20412	آورد و
-1.212148	آورد که
-0.6100879	آیا به
-0.6100879	آیا تصور
-0.6100879	اتاق شهر
-0.6100879	اتاق من
-0.6100879	اثر آن
-0.6100879	اثر این
-0.3090579	اخبار و
-0.7861791	اختیار از
-0.7861791	اختیار او
-0.7861791	اختیار کرده
-0.6100879	ادامه داد
-0.6100879	ادامه داستان
-0.3090579	ارث و
-2.377244	از آب
-1.417135	از آن
-1.591065	از آنجا
-1.591065	از آنکه
-2.377244	از اظهار
-1.710209	از او
-2.377244	از اول
-1.068186	از این
-2.068863	از اینکه
-2.377244	از بار
-1.591065	از تن
-1.438214	از تو
-2.377244	از جا
-2.377244	از حال
-2.377244	از حرف
-2.377244	از خانه
-1.369216	از خواب
-2.068863	از خود
-2.377244	از داستان
-2.377244	از در
-2.068863	از دنیا
-2.377244	از دو
-2.377244	از دور
-2.068863	از دیار
-2.377244	از دیده
-1.438214	از راه
-1.591065	از روز
-2.377244	از زمین
-2.377244	از زن
-2.068863	از سر
-2.377244	از سرمایه
-2.377244	از سه
-2.377244	از شما
-2.068863	از شنیدن
-2.377244	از صاحب
-2.068863	از صبح
-2.377244	از صورت
-2.377244	از عز
-2.377244	از عکس
-2.377244	از فردا
-2.377244	از قبل
-2.068863	از مال
-2.068863	از مرگ
-2.377244	از ملک
-1.710209	از من
-1.591065	از هر
-2.068863	از همه
-2.377244	از هیچ
-2.377244	از پارچه
-2.377244	از پدر
-2.377244	از پیدا
-1.591065	از کار
-2.377244	از کجا
-2.377244	از کنار
-2.377244	از کوه
-2.377244	از یاد
-2.068863	از یک
-2.068863	از یکدیگر
-0.3090579	استفاده کرده
-0.3090579	اشک از
-0.3090579	اظهار این
-1.212148	افتاد :
-0.5451133	افتاد ،
-0.903767	افتاد و
-1.212148	افتاد که
-0.6027371	البته آن
-0.9111179	البته این
-0.9111179	البته باید
-0.4777983	التماس او
-0.7861791	التماس هراس
-1.706998	اما از
-1.706998	اما او
-1.706998	اما اگر
-1.706998	اما این
-1.706998	اما بدانید
-1.706998	اما بزرگ
-1.706998	اما به
-1.706998	اما تو
-1.398617	اما در
-1.706998	اما روز
-1.706998	اما شهر
-1.706998	اما شوق
-1.706998	اما صبح
-1.706998	اما عفریت
-1.706998	اما قصه
-1.706998	اما مرد
-1.398617	اما من
-1.706998	اما هنوز
-1.706998	اما پس
-1.706998	اما چه
-0.9208187	اما چون
-0.6100879	امروز از
-0.6100879	امروز به
-0.3090579	اندک و
-1.839526	او </s>
-1.839526	او آمد
-1.361728	او از
-2.147907	او او
-1.839526	او این
-1.839526	او با
-1.139879	او بر
-1.839526	او به
-1.839526	او بود
-2.147907	او جا
-2.147907	او خود
-1.139879	او در
-0.3474874	او را	-0.02750817
-2.147907	او طاقت
-2.147907	او قصد
-2.147907	او مرا
-2.147907	او همه
-2.147907	او هیچ
-2.147907	او و
-2.147907	او پنجاه
-2.147907	او پیدا
-2.147907	او کرده
-2.147907	او یا
-0.6100879	اول اینکه
-0.6100879	اول در
-0.3090579	اولا که
-0.7861791	اولین </s>
-0.7861791	اولین روز
-0.7861791	اولین شب
-1.301707	اگر </s>
-1.610088	اگر از
-1.301707	اگر این
-1.610088	اگر باز
-1.610088	اگر بر
-1.610088	اگر تو
-0.6499793	اگر در
-1.301707	اگر من
-0.8239087	اگر چه
-1.623926	این </s>
-1.932307	این التماس
-1.623926	این بود
-1.932307	این ترس
-1.932307	این جادوگر
-1.623926	این حال
-1.623926	این حرف
-1.932307	این خبر
-1.146128	این دو
-1.623926	این دیار
-1.932307	این راز
-1.932307	این راه
-1.146128	این سر
-1.932307	این سه
-1.623926	این شهر
-1.623926	این عفریت
-1.623926	این قدر
-1.932307	این قصه
-1.932307	این مرد
-1.932307	این ملک
-1.932307	این وقت
-1.623926	این چنین
-1.623926	این کار
-1.265273	این گونه
-1.932307	این یک
-0.3090579	اینجا بود
-1.2633	اینکه از
-1.2633	اینکه این
-1.2633	اینکه به
-1.2633	اینکه در
-1.2633	اینکه دو
-1.2633	اینکه سرمایه
-1.2633	اینکه من
-0.9549196	اینکه یک
-1.827572	با </s>
-0.615424	با آن
-1.827572	با اصرار
-1.827572	با او
-1.827572	با این
-1.827572	با اینکه
-1.827572	با تعجب
-1.519191	با خبر
-1.160537	با خود
-1.827572	با دو
-1.827572	با سرمایه
-1.827572	با شنیدن
-1.827572	با مرگ
-1.041393	با من
-1.827572	با هراس
-1.827572	با همین
-1.827572	با پانصد
-1.827572	با چهره
-1.827572	با گاو
-1.827572	با یک
-0.3090579	بار دیگر
-1.670786	باز آنکه
-0.8846066	باز از
-1.670786	باز با
-1.670786	باز باید
-1.670786	باز بعد
-1.003751	باز به
-1.670786	باز حس
-1.670786	باز در
-1.670786	باز را
-1.670786	باز ندارد
-1.670786	باز و
-1.670786	باز پاسخ
-1.670786	باز چون
-1.362405	باز کرد
-1.362405	باز که
-1.670786	باز یا
-0.3090579	باطل ،
-0.7861791	بالاخره با
-0.7861791	بالاخره تا
-0.7861791	بالاخره یک
-1.423001	باید از
-1.423001	باید اشاره
-1.423001	باید با
-1.423001	باید بدانید
-1.423001	باید به
-1.11462	باید داد
-1.423001	باید شد
-1.423001	باید نمود
-1.423001	باید کرد
-0.6368221	باید که
-0.6100879	بدانید من
-0.6100879	بدانید که
-1.221849	بر </s>
-2.008028	بر آمد
-0.79588	بر آن
-0.5850267	بر این
-1.699647	بر تن
-1.340993	بر تو
-1.699647	بر خاطر
-2.008028	بر خود
-1.221849	بر دیگر
-1.221849	بر زمین
-1.699647	بر سر
-2.008028	بر سرزمین
-2.008028	بر ما
-1.221849	بر من
-2.008028	بر همه
-2.008028	بر کشید
-2.008028	بر گردن
-0.6100879	برابر دارد
-0.6100879	برابر شد
-0.4777983	برد و
-0.7861791	برد که
-0.3090579	برود که
-0.6100879	بریدن دو
-0.6100879	بریدن همه
-1.309058	بزرگ اختیار
-1.000677	بزرگ به
-1.000677	بزرگ را
-1.000677	بزرگ و
-1.000677	بزرگ که
-1.309058	بزرگ یا
-0.9111179	بسیار از
-0.9111179	بسیار در
-0.9111179	بسیار دور
-0.9111179	بسیار و
-0.1091445	بعد از
-1.56433	بعد به
-1.56433	بعد مرد
-1.25595	بعد که
-0.1249387	بلکه از
-0.9111179	بلکه این
-0.3090579	بنا افتاد
-0.3090579	بنشین و
-1.50515	به </s>
-2.291329	به آن
-2.291329	به آنجا
-2.291329	به آنکه
-2.291329	به اتاق
-2.291329	به امیر
-1.624295	به او
-2.291329	به اولین
-1.982948	به این
-2.291329	به اینجا
-2.291329	به تصور
-1.982948	به تعریف
-1.624295	به تو
-1.982948	به جا
-2.291329	به حیاط
-1.352299	به خاطر
-2.291329	به خانه
-1.982948	به خرج
-1.50515	به خواب
-2.291329	به داستان
-2.291329	به دیار
-1.982948	به راه
-2.291329	به زیر
-1.50515	به سراغ
-1.982948	به سرزمین
-1.982948	به سفر
-2.291329	به شما
-2.291329	به شنیدن
-1.352299	به شهر	-0.1976511
-1.028029	به عقد	0.03943451
-1.982948	به قصد
-1.624295	به من
-2.291329	به مهر
-2.291329	به هر
-1.50515	به همراه
-2.291329	به همسر
-2.291329	به همه
-1.50515	به چنین
-1.352299	به کار
-1.982948	به کجا
-1.982948	به گریه
-2.291329	به گونه
-1.982948	به یکدیگر
-1.133456	بود ،	-0.2760383
-2.072486	بود باید
-1.764105	بود بر
-1.405451	بود تا
-0.5873367	بود و
-1.764105	بود پس
-0.31627	بود که	-0.04119771
-0.3090579	بیرون آمد
-0.6100879	بیشتر تو
-0.6100879	بیشتر و
-1.358027	تا </s>
-1.358027	تا آخر
-1.064953	تا آن	-0.3967273
-1.71668	تا از
-1.358027	تا این
-2.025061	تا اینجا
-1.358027	تا اینکه
-1.358027	تا به
-1.086031	تا در
-2.025061	تا دیگر
-2.025061	تا سحر
-1.358027	تا شب
-2.025061	تا شهر
-2.025061	تا صبح
-1.71668	تا فردا
-2.025061	تا ما
-2.025061	تا مرا
-2.025061	تا هر
-2.025061	تا وقت
-2.025061	تا چه
-2.025061	تا یک
-0.3090579	ترس و
-0.6100879	تصور اینکه
-0.6100879	تصور کرد
-0.7861791	تعریف داستان
-0.7861791	تعریف کرد
-0.7861791	تعریف کن
-0.7788283	تن از
-1.087209	تن او
-1.087209	تن را
-1.087209	تن همراه
-1.087209	تن کرد
-1.505827	تو </s>
-1.814208	تو آمده
-1.814208	تو از
-1.814208	تو اگر
-1.505827	تو این
-1.028029	تو با
-1.814208	تو باز
-1.814208	تو بر
-1.147173	تو در
-0.50515	تو را
-1.814208	تو شده
-1.028029	تو همین
-1.814208	تو چه
-1.814208	تو که
-0.7861791	جا بر
-0.7861791	جا را
-0.7861791	جا و
-0.3017071	جادو کرده
-0.7861791	جز </s>
-0.7861791	جز آنکه
-0.7861791	جز این
-0.1249387	جواب داد	-0.4706165
-0.3090579	جوان که
-0.3090579	حاضر آمد
-0.9549196	حال از
-1.2633	حال او
-0.4771213	حال من
-1.2633	حال و
-0.9549196	حال که
-0.3090579	حرف </s>
-0.3090579	حس کرد
-0.3090579	حسد از
-0.7861791	خاطر آن
-0.4777983	خاطر و
-1.350451	خانه </s>
-1.350451	خانه آمد
-1.350451	خانه بیرون
-1.350451	خانه خواجه
-1.350451	خانه خود
-1.350451	خانه دختر
-1.350451	خانه در
-0.6834159	خانه و
-0.6100879	خاک از
-0.6100879	خاک بار
-0.9111179	خبر از
-0.9111179	خبر شد
-0.9111179	خبر کرد
-0.9111179	خبر کرده
-0.1249387	خرید و
-0.9111179	خواب بر
-0.9111179	خواب بسیار
-0.9111179	خواب دید
-0.9111179	خواب عفریت
-0.3090579	خواجه من
-0.7861791	خواند ،
-0.4777983	خواند و
-1.778828	خود ادامه
-2.087209	خود از
-2.087209	خود اصرار
-2.087209	خود این
-2.087209	خود با
-2.087209	خود بر
-1.079181	خود به
-2.087209	خود حرف
-2.087209	خود خارج
-1.420175	خود در
-2.087209	خود دل
-2.087209	خود دید
-0.30103	خود را	-0.05932269
-2.087209	خود مرا
-1.778828	خود و
-2.087209	خود وارد
-2.087209	خود چنین
-1.778828	خود چه
-1.778828	خود کرده
-2.087209	خود که
-1.41565	داد ،
-1.724031	داد بسیار
-0.4607309	داد تا
-0.7639226	داد و
-0.7639226	داد که
-1.008028	دار ،
-1.008028	دار بر
-1.008028	دار تا
-0.6996471	دار و
-0.30103	دارد ،
-1.087209	دارد و
-0.7788283	دارد که
-1.008028	داستان او
-1.008028	داستان خود
-1.008028	داستان دیشب
-0.6996471	داستان را
-1.087209	دختر این
-1.087209	دختر بزرگ
-1.087209	دختر در
-0.7788283	دختر را
-1.087209	دختر و
-1.738933	در </s>
-2.405968	در آخر
-2.405968	در آمد
-0.9208187	در آن
-2.097587	در آنجا
-2.097587	در آورد
-2.405968	در اتاق
-2.405968	در اثر
-2.405968	در ادامه
-0.7746907	در این
-2.405968	در اینجا
-2.405968	در بار
-2.405968	در برابر
-2.405968	در بزرگ
-2.405968	در بیرون
-2.405968	در تو
-1.738933	در حال
-2.405968	در حیاط
-1.738933	در خانه
-2.405968	در خاک
-2.097587	در خواب
-2.405968	در دشت
-2.097587	در دل
-2.097587	در دنیا
-2.097587	در دیار
-2.097587	در راه
-1.738933	در روز
-2.405968	در زمان
-2.405968	در سال
-2.097587	در سر
-2.405968	در سرزمین
-2.405968	در سینه
-1.738933	در شب
-2.097587	در شهر
-2.405968	در صورت
-1.39794	در طول	0.05542022
-2.405968	در غیاب
-2.405968	در فصل
-2.097587	در مقابل
-1.619789	در ملک
-1.619789	در مورد
-2.405968	در هر
-2.405968	در همه
-2.405968	در همین
-2.405968	در و
-2.405968	در پاسخ
-1.19382	در کنار
-2.405968	در گردن
-1.619789	در یک
-0.3090579	درآمد و
-0.3090579	دشت و
-0.3090579	دقیقه که
-1.212148	دل به
-1.212148	دل خود
-0.903767	دل را
-0.5451133	دل و
-1.087209	دنیا برود
-1.087209	دنیا در
-0.4201745	دنیا و
-0.6100879	ده برابر
-0.6100879	ده در
-1.670786	دو </s>
-1.670786	دو با
-1.670786	دو برابر
-1.670786	دو به
-0.8846066	دو تن
-1.362405	دو دختر
-1.670786	دو دیده
-0.8846066	دو روز
-1.670786	دو مرد
-0.8846066	دو نفر
-1.362405	دو هفته
-1.362405	دو همراه
-1.670786	دو پسر
-1.670786	دو کار
-0.1249387	دوباره به
-0.9111179	دوباره دور
-0.6996471	دور از
-1.008028	دور مرد
-1.008028	دور و
-1.008028	دور کرده
-1.2633	دیار از
-0.2552725	دیار خود
-1.2633	دیار هند
-0.9549196	دیار و
-1.350451	دید به
-1.350451	دید خود
-1.350451	دید و
-0.1383027	دید که	-0.5449122
-0.6100879	دیده شد
-0.6100879	دیده و
-0.3090579	دیشب را
-1.2633	دیگر آنکه
-1.2633	دیگر با
-1.2633	دیگر به
-0.9549196	دیگر در
-0.9549196	دیگر را
-1.2633	دیگر راه
-1.2633	دیگر قصد
-1.579398	را </s>
-1.531479	را ،
-2.539507	را آن
-0.7990851	را از	-0.08036691
-1.872472	را این
-1.579398	را با
-2.231126	را باز
-1.026329	را بر	-0.02945982
-0.7832909	را به	-0.1174761
-2.539507	را بیرون
-2.539507	را جز
-1.753328	را حاضر
-1.872472	را خبر
-2.539507	را خود
-0.711935	را در
-2.539507	را دوباره
-1.531479	را دید	0.2642154
-2.231126	را روشن
-2.539507	را سرمایه
-2.539507	را عز
-2.539507	را مهر
-2.539507	را ه
-2.231126	را و
-2.539507	را پر
-2.539507	را پرسید
-2.539507	را پس
-2.539507	را چندین
-2.539507	را کرده
-1.230449	را که	-0.1288686
-2.539507	را گفتند
-0.7861791	راز دل
-0.7861791	راز و
-0.7861791	راز که
-1.309058	راه تو
-1.309058	راه خانه
-1.309058	راه خود
-1.309058	راه در
-1.309058	راه را
-1.309058	راه رسید
-1.309058	راه رسیده
-1.309058	راه صندوق
-1.000677	راه و
-1.309058	رسید </s>
-1.309058	رسید ؟
-1.309058	رسید بر
-0.6420233	رسید و
-0.5228788	رسید که
-0.7861791	رسیده آمده
-0.7861791	رسیده از
-0.7861791	رسیده خود
-0.4777983	رفتن به
-0.7861791	رفتن خود
-1.610088	روز </s>
-1.610088	روز اول
-1.301707	روز بار
-0.8239087	روز بعد
-1.610088	روز به
-1.610088	روز بود
-1.610088	روز جز
-1.301707	روز دیگر
-1.610088	روز روشن
-1.301707	روز سفر
-1.610088	روز شما
-0.8239087	روز و
-1.610088	روز یک
-0.6100879	روشن در
-0.6100879	روشن کند
-0.3090579	زال در
-0.3090579	زد تا
-0.3090579	زدن مرا
-1.56433	زمان </s>
-0.7781513	زمان با
-0.8972958	زمان در
-1.25595	زمان را
-1.56433	زمان هنوز
-0.6253005	زمان و
-1.56433	زمان پاسخ
-0.9111179	زمین برد
-0.9111179	زمین در
-0.9111179	زمین را
-0.9111179	زمین و
-0.9111179	زن بسیار
-0.9111179	زن به
-0.9111179	زن را
-0.9111179	زن و
-0.6100879	زنده </s>
-0.6100879	زنده را
-0.6100879	زیر آن
-0.6100879	زیر خاک
-0.8457751	سال از
-1.154156	سال بر
-1.154156	سال بعد
-1.154156	سال بیشتر
-1.154156	سال طول
-1.154156	سال که
-0.3090579	سحر هر
-1.146805	سر از
-1.455186	سر او
-1.455186	سر بر
-1.455186	سر بریدن
-1.455186	سر خود
-1.455186	سر دارد
-1.455186	سر در
-1.455186	سر را
-1.455186	سر راه
-0.6690068	سر و
-1.455186	سر پر
-0.4777983	سراغ او
-0.7861791	سراغ من
-0.3090579	سرزمین او
-0.6100879	سرمایه بسیار
-0.6100879	سرمایه هر
-1.388239	سفر آن
-1.388239	سفر از
-1.388239	سفر با
-1.079858	سفر به
-1.388239	سفر خود
-1.388239	سفر را
-1.388239	سفر ما
-0.7212045	سفر و
-0.3090579	سلام و
-0.9111179	سه دیگر
-0.6027371	سه سال
-0.9111179	سه چهار
-0.7861791	سپس ادامه
-0.4777983	سپس از
-0.4777983	سکه خود
-0.7861791	سکه دیگر
-0.4777983	شاید هیچ
-0.7861791	شاید که
-0.903767	شب از
-1.212148	شب به
-1.212148	شب دو
-1.212148	شب را
-1.212148	شب سفر
-1.212148	شب من
-1.212148	شب و
-1.80042	شد </s>
-0.7923917	شد ،	0.2690037
-1.80042	شد اما
-1.80042	شد به
-1.492039	شد تا
-0.2609128	شد و
-1.80042	شد چه
-1.01424	شد که
-0.4771213	شده ،
-1.2633	شده او
-1.2633	شده بود
-0.9549196	شده و
-1.2633	شده که
-1.2633	شده یا
-0.3090579	شدید و
-1.008028	شما آمده
-1.008028	شما بسیار
-1.008028	شما دو
-0.6996471	شما را
-0.7861791	شنیدن این
-0.7861791	شنیدن حرف
-0.7861791	شنیدن داستان
-2.041452	شهر ،
-0.1196099	شهر باز	-0.01665556
-2.041452	شهر بسیار
-2.041452	شهر خارج
-2.041452	شهر خود
-1.733071	شهر را
-1.102422	شهر و	-0.422239
-2.041452	شهر پیدا
-0.6100879	صاحب از
-0.6100879	صاحب را
-1.212148	صبح با
-0.903767	صبح تا
-0.5451133	صبح روز	-0.4821192
-1.212148	صبح فردا
-0.9111179	صندوق بیرون
-0.9111179	صندوق تو
-0.6027371	صندوق را
-0.3090579	صورت حال
-0.3090579	طاق شد
-0.3090579	طناب به
-1.087209	طول آن
-0.30103	طول راه
-1.087209	طول سفر
-1.087209	طول و
-0.1249387	عز دنیا
-0.9111179	عز و
-0.6100879	عفریت در
-0.6100879	عفریت را
-1.2633	عقد او
-1.2633	عقد این
-0.4771213	عقد خود	-0.5358737
-0.9549196	عقد شهر
-1.2633	عقد من
-1.2633	عقد کرده
-0.3090579	عکس ماه
-0.3090579	فراوان واجب
-1.350451	فردا از
-1.350451	فردا شب
-1.350451	فردا شما
-1.350451	فردا صبح
-1.04207	فردا مرا
-1.350451	فردا همین
-1.350451	فردا و
-1.350451	فردا چون
-1.350451	فردا گاو
-1.350451	فردا یا
-0.3090579	فرزند یک
-0.3090579	فرستاد ،
-0.1249387	قبل از
-0.9111179	قبل با
-0.3017071	قدر از
-0.7861791	قصد آن
-0.7861791	قصد دارد
-0.7861791	قصد سفر
-1.154156	قصه آن
-1.154156	قصه را
-0.8457751	قصه شما
-1.154156	قصه عفریت
-1.154156	قصه ما
-1.154156	قصه گو
-0.6100879	لذا بلافاصله
-0.6100879	لذا من
-1.008028	ما با
-1.008028	ما را
-0.6996471	ما سه
-1.008028	ما چه
-0.3090579	مادر دل
-1.008028	مال با
-1.008028	مال بسیار
-0.6996471	مال در
-1.008028	مال و
-0.3090579	مبادا حال
-0.5797836	مرا از
-1.587811	مرا این
-0.3756636	مرا به	-0.3815946
-1.279431	مرا جادو
-1.279431	مرا در
-1.587811	مرا دیگر
-0.6100879	مرد در
-0.6100879	مرد که
-0.3090579	مرگ آن
-0.3090579	مشتاق به
-0.6100879	مقابل آن
-0.6100879	مقابل خود
-1.41565	ملک </s>
-1.724031	ملک از
-1.41565	ملک او
-1.724031	ملک این
-1.41565	ملک بر
-1.724031	ملک دنیا
-0.7639226	ملک را
-1.724031	ملک عفر
-1.41565	ملک ما
-0.7850013	ملک و
-1.724031	ملک که
-1.999254	من </s>
-1.690873	من از
-1.999254	من این
-1.999254	من باز
-1.999254	من بر
-1.332219	من به
-1.999254	من تا
-1.999254	من تعریف
-1.999254	من دختر
-0.6110148	من در
-1.999254	من دور
-1.999254	من دیگر
-1.999254	من راه
-1.999254	من ز
-1.999254	من شهر
-1.999254	من صبح
-1.999254	من قصد
-1.690873	من ملک
-1.690873	من هر
-1.999254	من همه
-1.999254	من هنوز
-0.9912261	من و
-1.999254	من پانصد
-1.999254	من کار
-1.332219	من که
-0.3090579	مهر او
-0.3090579	مورد کار
-0.6027371	ندارد ،
-0.9111179	ندارد و
-0.9111179	ندارد که
-0.3017071	نسب </s>
-0.6996471	نفر با
-1.008028	نفر را
-1.008028	نفر پانصد
-1.008028	نفر که
-0.5451133	نمود ،
-1.212148	نمود تا
-0.903767	نمود و
-1.212148	نمود که
-0.1249387	نهاد و
-0.9111179	نهاد که
-0.7861791	نکرد ،
-0.4777983	نکرد و
-0.3090579	ه مرا
-0.9263304	هر دو
-1.86536	هر راز
-1.86536	هر روز
-1.86536	هر سه
-1.86536	هر نفر
-0.5149098	هر چه
-1.86536	هر کار
-1.55698	هر کجا
-0.6532125	هر که
-1.198326	هر یک
-0.9111179	هراس </s>
-0.9111179	هراس بر
-0.6027371	هراس روز
-0.4201745	همراه خود
-1.087209	همراه من
-1.087209	همراه یک
-0.6100879	همسر </s>
-0.6100879	همسر عقد
-1.008028	همه با
-1.008028	همه به
-1.008028	همه جا
-1.008028	همه خانه
-1.008028	همه را
-0.6100879	همیشه ملک
-0.6100879	همیشه و
-0.7861791	همین بود
-0.7861791	همین عفریت
-0.7861791	همین وقت
-1.350451	هند را
-0.08715018	هند و
-1.350451	هند که
-0.7861791	هنوز از
-0.7861791	هنوز در
-0.7861791	هنوز یک
-1.181659	و </s>
-2.1959	و ،
-2.982079	و آب
-1.225863	و آن	-0.2963247
-2.982079	و آنکه
-2.982079	و آهن
-2.982079	و اخبار
-1.258048	و از
-2.673698	و اظهار
-2.982079	و اعتراض
-2.1959	و التماس
-2.1959	و اما
-2.982079	و امیر
-2.982079	و انتظار
-2.673698	و اندک
-1.59384	و او	-0.2180558
-2.982079	و اول
-1.631628	و اگر
-1.718778	و این
-1.718778	و با
-2.982079	و بار
-2.673698	و باز
-2.982079	و بالاخره
-1.468901	و بر
-2.982079	و برگ
-2.982079	و بسیار
-2.1959	و بعد
-2.982079	و بقیه
-1.258048	و به
-2.982079	و بیگانه
-2.043049	و تا
-2.982079	و تن
-2.315044	و تو
-2.982079	و جواب
-2.1959	و حال
-2.673698	و حرف
-2.982079	و خانه
-2.982079	و خاک
-1.974051	و خود
-2.982079	و داد
-2.982079	و داستان
-2.982079	و دختر
-0.9326582	و در	-0.09561352
-2.982079	و دل
-2.315044	و دنیا
-2.673698	و دو
-2.1959	و دور
-2.315044	و دیار	-0.2005178
-2.043049	و دیگر
-2.982079	و راه
-2.673698	و رفتن
-2.982079	و رمز
-2.982079	و روز
-2.982079	و روشن
-2.982079	و زمان
-2.982079	و زمین
-2.982079	و زن
-2.1959	و زنده
-2.982079	و زیر
-2.982079	و سحر
-1.769931	و سر
-2.982079	و سرمایه
-2.982079	و سلام
-2.673698	و سه
-2.1959	و سپس
-2.982079	و شب
-2.982079	و شما
-1.974051	و شهر	-0.08199692
-2.673698	و صبح
-2.982079	و طول
-2.982079	و عز
-2.982079	و عفریت
-2.982079	و عقد
-2.982079	و غصه
-2.982079	و فر
-2.673698	و قصه
-2.673698	و ما
-1.974051	و مال
-2.043049	و مرا
-2.982079	و مرد
-2.982079	و مرگ
-1.974051	و ملک
-1.718778	و من
-2.673698	و نسب
-2.982079	و نظر
-1.417748	و هر	0.04190782
-2.673698	و هراس
-2.673698	و همراه
-2.982079	و همه
-2.673698	و همیشه
-2.982079	و هنوز
-2.673698	و هیچ
-2.982079	و وارد
-2.982079	و پارچه
-2.982079	و پانزده
-2.1959	و پانصد
-2.982079	و پر
-2.982079	و پرسید
-2.673698	و پس
-2.673698	و پسر
-2.982079	و پنجاه
-2.982079	و چرا
-2.982079	و چندین
-2.982079	و چنین
-2.982079	و چه
-1.371991	و چون
-2.982079	و کار
-2.982079	و کم
-2.982079	و کنار
-2.1959	و گاو
-2.673698	و گرد
-2.982079	و گریه
-2.982079	و گنج
-2.982079	و گو
-2.1959	و یا
-1.59384	و یک
-0.9111179	واجب باید
-0.1249387	واجب دید
-0.4777983	وقت از
-0.7861791	وقت سحر
-0.3017071	پاره و
-0.3090579	پارچه به
-0.3017071	پانزده روز
-0.6834159	پانصد سکه
-0.390342	پانصد و
-0.3679768	پدر از
-0.8457751	پدر را
-0.8457751	پدر و
-0.4777983	پر از
-0.7861791	پر بار
-0.7861791	پرسید ،
-0.7861791	پرسید چه
-0.7861791	پرسید که
-1.455186	پس </s>
-0.1918855	پس از
-1.455186	پس فردا
-1.455186	پس چرا
-1.455186	پس چه
-1.455186	پس یک
-1.350451	پسر ،
-1.04207	پسر از
-0.1383027	پسر بزرگ
-0.3090579	پنجاه و
-0.3017071	پیر زال
-0.3090579	چرا با
-0.3090579	چندین برابر
-0.3090579	چنین از
-1.212148	چه از
-1.212148	چه اگر
-1.212148	چه تو
-1.212148	چه حال
-1.212148	چه شب
-1.212148	چه شد
-1.212148	چه هر
-1.212148	چه هیچ
-0.3090579	چهار روز
-1.204797	چون آن
-1.513178	چون از
-1.513178	چون بر
-1.513178	چون به
-1.513178	چون دختر
-1.204797	چون در
-1.513178	چون دیگر
-1.513178	چون روز
-1.513178	چون شب
-1.513178	چون شهر
-1.513178	چون صبح
-1.513178	چون مرا
-1.513178	چون ملک
-1.513178	چون چهره
-1.631277	کار بر
-1.631277	کار خود
-1.322896	کار داد
-0.6232493	کار را
-1.631277	کار ملک
-1.631277	کار من
-0.9642426	کار و
-1.322896	کار پارچه
-1.322896	کار پدر
-1.322896	کار پسر
-0.3090579	کجا که
-0.7160034	کرد ،	0.2318823
-1.41565	کرد تا
-0.2108534	کرد و	-0.1355672
-0.9378521	کرد که
-0.3090579	کردن و
-1.587811	کرده آمد
-1.279431	کرده بود
-1.587811	کرده خود
-1.587811	کرده را
-1.587811	کرده من
-0.1995724	کرده و
-1.587811	کرده که
-0.7861791	کشید ،
-0.7861791	کشید از
-0.7861791	کشید و
-0.6100879	کم و
-0.6100879	کم کند
-0.3017071	کن و
-0.7861791	کنار آن
-0.7861791	کنار او
-0.7861791	کنار زن
-1.212148	کند ،
-1.212148	کند از
-1.212148	کند با
-1.212148	کند تا
-0.5451133	کند و
-1.750239	که :
-1.266268	که </s>
-2.689269	که آخر
-1.729161	که آن	-0.3218863
-2.689269	که اخبار
-1.079181	که از
-2.689269	که اظهار
-2.689269	که البته
-2.380888	که امروز
-1.750239	که او	-0.0409905
-1.338819	که اگر
-1.266268	که این
-1.750239	که با
-2.689269	که باید
-1.380211	که بر
-2.689269	که بزرگ
-2.380888	که بعد
-2.689269	که بقیه
-1.750239	که به
-2.689269	که بیرون
-2.689269	که بیشتر
-2.689269	که ترس
-2.022234	که تو
-2.689269	که جلو
-2.689269	که حتما
-2.689269	که خاطر
-2.689269	که خانه
-2.689269	که خبر
-2.689269	که خواب
-2.689269	که خود
-0.8487324	که در	-0.04473716
-2.380888	که دو
-2.689269	که دیشب
-1.90309	که دیگر
-2.689269	که زنده
-2.689269	که سر
-2.689269	که سرمایه
-2.689269	که سفر
-2.689269	که سه
-2.689269	که شده
-2.022234	که شهر	0.06575012
-2.689269	که صندوق
-2.380888	که عز
-2.689269	که عفریت
-2.380888	که فردا
-2.689269	که قبل
-2.689269	که قصه
-2.689269	که ما
-2.689269	که مرا
-2.689269	که ملک
-1.266268	که من
-1.338819	که هر
-2.689269	که همیشه
-2.689269	که همین
-2.380888	که هنوز
-2.022234	که هیچ
-1.90309	که پدر
-2.022234	که پس	0.02281141
-1.729161	که پسر	0.1399249
-2.380888	که چنین
-2.380888	که چه
-2.689269	که چهار
-2.689269	که کار
-2.022234	که یک
-1.212148	گاو آغاز
-1.212148	گاو آهن
-1.212148	گاو بر
-1.212148	گاو خود
-1.212148	گاو را
-1.212148	گاو مرا
-1.212148	گاو و
-1.212148	گاو که
-1.008028	گذشته از
-0.2218488	گذشته بود	-0.2663935
-1.008028	گذشته ملک
-0.3090579	گر من
-0.3090579	گرد آن
-0.6100879	گردن </s>
-0.6100879	گردن آن
-0.30103	گرفت ،
-1.087209	گرفت تا
-0.7788283	گرفت و
-0.6100879	گریه در
-0.6100879	گریه و
-0.4777983	گفتند :
-0.7861791	گفتند امروز
-0.3090579	گنج جز
-0.3090579	گو را
-0.9111179	گونه آغاز
-0.9111179	گونه ادامه
-0.6027371	گونه که
-1.008028	یا در
-1.008028	یا من
-0.6996471	یا پدر
-1.008028	یا پیر
-0.3090579	یاد کرده
-1.670786	یک بار
-1.362405	یک داستان
-1.670786	یک ده
-1.670786	یک دیگر
-1.362405	یک را
-0.7317558	یک روز
-1.003751	یک سال
-1.670786	یک لحظه
-1.670786	یک مرد
-1.362405	یک هفته
-1.670786	یک و
-1.670786	یک گاو

\3-grams:
-0.06694679	بود ، و
-0.3020062	شد ، و
-0.2676614	کرد ، و
-0.1427226	تا آن را
-0.1890562	و آن را
-0.1757227	که آن را
-0.6198439	را از این
-0.1760913	و او را
-0.3020062	که او را
-0.9208739	شهر باز از
-0.8583087	شهر باز به
-0.5106994	را بر این
-0.5106994	را به عقد
-0.2050962	مرا به عقد
-0.1427226	گذشته بود که
-0.1427226	عقد خود در
-0.1427226	جواب داد که
-0.8117294	و در </s>
-0.8117294	و در آن
-0.6030362	که در این
-0.1427226	و دیار خود
-0.3020062	را دید که
-0.8117294	آن را </s>
-0.8117294	آن را از
-0.5436995	آن را در
-0.6656014	او را به
-0.9040662	خود را از
-0.9666314	خود را با
-0.6986015	خود را به
-0.1427226	صبح روز بعد
-0.02996322	<s> شهر باز
-0.3811874	به شهر و
-0.09654147	و شهر باز
-0.1427226	که شهر باز
-0.3645714	در طول راه
-0.5686914	به عقد خود
-0.6198439	و هر چه
-0.6198439	و هر که
-1.355797	<s> و آن
-1.293232	<s> و اگر
-1.355797	<s> و این
-1.293232	<s> و بر
-1.176037	<s> و در
-1.293232	<s> و هر
-0.7871061	<s> و چون
-1	، و </s>
-0.8616973	، و آن
-1.300661	، و از
-1.568691	، و او
-1.300661	، و اگر
-1.568691	، و بر
-0.7569619	، و در
-1.506126	، و ملک
-1.568691	، و من
-1.300661	، و چون
-0.2050962	شهر و دیار
-0.5106994	کرد و به
-0.2050962	که پس از
-0.2050962	که پسر بزرگ
-0.4437526	، که اگر
-0.7791274	بود که از
-0.1427226	دید که با
-0.5686914	را که به

\end\
